-0.0734498 -0.0644979 -0.130714 -0.0939828 0.17478 -0.0293089 -0.0925829 -0.231805 -0.644588 -0.1501 -0.0122477 0.0755423 -0.245125 -0.209968 -0.307111 0.136041 0.0203839 0.0555077 -0.0200127 0.0221796 0.0810805 0.225991 0.187645 -0.0922385 -0.0325734 0.085517 0.081466 -0.112197 -0.3747 -0.208829 0.0106004 -0.0849762 -0.37512 -0.0372924 -0.0563146 -0.128534 -0.230274 -0.182562 -0.256516 0.0511309 -0.128894 0.0137447 0.0303232 0.0383967 0.0864777 -0.116206 0.0445526 0.0911585 0.217405 0.283195 -0.232991 -0.267405 -0.209749 0.238926 0.263714 -0.179661 -0.545188 -0.457747 -9.43893e-05 0.0553152 0.0552145 -0.0952896 -0.529266 -0.334615 -0.086047 0.0826895 0.166174 -0.124752 -0.351442 -0.367011 0.149571 0.126515 -0.0624081 -0.217976 -0.312592 -0.225065 -0.216922 -0.281585 -0.141421 0.123075 -0.0232487 -0.090857 -0.164884 -0.280515 -0.302658 -0.191694 0.0789322 -0.236324 -0.0832271 -0.185432 0.0811198 0.098327 0.266301 -0.0185726 -0.145238 0.0164805 0.179017 -0.0107815 0.244297 -0.0489572 -0.177837 -0.357099 -0.148982 0.0395827 0.280197 0.0109235 -0.814782 -0.54066 0.0014345 0.20942 0.157053 -0.644681 -0.336546 0.0170599 0.11384 0.215579 -0.459913 -0.770142 -0.0163773 0.029861 0.0472729 -0.26639 -0.490246 -0.132774 -0.0809444 0.104186 -0.0319184 -0.0313212 -0.267316 -0.337375 0.144691 0.223217 -0.075356 -0.56342 -0.890621 0.078792 -0.097805 -0.107269 -0.468031 -0.458388 0.192659 -0.174583 -0.406082 -0.667718 -0.168675 0.137741 -0.0563284 -0.346622 -0.55853 -0.0435082 0.158354 0.0591088 -0.08757 -0.199177 -0.253233 0.102934 0.0133575 -0.23644 -0.635301 -0.204451 0.17752 0.114081 -0.251817 -0.544325 -0.0452071 0.0255665 -0.0111663 -0.395983 -0.545015 -0.00321747 0.160642 0.00254005 -0.276209 -0.353225 -0.020544 -0.193808 0.0727217 0.0592563 0.242367 0.0280915 -0.143368 0.0662506 0.146891 0.0966999 0.0796473 -0.403003 -0.169973 -0.124125 0.0968596 -0.0892248 -0.355547 -0.579561 -0.490785 -0.257555 -0.178832 0.199382 0.0553697 -0.147028 -0.186962 -0.287979 -0.156401 -0.194322 -0.325302 -0.134107 0.220995 0.0101479 -0.181758 -0.589003 -0.0971251 0.192553 0.133435 0.00626757 -0.672591 -0.241824 0.0386447 0.0871288 0.0897497 -0.423807 -0.524497 -0.134776 0.193853 0.0496537 -0.295688 -0.401117 -0.212094 -0.0368912 0.145612 0.0436864 0.0747205 -0.0760482 -0.224249 -0.584704 -0.741342 -0.570688 -0.17244 -0.120703 -0.0844529 -0.307016 -0.338448 -0.300546 -0.064672 0.0300982 0.246587 0.111388 -0.0146277 -0.00967216 0.196876 0.0219473 0.254484 0.0589886 -0.159372 -0.160099 -0.405182 -0.306029 0.0821129 -0.0691998 0.00486327 -0.331634 -0.345487 -0.168921 0.0203704 0.178395 -0.0739884 -0.113022 -0.549704 0.144232 0.122237 0.0099874 -0.136431 -0.584587 0.0995674 0.00934545 -0.00213694 -0.142297 -0.350255 -0.0121136 0.275589 0.22954 0.180229 -0.0957981 -0.0367328 0.0496549 -0.0285814 -0.169913 -0.129534 -0.162615 -0.322961 -0.591545 -0.457382 -0.201361 -0.232078 -0.325635 -0.16025 -0.136837 -0.184355 -0.109654 0.102904 0.0615148 0.257101 0.0750556 0.0265368 -0.0589401 0.0285106 0.0097843 -0.0701957 0.0227747 -0.0878693 -0.165976 -0.180413 -0.186719 -0.175262 -0.171459 -0.13633 -0.0729961 -0.15537 0.296417 0.0706405 0.203437 0.0010085 0.060876 0.0291977 -0.0830839 -0.160998 0.0481582 -0.0049833 0.0233976 0.262528 0.176431 -0.0541381 -0.21695 -0.0246195 -0.0959764 -0.21085 -0.294995 -0.14192 -0.262371 -0.544276 -0.650937 -0.31351 -0.152101 -0.257562 -0.163597 -0.0600412 0.0830388 -0.0715382 -0.149081 0.0558172 0.284535 0.0739086 0.025861 -0.0233308 0.219028 -0.115388 -0.20619 -0.240771 0.142143 0.0156299 -0.37058 -0.385775 -0.0510263 0.085552 0.0141238 -0.489747 -0.34876 0.170629 -0.0226096 -0.183343 -0.529252 -0.217058 0.176136 -0.162673 -0.307395 -0.306103 -0.0383398 0.0934125 -0.223292 -0.0690705 -0.017398 0.118592 0.0808397 0.0724041 0.00966925 -0.110951 -0.0590098 0.0693885 -0.0565406 -0.268442 -0.471589 -0.2741 -0.14474 0.0200038 -0.0903871 -0.254038 -0.211536 -0.0663772 0.119593 0.151245 -0.0327299 -0.131338 -0.00612127 