0.0983065 -0.198246 0.0391526 -0.0617629 -0.0589165 0.0231989 0.00753319 -0.140621 -0.141665 -0.131262 -0.0694172 0.163479 0.116689 -0.168793 -0.115777 0.0969247 0.177945 -0.0920798 0.169871 -0.0262758 -0.0948531 -0.125293 -0.00952149 -0.0238394 0.0778897 -0.0433775 -0.031253 -0.00673431 0.0237397 0.0371677 0.146243 0.100006 -0.148289 0.097776 0.135592 -0.0594082 0.11313 -0.0579041 0.0250144 -0.200126 0.0550952 0.00153196 0.172973 0.149737 0.119583 -0.0387707 -0.0152911 -0.0578967 0.0272874 0.0657027 0.189086 0.0917674 -0.0400384 -0.10386 -0.0241679 0.12286 0.0985451 0.132411 0.0955807 -0.105664 -0.0216688 0.058155 0.136128 -0.112368 0.121288 0.077137 0.138626 -0.187498 -0.0540977 -0.0482532 -0.0242014 0.0260872 0.0952279 -0.064078 -0.168967 -0.0581953 0.0173738 0.00652124 -0.076897 0.0650534 -0.0559509 -0.131573 0.027146 0.0730182 0.153186 0.10004 -0.0100985 0.176321 -0.0568621 0.0518493 0.00689046 0.0494596 -0.0524069 0.0640316 0.0349367 0.0516573 0.0547168 -0.0580326 0.0511873 -0.036186 -0.126519 -0.158227 -0.0374042 -0.201658 -0.154048 -0.0729546 -0.0895552 -0.0501537 0.0617948 -0.0392097 -0.107846 -0.0225806 -0.0030734 0.162744 -0.0192835 -0.00547651 0.0895308 -0.0149522 -0.102969 -0.125666 0.0970472 -0.0526354 -0.102842 -0.153091 -0.0445422 0.0639867 -0.0722091 -0.00938359 0.17912 0.0538009 0.0778161 -0.179148 -0.028157 -0.0796328 0.037 0.0983201 0.136013 -0.0612079 0.049015 0.0786234 -0.0109748 0.0897333 0.0743767 0.0554228 0.087712 0.0775831 -0.205779 0.0443882 0.0408552 -0.104269 -0.180136 -0.000912147 0.114999 -0.0206432 -0.0230996 0.0313733 0.0557913 -0.0734193 0.115409 0.00178768 0.0624083 0.0484229 0.0663329 0.0522999 -0.132812 -0.104105 0.0127326 0.0564705 0.159541 0.0737138 -0.160311 0.0107569 -0.0389479 -0.114524 -0.0254129 -0.168874 0.0507208 -0.0226262 -0.119662 0.0225176 0.0955445 0.102883 0.0504511 -0.149558 0.0856832 -0.070513 0.0447358 0.000693112 0.023888 -0.0792992 -0.0830244 0.0829839 0.1977 0.0995339 0.0170854 0.0639395 0.0264396 0.0164909 0.172535 -0.0817638 -0.0182207 0.138323 0.102691 -0.0303588 -0.014074 0.0414003 0.11078 0.119498 0.176794 -0.0551031 0.0418566 0.0434764 -0.0414104 -0.0505323 -0.0512069 0.0583633 -0.0295639 -0.172506 0.0644278 -0.0341496 -0.153115 -0.00330929 0.0223945 -0.0242463 -0.0876921 0.132167 0.139949 0.200124 0.0083282 0.128978 0.0887858 -0.0529548 0.0363408 0.0361313 -0.076844 0.0985915 -0.0205932 0.00632677 -0.0729836 -0.154309 -0.0310214 0.0715645 -0.0896195 -0.107632 0.00290097 0.0849206 0.156696 0.150699 0.0462687 -0.0304065 -0.0409652 0.0469123 0.0235089 0.0761541 0.0221843 0.0163335 0.0189634 0.205735 -0.0050306 -0.0740199 -0.0101288 -0.0148761 -0.0266753 0.0264868 0.00598352 -0.14451 0.129688 -0.0459944 -0.0153358 0.0922474 0.0311774 0.0906319 -0.0151283 -0.0235512 0.109081 0.0412642 0.105099 0.00975052 -0.0639566 0.0956621 0.0111798 -0.0092513 0.128943 -0.0498823 0.0259664 0.0575408 -0.046138 -0.152793 0.1835 -0.160338 -0.083368 -0.0713254 -0.172101 0.179761 -0.150347 -0.177075 -0.0943068 -0.0236063 -0.0698627 0.0951248 0.086133 0.0171821 0.0631451 0.0497298 0.0121835 0.0293117 0.132207 0.0616473 0.167193 -0.0642458 0.149589 0.066687 0.065901 -0.025158 0.119375 -0.0102204 0.0476468 -0.169416 -0.0333868 0.0715607 0.149307 -0.162163 -0.00224593 0.0805023 -0.118677 0.17111 0.0131447 -0.148273 0.0521924 -0.0912599 -0.0853083 -0.0390342 -0.00740411 -0.0550835 0.0303501 -0.173218 -0.100624 0.114152 -0.0186779 0.00191466 0.185374 0.0396948 -0.0559815 -0.00671956 -0.00743135 0.0320325 0.0657904 -0.0846386 -0.192955 0.084575 0.0377624 -0.0290387 0.051718 0.0219003 0.0816202 0.0640622 -0.0616688 -0.0124992 -0.0755448 -0.151977 0.0440043 -0.0811664 -0.0137007 -0.00563951 -0.0174419 0.0187545 -0.101593 -0.0542311 -0.0374269 0.0605001 0.169466 -0.0820932 -0.119417 -0.171498 0.0965164 0.08417 0.0642688 0.205216 0.0547156 -0.00248322 -0.063735 0.0400638 -0.00124728 0.0943756 0.160009 -0.115224 -0.066782 0.0285649 0.14951 0.0174631 0.137528 -0.071392 0.0586274 -0.0619561 -0.0101628 0.0726969 -0.0651471 0.00251533 0.178832 0.105432 0.0881464 -0.100887 -0.0893503 0.0944661 0.183695 -0.0687524 0.02578 -0.0882648 0.0319627 -0.118132 -0.0965996 -0.00902408 -0.00432357 0.0749438 -0.110493 0.0683742 -0.0176388 -0.0351724 0.0268373 0.0147542 0.0632204 0.00857296 -0.0805835 0.13574 0.0561631 0.183463 -0.0711314 -0.0754974 0.0566178 0.0816773 0.174204 -0.0495874 0.0317467 -0.035332 0.090831 0.111483 0.155338 0.0936614 0.0388058 -0.104977 -0.154651 0.0945531 -0.0809831 0.0127619 0.047801 -0.0185217 -0.100065 -0.104613 0.0391173 -0.0599244 0.0706835 -0.0119764 0.00810213 -0.051963 -0.148292 -0.00638039 0.0361804 -0.174591 0.0521844 -0.0445133 0.0282055 0.0740365 0.122265 0.181717 0.00906264 -0.0673035 -0.017685 0.0858908 0.128112 0.139071 -0.0811739 -0.130037 0.0446727 -0.0316925 0.0601374 -0.0341314 -0.144164 -0.0462362 -0.0862 0.134417 -0.0222719 0.114954 -0.179975 -0.122984 -0.0115168 0.0143593 0.0646398 0.0222585 0.0278694 0.0132247 -0.153587 -0.0292768 -0.0748821 0.0545252 -0.0615887 0.0225445 -0.116824 -0.0432837 -0.172826 -0.0544927 0.0309621 0.00324775 -0.199043 0.0517409 0.0585514 -0.0681669 0.17896 0.10338 -0.0807102 0.179528 -0.0665171 -0.138441 -0.0061291 -0.105506 0.115575 -0.0303126 0.0532194 0.0338379 -0.0864073 0.0738664 -0.0281299 -0.0168444 0.14606 -0.145519 -0.00871335 0.0271138 0.132282 -0.059636 0.0856199 -0.0221394 0.0871751 0.000348027 -0.0245257 0.123041 0.137978 -0.067951 0.11783 0.0058524 -0.0735511 -0.0359739 0.0620272 -0.0808296 0.0218013 0.0500604 -0.00833595 0.146248 0.0181222 0.04572 -0.0835645 0.13627 0.0102957 0.0450959 0.0642773 -0.0233927 0.128888 -0.0406141 -0.139475 0.0929522 0.130946 -0.118633 -0.186015 -0.0182426 -0.0130811 -0.125317 -0.0715736 0.0582607 -0.142205 0.120337 0.0555824 0.0909605 -0.00293204 -0.01581 0.190313 -0.0378637 -0.057147 0.0736366 0.11391 0.139528 -0.131228 -0.0882869 -0.024536 -0.149096 0.106307 -0.161262 0.0118127 0.0931379 0.0771476 0.100253 0.0380803 0.0836072 -0.127919 -0.0363108 0.0432063 -0.072127 0.0780525 -0.0941953 -0.11687 0.0605842 0.0610094 0.180474 0.133926 0.0832066 0.197815 0.0362317 0.0141454 -0.0616642 -0.0392678 0.0507708 0.0390287 -0.0708133 -0.165842 0.0741885 0.00461339 0.123471 0.0145253 -0.0640695 0.00549699 0.0226157 0.00854898 0.026618 -0.0735802 -0.0763431 0.0390445 -0.0295649 -0.0511256 0.0640439 -0.163102 -0.156114 0.121611 -0.110281 -0.035126 -0.0518521 0.150117 0.0219942 0.107384 -0.0612778 0.00113615 0.0271787 -0.109665 0.0476422 0.0192282 0.0176928 0.107911 -0.00137031 0.0266313 -0.0483279 -0.0546142 0.034098 0.00562913 0.0120641 -0.0155638 0.0137166 -0.0168232 -0.0386142 0.0621033 -0.0162618 -0.134029 0.0212927 -0.0224912 0.0684875 -0.0460069 0.121664 0.0383997 -0.181704 0.025656 0.0543605 0.0299734 -0.123882 -0.0299192 0.0602708 -0.0906317 -0.0202859 -0.0063182 -0.0766115 -0.0392493 -0.0246085 -0.0405863 0.14609 0.0125612 0.0241874 -0.00815291 0.0606984 -0.152236 -0.0692941 -0.153275 -0.0916466 -0.0745636 0.0532303 -0.00917687 -0.185045 -0.0644307 -0.0225915 -0.112782 0.133448 -0.0628082 0.156232 -0.0655962 0.0281512 -0.126736 0.0412145 0.202627 -0.0518695 0.0588367 0.0878805 -0.115132 -0.186831 0.00874759 0.0182032 -0.0364563 0.0238645 -0.00386717 -0.0254417 -0.16075 -0.125645 0.0214464 -0.0444958 -0.084437 -0.00235247 -0.0792998 0.0872611 -0.0496655 -0.0313701 0.0987146 -0.061411 0.114403 -0.0624605 0.0237147 -0.088629 -0.0762925 0.195698 -0.0794594 -0.0870009 -0.109806 0.0554774 -0.130896 -0.0427555 0.0418043 0.181728 -0.0188493 -0.0963009 0.0793609 0.0171612 -0.00390849 0.0887888 -0.0748294 -0.0682817 -0.107968 0.11602 0.0706596 -0.113373 0.0196024 -0.0342306 -0.0309288 -0.0164449 -0.12365 -0.0448298 0.0951798 -0.0133851 -0.0732259 -0.0336618 -0.0846103 -0.158385 -0.0967731 0.147243 0.169393 -0.0133427 0.0825641 0.0821615 0.0111918 0.0967276 -0.106526 -0.152548 0.0138589 -0.148418 -0.0885554 0.0337527 0.0571885 0.0374486 -0.15466 -0.0369234 0.0399539 0.0903296 0.069247 0.0888282 0.0267767 -0.0607927 0.0212413 -0.00300169 -0.0714123 0.039143 -0.00217545 0.0500847 0.169153 -0.114327 -0.0333825 -0.205047 -0.0849737 -0.0104547 -0.0524043 0.0366546 -0.167063 0.107235 -0.0153252 0.184186 -0.0191301 -0.0651274 0.0629305 -0.1193 0.075136 0.187018 -0.00687711 0.0103131 0.0151655 -0.0894906 -0.0406741 -0.0325517 0.148894 -0.0487446 0.0127003 -0.0511327 0.0927444 -0.0136778 -0.145083 0.0371935 0.0135657 -0.058818 -0.163361 -0.0575941 0.187953 -0.110947 0.162119 -0.202288 -0.0360863 -0.0275749 0.0229481 -0.164683 -0.0350091 -0.0214503 -0.0411569 0.178503 -0.0911712 0.0777995 0.030449 0.183002 0.0895375 -0.0597315 0.0746719 -0.131313 0.0830098 -0.164569 0.0834609 0.0819777 0.0707589 -0.0663991 0.0194462 0.0994119 0.0112508 -0.0463771 0.00889109 0.0342481 0.0197076 -0.169006 -0.00505316 -0.0478044 0.088798 0.165816 0.161018 -0.112903 0.00443784 -0.0226845 0.202786 -0.0761967 0.026375 -0.0478858 0.0580278 -0.0616914 -0.0503784 -0.0431494 -0.0210853 0.124841 0.113294 0.169265 -0.0783232 0.117575 0.0557479 -0.0183733 0.0219362 0.0165932 -0.0278481 0.0200751 0.0985345 -0.094239 0.0620252 -0.0913607 0.111222 0.00316037 -0.000714903 0.104182 -0.110592 -0.0844405 -0.00644681 0.0871493 -0.0861957 -0.00490581 0.0924924 -0.131952 0.0754228 -0.0252206 -0.0133298 -0.00157006 -0.0520033 -0.069291 0.00774583 -0.0449973 0.205838 -0.0900823 0.0630324 0.0471755 0.111241 -0.0311094 -0.0245381 0.0193977 -0.0161065 0.10339 0.0784283 0.00132449 0.0814348 0.0630622 0.0030721 0.0848947 0.0297462 0.140435 0.0565583 0.0745536 0.128529 -0.0427649 -0.185625 -0.00412857 0.0383361 -0.045975 0.0421343 -0.106975 0.190246 0.0147418 0.00532515 -0.0704201 0.0321349 -0.0988424 -0.126283 -0.0250873 0.0620531 -0.0373807 0.00361816 -0.0357342 0.0456 0.0521141 0.027324 -0.0659433 -0.000940936 -0.0399961 -0.0858791 0.0971558 0.0972629 -0.0255984 0.106083 0.082443 0.195683 0.0689436 -0.00476072 -0.0748989 -0.097832 -0.0742195 -0.124909 -0.154638 0.0553066 -0.0559381 0.0588638 -0.106253 0.118462 -0.00801322 -0.0196724 -0.0612969 0.042944 0.152548 -0.188018 -0.0514833 0.0690815 -0.134698 -0.107164 0.174849 0.102052 -0.00702121 -0.0418882 -0.0202454 -0.0509879 -0.0713231 -0.0378378 -0.110782 -0.0152129 -0.117335 -0.0366023 0.0446982 -0.119874 -0.181778 0.0259246 0.0711521 0.0436126 0.0391387 -0.00503532 -0.0130512 0.099064 -0.070786 0.0151205 -0.0881657 -0.0477076 -0.0657228 -0.131417 -0.0589486 0.0325388 0.199061 -0.0417224 -0.0516503 -0.0541575 0.0366308 -0.0720931 0.111667 -0.0432804 -0.0044889 -0.0172843 0.0629206 0.0800227 -0.0703729 -0.0388415 0.0915586 -0.0187855 0.00368787 0.00118667 0.174285 0.0748545 0.0725982 -0.113006 0.00474641 -0.137691 -0.0678407 -0.0760361 -0.0577985 0.00480925 0.171974 -0.0327592 -0.0441682 0.0769 0.00227691 0.0192845 -0.145014 -0.0466957 -0.0318671 -0.0716342 0.0213293 0.117288 -0.178831 -0.0451552 -0.168865 -0.0440173 0.00113065 -0.0858597 -0.065067 0.00922863 -0.00182054 -0.0714701 -0.112122 -0.164456 -0.146812 -0.108614 -0.0521115 0.0300746 -0.0142479 -0.10231 0.0468187 0.144333 -0.143078 -0.0043067 -0.0172479 0.144631 -0.00797106 -0.0504769 -0.0493954 0.170226 -0.0627374 0.0710037 -0.0124598 0.0309054 0.193893 0.0347128 0.0632422 0.00417308 0.041377 -0.042427 -0.0441575 -0.102265 -0.0929223 0.0162827 -0.0465752 -0.0577903 -0.117085 -0.0548497 0.0126866 -0.0581278 -0.00496636 0.178113 -0.0149749 0.029044 0.00471539 -0.00792185 0.0576339 0.0718102 -0.0133131 -0.0448818 -0.131106 0.0789252 0.0466699 -0.062509 0.180745 0.173118 0.0788499 -0.130985 0.0226856 -0.152727 -0.00130644 0.0417057 0.049557 -0.035099 0.00111945 -0.0715452 0.0271761 0.047559 0.0108641 0.165687 0.0197296 -0.0520855 -0.0735276 -0.0214031 0.11205 0.186536 0.0395019 0.0435798 -0.0727532 0.181235 0.0994919 -0.0840908 -0.0307166 -0.129645 -0.0257499 0.0878085 0.0915324 -0.0150089 0.0759843 -0.0329966 -0.0112073 -0.0931863 0.0372505 -0.0113188 -0.0121011 0.0360166 -0.0328769 -0.201223 -0.0676708 -0.0531405 -0.128229 -0.0334574 -0.00818047 0.0892404 0.120298 -0.0444018 -0.0501288 -0.0021291 -0.0346794 0.0277312 0.0394693 -0.0230293 -0.0243207 0.160252 -0.0126324 0.0975585 -0.157231 0.0294594 -0.054791 -0.0500314 -0.0211356 0.00511055 -0.0402553 0.0204667 0.105144 -0.059747 0.0862397 0.157209 -0.0133052 -0.0631712 0.131832 0.0510874 0.122469 -0.070872 -0.0504161 -0.143991 0.0918148 -0.0687398 0.141427 0.0273548 -0.0267992 0.0995168 0.17184 -0.0848137 0.0751245 -0.0569302 -0.087739 -0.0144083 0.0480595 0.0693033 -0.021564 -0.0565586 0.101866 0.121565 -0.0577464 0.0183442 0.056169 0.037829 -0.0940504 -0.0999429 0.112429 0.0977519 -0.0192182 -0.0292728 -0.0102552 0.00515991 -0.0613562 0.0983999 -0.0279621 0.0452305 -0.0212773 -0.0973763 -0.143851 0.0492875 -0.0431717 0.181328 -0.0547173 0.0209751 0.0587 0.169363 0.073157 -0.0425845 0.0465118 0.105937 -0.0333748 0.012445 -0.116791 0.129328 0.0495873 -0.0946479 -0.0679232 -0.0496808 0.0881605 0.120401 0.0504432 -0.146934 -0.0421324 -0.0439685 0.0390904 0.187387 -0.153713 -0.0649956 0.166257 -0.0902891 -0.0824454 -0.0942706 -0.118911 0.0374352 0.0696815 0.0170575 -0.0762815 -0.0581669 -0.0525999 -0.0724196 -0.0793435 -0.0419372 0.109266 -0.137694 0.00961827 0.0474705 -0.00766101 0.113121 0.0476818 -0.0101689 -0.0470456 0.0699058 0.112862 -0.0172738 -0.0745738 0.0211203 -0.132267 -0.0484149 -0.0418598 -0.0133258 0.00567572 0.115408 0.020416 0.131453 -0.0951503 0.035977 0.193525 -0.094851 0.0186599 0.00109227 -0.0217304 0.0142553 0.162891 0.184907 0.12913 0.17887 0.117421 -0.180421 0.0612798 -0.0662502 0.024639 0.0768894 0.110743 -0.0484348 -0.0928466 -0.04421 0.0681132 0.0227451 -0.030262 0.0622118 -0.0598208 0.00688585 0.152413 -0.143477 0.0409041 0.161307 -0.126663 -0.190596 0.13715 -0.135805 -0.0402433 0.105064 0.125061 -0.179764 0.201785 -0.017809 -0.136416 0.0169015 0.00944694 -0.138938 0.116953 0.0659875 0.102693 -0.0643675 0.0707332 0.168659 -0.188039 -0.157417 -0.0515032 0.0876394 -0.0218813 0.00597692 0.187547 0.00785113 0.174809 -0.0331293 0.0118799 -0.0553194 0.100429 0.0779816 -0.0658333 0.0343826 0.0713522 -0.0504425 0.0065566 -0.178391 -0.00150113 -0.133525 0.0697661 0.0372705 0.0175409 0.0861496 0.13772 -0.16634 -0.0154641 -0.0241557 -0.0469818 0.0482308 0.0425213 0.127206 0.165686 -0.15501 -0.025975 0.100442 -0.0125519 0.0323021 -0.175215 -0.0955834 -0.0501057 0.102775 0.114943 0.0475489 -0.114118 -0.161601 0.0104203 0.0126824 -0.0237673 -0.0679169 -0.0721748 0.0382342 0.128227 0.148828 0.0431657 0.0552604 -0.0482182 0.0544651 -0.0866711 0.193406 0.0732487 0.00312748 -0.0181342 0.0544546 0.0559444 -0.106777 0.0919326 0.0823176 0.114631 -0.0277968 -0.00466465 0.0939822 -0.0592276 0.126806 0.022682 0.0247348 -0.00881219 0.0374962 0.179589 -0.102979 -0.0468032 0.0289419 0.117747 0.0374694 0.0533138 0.112107 -0.0820339 -0.0725482 0.0377171 -0.165868 0.114771 0.0066911 0.1001 -0.0092396 0.026406 0.0380396 -0.0565091 0.027428 0.139564 0.0297824 -0.0654596 0.00551282 -0.160258 0.0688824 0.0826179 0.0202645 0.130476 -0.00686008 -0.0544106 0.081356 -0.0141001 -0.0269542 -0.156165 0.0720585 -0.0193814 0.0586088 -0.0135221 0.0879392 0.0944391 -0.108453 -0.0651885 0.0120989 -0.0987836 -0.0312655 -0.0688148 0.115175 0.0215179 -0.130979 -0.0196339 -0.108232 0.0231371 -0.0612568 0.0564787 -0.0955347 -0.0293637 -0.112589 -0.113377 -0.0644003 -0.0582152 0.0541743 -0.0661764 0.0228562 0.0566316 0.100661 0.0129864 0.0251612 0.0344732 -0.00791051 0.00380421 0.0833632 -0.0451951 -0.0392761 0.035825 -0.0965271 -0.180262 -0.00555679 0.135753 -0.0117853 -0.025829 -0.17552 0.104123 0.0611206 0.0977634 0.0730874 0.0145941 0.144713 0.00834756 0.0242469 0.00297142 0.0215013 -0.0453716 0.0459814 0.0609659 0.00216645 0.0282768 0.121764 -0.0146279 0.0499388 0.162431 -0.127658 -0.0722857 -0.0215277 -0.0517282 -0.00431388 0.00983219 -0.0500213 -0.00302437 0.0418402 -0.138445 0.110077 0.0366823 0.120928 -0.0614347 -0.103088 -0.118073 -0.0527332 0.0380026 0.045707 0.0906167 -0.00672485 -0.0384052 0.0842653 -0.0199166 -0.0147793 0.0947365 -0.19286 0.10885 -0.015914 -0.0442385 -0.0593704 -0.0626416 0.100208 0.101631 0.0338442 0.184998 -0.000388726 0.0595123 0.0186609 -0.124592 -0.0834219 -0.0112778 -0.0329846 0.0075172 -0.0105925 -0.177421 0.00677228 -0.00395236 -0.0751629 -0.164056 0.0123382 0.0237202 0.124171 0.090537 -0.0272597 -0.0553786 0.0210602 0.000977426 -0.0299242 0.122665 -0.0623253 0.0862188 -0.0498191 0.0828164 -0.0175259 0.183306 0.0192682 0.0118043 0.0567182 -0.0323579 0.0325552 0.0543087 -0.0174934 -0.0454779 -0.0413854 0.088953 0.0430013 0.086666 0.0533924 0.0198696 0.0908407 0.0599489 -0.0885351 0.0382126 -0.00297164 -0.0652927 0.0305232 0.0190145 -0.0130383 0.15375 0.203642 0.0419439 -0.168853 -0.0812747 -0.142554 -0.0224578 -0.0435841 -0.0496969 -0.110244 -0.0750998 0.0376424 0.000122712 0.0610988 -0.0436274 1.43317e-05 0.038706 -0.144111 -0.0424386 -0.0431884 0.102071 -0.062587 -0.0386749 -0.00542529 -0.15959 -0.0600467 -0.0182957 -0.111566 -0.0182453 -0.01668 0.0408344 -0.0487922 0.016996 0.0225864 0.0473362 0.11407 -0.0948526 -0.026 -0.108201 0.0185478 0.0378826 0.000234899 -0.0107205 -0.0371384 0.0815545 -0.0555185 0.143911 -0.0335354 -0.0389179 -0.123276 -0.00147438 -0.0678824 0.0532273 0.0933442 -0.122761 -0.0168799 -0.0589988 0.0467584 -0.038057 0.0462433 -0.0906101 -0.113491 -0.0697282 0.187869 0.0973037 -0.0591042 -0.00558308 0.0503343 0.126283 -0.0704144 0.0149319 -0.0221369 0.0239725 -0.159614 -0.0659995 0.00991066 -0.0267694 -0.0471629 0.0189026 0.0289281 0.0973674 0.028976 -0.124187 -0.00666973 0.0173132 0.0737471 0.116316 -0.128974 0.0440323 0.107804 -0.0931393 -0.0359535 0.0066085 -0.0322121 0.0576749 -0.0616263 -0.0905084 -0.0443547 0.105979 -0.0547566 -0.0587442 0.00327044 -0.0292467 -0.0557024 0.0379409 -0.0218899 -0.118891 0.130941 0.117502 -0.059937 0.106281 0.109575 0.0740931 0.108242 0.0476562 -0.0270419 0.182236 0.0493403 -0.0338887 -0.00221053 0.0844626 -0.0315105 0.125824 -0.0342699 0.0336706 0.0201171 0.12166 -0.00574108 0.0173722 -0.00399703 -0.0667508 0.0582165 -0.139694 -0.135334 -0.0788815 0.0716353 0.0353 0.00408512 -0.132837 0.0506015 0.0227508 -0.0335319 -0.097351 -0.0314008 0.140108 0.000304774 -0.0961307 -0.106062 0.026575 0.138483 -0.00114139 0.0151891 -0.187383 0.180523 -0.0999376 0.0488411 -0.00572919 -0.0844399 0.0044076 -0.0401513 -0.0813221 0.196398 0.17727 0.107007 -0.100198 0.0869871 -0.0471709 0.0941286 0.0101303 -0.0630202 -0.177 -0.0912914 -0.0986702 0.0189066 0.0511542 -0.172124 0.0201399 0.0699657 0.0462653 -0.0609891 -0.0773677 0.0602053 -0.0435083 0.126416 -0.0502526 0.0531894 0.0809053 0.0851651 -0.0746614 0.0954061 -0.000332421 0.00243017 0.164467 -0.0660433 0.0226373 -0.0295535 -0.145994 0.033706 -0.0464016 -0.0355786 0.0370656 -0.0134067 -0.0605746 -0.101396 -0.0057137 -0.180968 0.0374596 -0.153026 0.0393741 -0.0777853 -0.171125 -0.0275382 0.0298281 0.0312475 -0.0195527 0.113427 -0.00109665 -0.0993301 -0.157934 -0.066573 -0.15518 -0.0964193 -0.123782 -0.0626286 -0.0594181 0.0954368 -0.100299 -0.0367148 0.124782 0.0551751 -0.0107868 -0.150318 -0.0712884 0.0887794 0.14161 0.090159 -0.0462176 0.0713016 -0.158907 -0.0305943 0.0242876 -0.10424 0.142838 -0.0258768 0.0283608 0.0363584 -0.0905897 -0.000955779 -0.0524965 -0.0855913 -0.0372505 -0.103973 -0.0833094 0.0192723 -0.0957936 -0.0271002 -0.0191315 -0.106352 0.197906 0.0329408 -0.0942496 -0.111195 -0.145133 0.0542608 -0.0350959 0.0837783 0.0159096 0.0802364 -0.0217622 0.091558 -0.161115 0.096722 -0.171044 0.0324885 0.100916 -0.0353345 0.00620537 -0.0329353 -0.00949577 -0.0174478 0.101088 0.0453622 0.154536 0.109806 0.062352 -0.179541 -0.0252156 -0.0290284 -0.0604014 0.115769 0.0191363 -0.0922363 0.059421 -0.114021 -0.0170044 0.139699 -0.00839453 0.194761 -0.0145583 -0.107512 -0.0747268 -0.113399 0.0768425 0.0375082 -0.0186495 -0.0551626 -0.0492572 -0.122968 -0.113334 -0.0458275 -0.0172809 -0.117728 0.0866645 0.0286384 0.164817 0.023017 -0.0439958 -0.0522946 -0.120125 -0.035274 0.0188289 0.0131163 -0.117126 -0.00482135 -0.0282659 -0.192737 -0.142011 0.0196427 -0.0212856 0.0671849 -0.00496291 0.116817 -0.0772508 -0.00673942 -0.125683 -0.0601722 -0.131653 -0.0542796 -0.140613 -0.0570369 0.0908862 0.0470928 0.116374 -0.0542018 -0.000684186 -0.0717403 0.0278449 -0.0840415 -0.0217018 0.0041044 -0.0497376 0.0770379 0.0549298 -0.109679 0.0623811 0.0444152 0.136302 0.0325674 0.0446566 0.162158 0.0209488 -0.00131854 -0.0745526 -0.00736511 0.18013 -0.0831607 0.0521519 0.117936 0.084175 0.0512462 0.0987352 -0.0952535 -0.125728 0.0725219 -0.0781207 0.109751 -0.0186063 -0.0139752 -0.0788485 -0.0127333 -0.146586 0.144203 -0.187728 -0.0209352 -0.108104 -0.00810232 -0.105923 0.0377544 0.03417 -0.0792888 -0.0950373 -0.026826 0.199958 -0.0240287 -0.0788004 0.0668215 -0.0250699 0.0551282 0.135247 -0.145336 0.13612 -0.0707325 -0.0972967 0.0575283 -0.118267 -0.052229 -0.0576288 0.127202 -0.0988806 -0.156747 0.00804037 0.0704661 0.133221 0.20159 -0.0922615 0.0853197 0.0605234 -0.00621587 -0.157944 0.114351 -0.0709435 -0.125476 0.0127503 -0.0868744 -0.0834245 0.0348046 0.0899085 0.199984 0.0279318 0.0302296 0.0753132 -0.104002 0.168312 0.121475 0.0573857 0.171054 -0.149766 -0.0105928 0.132691 -0.0810843 0.107294 0.074997 0.0660732 -0.0269648 -0.110112 0.0555195 -0.0429423 -0.0323027 0.163849 0.0413251 -0.107577 0.136393 0.0477237 0.0941392 -0.0219749 0.18654 -0.112501 -0.109869 0.0274515 0.0178014 -0.0156371 0.0409378 -0.11905 0.0878889 0.034362 0.014379 -0.183701 -0.0475973 -0.0719943 -0.00389506 0.0354385 0.134729 -0.0970833 0.0381296 0.173359 0.0695369 0.06705 0.0862248 -0.0070633 -0.0650346 0.0930374 0.0958228 -0.196189 -0.0258373 -0.0225049 0.0110741 -0.0574412 0.0234254 -0.0554216 0.126162 -0.0691719 0.153145 0.108596 0.0027548 0.0378689 -0.0995711 0.0634532 0.0453612 -0.0696419 -0.0193445 -0.12591 0.178356 -0.0287283 -0.0789213 -0.135951 0.0316045 -0.109373 -0.126294 -0.0874794 0.069248 -0.0550537 0.147292 -0.125676 0.0103364 0.0763711 -0.000649844 -0.0772459 -0.0441406 -0.0383518 -0.0253246 -0.00737175 0.0658183 -0.0506288 -0.0124285 -0.177194 0.0849433 -0.0509256 0.111157 0.0219584 -0.0382489 -0.140199 -0.00178771 -0.140089 -0.150203 -0.131591 0.0522867 -0.0125093 -0.125498 0.0956258 -0.0166699 0.0311294 -0.165433 0.0958491 -0.0433047 0.0226724 -0.084409 0.071194 -0.0155796 0.0503507 -0.194579 0.0215946 0.00760151 0.00829259 0.103567 0.11529 0.0917476 0.128769 -0.112563 -0.0705529 -0.0725445 -0.019998 -0.0289418 0.0680115 -0.182495 -0.196115 0.150999 0.173147 -0.0528018 0.0150627 0.103185 0.0980943 -0.0687452 -0.0383251 -0.100522 0.0364739 0.03084 -0.0295508 -0.0568654 0.0128566 0.0721113 0.0824804 0.101837 0.133082 0.0633055 0.163595 0.128388 0.0824136 -0.0563705 -0.053578 0.126799 -0.128704 -0.166431 -0.10923 -0.0712663 -0.00577701 -0.0505006 0.0782114 -0.0492545 0.11546 0.0604095 -0.0747429 0.168931 -0.10922 -0.031138 -0.16123 -0.0607266 -0.0360313 0.0873379 0.00960078 0.132999 -0.0868226 0.00466612 0.0326842 -0.0211002 -0.0440489 -0.0092803 -0.0169789 0.0478812 -0.106966 -0.146216 -0.00105248 -0.0596987 0.00658111 0.0259136 -0.0331812 0.119857 -0.0280758 0.0197201 0.0700217 0.144349 -0.0887759 -0.114867 -0.0846911 0.0174385 -0.0402408 -0.0652177 0.171015 0.0416695 -0.0602178 0.103146 -0.0130967 0.149496 -0.00122797 0.0908976 -0.0702702 -0.0137802 -0.133647 0.0975996 -0.0482913 -0.120559 -0.0510086 -0.0561034 -0.143977 0.0629855 -0.146794 0.182418 0.0997309 0.149981 -0.0168368 0.190249 0.0140392 0.0277269 0.0492039 -0.0204616 0.0153576 -0.121963 0.189701 -0.0461545 0.0280179 0.175195 -0.0220299 0.122228 -0.0515302 -0.0361157 0.0535932 0.141055 -0.0507202 0.0552863 -0.0902676 -0.0632968 0.0215944 0.162022 -0.120024 0.0949139 0.0957201 -0.124596 0.00431174 0.00511534 -0.124553 -0.0894782 0.130547 -0.102052 0.144646 0.109836 0.0500368 0.0864516 0.014869 0.0649989 -0.0226205 -0.0168515 0.0337995 0.0873717 0.0468597 0.0154565 -0.128196 -0.0329325 -0.161967 -0.082594 -0.0479684 0.163771 0.148927 -0.0764759 0.11507 0.032938 0.0861061 0.0272519 0.0133034 0.0657787 -0.0160811 0.0706644 -0.0748873 0.152326 -0.0463782 -0.169818 -0.189311 0.133331 -0.0684271 0.00103528 -0.131443 0.0597456 -0.0522032 0.13974 0.0350045 -0.0682202 -0.0670315 0.011814 -0.05251 -0.00174297 0.00113026 0.0287352 -0.0781069 -0.0290388 -0.0297541 0.0577957 -0.00756396 -0.0180367 0.0200639 0.0714521 0.0344393 -0.029009 -0.030902 -0.0645747 0.0241296 0.0258908 0.0695683 -0.112384 -0.0274292 -0.0954751 0.0252969 0.0689821 -0.0433282 0.086774 0.0502531 -0.142192 0.00843643 0.0605003 0.0289128 0.0261516 0.00857954 0.0967164 0.0599268 0.022612 -0.0550838 0.09999 -0.140237 -0.0728427 0.021553 -0.00956739 0.0353426 -0.0653002 -0.103586 0.0685572 0.0705156 -0.00645073 -0.0569333 -0.1119 -0.138707 0.154636 -0.0830361 -0.00316422 -0.0182942 0.0438969 0.0221272 -0.0244179 -0.0146262 0.0251606 0.0819128 0.00624083 0.0663278 0.0531692 0.0757042 -0.121799 -0.0736342 0.0109616 0.0444333 0.0547133 0.00999279 0.144465 0.19567 0.0836672 0.130873 -0.0551894 0.0310022 -0.0447549 0.0543766 0.03005 -0.0507997 0.00962903 -0.126271 0.0566537 -0.0247309 0.0472106 0.0588493 -0.140684 0.045598 0.133503 0.0551339 0.148339 0.121778 -0.000405266 0.0397637 0.0170941 0.081604 0.104649 -0.0612893 -0.0229354 -0.0743863 0.0609874 -0.110006 0.00612076 -0.0728494 0.0417769 0.049558 -0.0367755 0.104266 0.0731353 -0.123067 -0.109434 -0.0308936 -0.0798578 0.00617719 -0.112381 0.093739 0.112632 -0.0293363 0.12949 0.0908179 0.184153 -0.0650772 -0.126721 -0.016165 0.19872 0.0715896 0.191064 -0.0129054 -0.115036 -0.0406583 0.0715099 0.0283412 0.00415684 -0.0148359 0.152982 -0.148037 0.0609039 0.0875945 -0.0441689 0.0727889 -0.0526042 0.181102 0.0404023 -0.0595919 0.0256353 0.118726 -0.132579 0.113561 -0.0961788 -0.0794398 -0.0426941 0.0378845 -0.168194 -0.0243721 0.0290593 -0.0500054 0.128644 0.0422201 0.0765693 0.112633 0.00138965 0.0646031 0.17487 0.0144028 -0.0974713 0.0122486 0.0280488 0.00418522 -0.00682872 -0.0877847 0.0250621 -0.00220226 0.0796874 0.150092 -0.0365732 -0.0958216 -0.0661872 0.0567495 0.125753 0.0509426 0.00962963 0.0896772 -0.159816 -0.0734464 0.00497657 -0.0453995 -0.0665729 -0.137502 0.161139 0.0192373 0.0134816 -0.0345433 -0.0170971 0.108197 0.00512445 -0.0994745 -0.136162 0.0377826 0.0764757 0.107289 0.0694353 -0.00248741 -0.0673896 0.0140888 -0.0865477 0.0728838 -0.0569423 0.14363 0.000863752 0.00443015 -0.0535059 0.0702381 0.0764439 -0.153233 0.0420641 0.132721 0.0335204 -0.131602 0.0211523 -0.0347089 -0.0446347 -0.134606 -0.0373373 0.0611625 -0.000136879 0.167797 -0.112755 -0.0578108 -0.0795405 0.136935 0.0855935 -0.00717 0.154844 0.0660083 -0.0959032 -0.0363785 0.0290445 -0.13902 0.03709 -0.0738989 0.0184245 -0.0953857 0.0555369 0.0519282 -0.0603099 -0.0729497 -0.012622 -0.13949 0.066996 0.0708886 0.0557076 0.192234 0.108733 0.137529 0.096834 -0.0483615 -0.0666206 -0.0273581 -0.0593256 -0.023345 -0.0905774 0.108885 0.00193551 -0.094178 0.121918 0.140238 -0.0785626 0.0476329 0.160662 0.17508 -0.123777 0.0220113 0.12752 -0.100958 -0.0351756 -0.0309567 -0.119054 -0.0961157 0.016542 0.184691 -0.0494004 -0.0840761 -0.041058 -0.0931751 -0.0748232 0.040577 0.144615 -0.12272 0.00905522 0.136838 -0.00344812 -0.00252479 0.0735563 0.159287 -0.10817 -0.0253325 0.130831 0.101218 -0.156395 0.0171809 0.1049 0.0104689 0.121881 0.0803619 0.159161 -0.150209 -0.0418591 0.0466042 0.0968649 0.018491 -0.0114811 0.110093 -0.118484 0.0293924 0.106243 -0.0640979 -0.00938857 0.134146 0.0582187 0.0773104 0.0847911 0.0720801 0.125713 0.056628 0.0910902 -0.113739 -0.0762607 -0.14076 0.0335609 0.133756 -0.0949399 0.0546866 -0.0431796 0.0691207 -0.0359517 0.0876314 0.00181048 0.128817 -0.0306419 -0.0664817 0.023444 0.0737185 0.0302757 -0.180604 -0.0515861 -0.0504259 -0.0709261 -0.106888 -0.155069 -0.0946642 0.125871 -0.0898955 -0.0404988 0.00138906 0.106192 0.0791676 -0.0561032 -0.0917038 -0.136458 -0.00188449 -0.00799879 -0.118476 0.0559323 -0.0567646 0.023039 0.0635942 -0.0822425 -0.0395102 0.167193 -0.0475582 -0.0107593 0.0720563 -0.0224035 -0.115669 0.00174255 -0.0323575 0.0257117 -0.0871308 0.115735 0.13165 -0.121525 0.0683329 0.0891741 -0.0585822 -0.094044 0.013517 -0.0959781 -0.0140685 -0.0116634 -0.0965181 -0.0496407 0.0879894 -0.0874542 -0.140444 -0.0652151 0.0349765 -0.033687 -0.0576613 0.10076 0.025041 -0.003933 0.0293567 -0.106013 -0.0500325 0.0244581 0.0435078 -0.0876973 0.064092 0.101319 0.0290492 0.0639403 -0.120618 -0.00900049 -0.027738 -0.064051 0.0895299 0.000122814 -0.0815078 0.117738 -0.0263987 0.186291 0.0615121 0.050718 -0.0583965 -0.0230244 0.0826958 -0.076684 -0.0322688 0.0181263 0.0121979 0.124225 -0.0539113 -0.000881662 -0.0910852 0.0376275 -0.00643494 -0.133948 0.00543676 -0.0112963 0.0965658 -0.0477635 -0.0654971 -0.0398162 -0.112757 -0.00278143 0.0107479 -0.0275598 0.020474 0.128509 0.0487801 0.0221372 0.062311 0.0377673 0.0699236 -0.1079 0.0808678 -0.0352032 -0.0971948 -0.137241 0.149449 0.0117859 -0.0236354 -0.0810604 0.0886345 -0.0526001 -0.108587 -0.0645875 0.174268 0.113614 -0.0219027 -0.151351 -0.0458346 -0.0246077 0.0512991 -0.0637222 -0.109398 0.16257 0.121298 0.0625363 0.0170725 -0.109057 -0.0293717 0.0179092 0.0131622 -0.153604 -0.0654511 -0.136797 0.141919 0.0282269 -0.0654191 0.0569966 -0.0719894 0.0912106 -0.044232 -0.0226455 -0.182501 0.0332231 0.0389625 0.0474149 -0.0735354 -0.0283967 0.0462915 0.01377 0.0792005 -0.104121 -0.171448 -0.146082 0.00885485 -0.0729112 -0.126695 0.140181 0.17106 0.0265709 -0.076377 0.0372318 0.0574645 -0.0312433 0.142473 -0.0810532 0.0715135 -0.08035 -0.105971 0.0690854 -0.0916862 -0.0825611 -0.089309 -0.127407 0.171154 -0.0634987 0.098931 0.0125187 0.0306052 -0.0823381 0.0689364 0.187555 -0.133109 0.0312922 -0.00170508 -0.0492288 -0.0327029 0.021898 -0.0410564 -0.0493719 -0.00689925 0.0252244 -0.0883536 -0.0562807 0.014198 -0.145532 -0.0871568 -0.127257 0.193722 0.0989749 -0.0823517 0.0698416 -0.167418 -0.142235 -0.0300158 -0.0296108 0.0154258 0.159493 -0.0658134 0.0133971 -0.101622 0.0926051 0.113506 0.0454489 0.0795938 -0.0514854 0.00876666 0.12283 -0.196834 0.180238 0.0511947 0.096932 -0.0428555 -0.0220388 -0.0541641 0.0341928 0.0541303 0.0133697 -0.0130325 0.0195223 -0.101967 0.0816896 0.0166219 -0.0312036 0.0510339 -0.0950142 0.00892296 0.0717903 0.1104 0.197395 -0.131546 0.025608 0.0551662 0.110642 0.054204 -0.146313 -0.106473 -0.0574161 -0.122836 -0.0642739 0.00653563 0.031834 0.16559 -0.0128337 -0.0622316 -0.0235607 -0.161338 -0.0985215 0.0202226 -0.115933 -0.144008 0.13935 0.0245687 -0.133843 -0.0320692 0.0171602 -0.0186209 -0.06105 0.172884 0.0723366 -0.0440877 -0.0707733 -0.127911 0.0135194 0.0351083 0.133044 -0.0762208 0.00015952 -0.093474 -0.110426 0.0757999 0.0248751 -0.0610219 -0.187201 0.128565 -0.0596236 -0.0356596 0.103058 -0.0606889 0.0446929 -0.0968464 -0.00196953 0.149652 -0.0571931 -0.0737863 -0.15278 -0.177964 0.0921462 -0.028752 0.0038763 0.0637511 0.11124 -0.0440201 0.100286 -0.0305118 0.0184612 -0.0285304 0.0103685 -0.0681067 0.0346319 0.0461013 0.00773943 0.0679514 0.18669 -0.0639145 -0.143019 -0.127613 0.0327701 0.081351 -0.178774 0.00895436 -0.0602798 0.131305 0.00660015 0.0658706 -0.0677889 -0.172033 0.0905154 0.177192 0.0112458 -0.065002 0.103136 0.105373 0.104065 0.0515442 -0.0787146 -0.101412 -0.0408881 -0.0701094 -0.069059 -0.193521 -0.19258 -0.0462182 -0.00565664 0.0245788 0.0206967 0.0596625 0.111497 -0.0675228 0.0300111 -0.128598 0.0831966 0.118008 -0.0722125 0.109693 -0.0275136 0.0771874 -0.171746 -0.0132039 0.0277429 0.147546 0.0516764 -0.0133436 -0.0518031 0.0985056 0.000362695 0.063864 -0.0405009 -0.0766295 0.0611959 0.170775 -0.0346167 -0.169697 -0.0532818 0.157806 0.0297839 0.0238882 -0.0962128 -0.0170179 0.0380856 -0.0853038 -0.0721889 -0.13675 -0.132903 -0.000469311 0.121991 -0.042782 -0.047684 -0.0900907 0.00454395 0.080794 -0.135438 -0.0113461 -0.0442517 0.155939 0.0836911 0.120195 0.156418 -0.0479258 -0.0909335 0.0370275 -0.0254595 0.185037 -0.158758 0.107776 -0.00415759 -0.000591288 0.0758606 0.0224798 0.0765153 -0.0726217 0.00884184 0.0117026 0.00298371 -0.118664 0.0576494 -0.0112555 -0.0696907 -0.0988183 0.140714 -0.0999819 -0.113356 -0.0961655 0.128988 0.0629679 0.142435 0.0715511 -0.1058 0.120989 -0.0662565 0.197092 0.00585735 0.0250185 0.18537 -0.0862672 0.0083343 -0.085374 0.0896906 0.0188191 -0.0489126 0.0922998 -0.0432332 0.117162 -0.0704772 -0.0193821 0.0256796 -0.108475 0.190639 -0.139199 0.0460361 -0.0518789 0.00286452 -0.00220736 -0.024201 0.0938073 0.0215727 0.0534417 0.0579615 -0.100773 0.0613274 0.0114085 0.0811347 0.0852377 -0.137713 -0.0577699 0.0407364 -0.0662144 0.0563545 -0.0166828 0.0912474 -0.04353 0.0751305 -0.179883 0.0978555 -0.133551 -0.00878075 0.180918 -0.14025 0.0492482 0.0503817 0.151456 -0.19297 -0.0610445 -0.0310549 0.117799 0.0650162 -0.0333635 -0.0349305 0.156785 -0.0576222 0.0702203 -0.17657 -0.0141255 -0.0873355 0.0486932 0.0573563 0.0807337 0.196749 0.0525433 0.118669 -0.112743 0.00501834 -0.0752522 -0.0208478 0.125848 0.0110328 0.0483626 -0.0989978 -0.101664 -0.00970915 0.0975846 -0.124092 -0.0371018 0.0115186 0.0613935 0.0841944 -0.0790182 -0.10115 0.00690663 0.183184 -0.14927 0.184692 -0.138051 0.0917716 -0.118404 -0.0298563 -0.0881309 -0.0448183 -0.115186 0.044972 -0.0208833 -0.192077 0.200393 0.0336474 0.186283 0.108014 0.147144 0.169981 -0.130799 0.0203406 -0.00479135 0.0127435 -0.0263426 -0.0182383 0.0699535 -0.124488 -0.117072 0.0438034 -0.0708098 0.0333294 0.0618409 -0.175109 0.143815 0.0142665 0.0934068 -0.0889491 0.0360415 0.0384288 0.0643748 -0.000115374 0.147153 -0.0401683 0.1483 0.115673 0.0666884 -0.032652 -0.105117 -0.197205 0.0185642 0.0292958 -0.180965 0.0593796 0.125152 0.0943106 0.0278552 0.00348602 0.0486377 0.113292 0.0346136 0.0278157 0.0498586 0.106334 0.0119403 0.0651316 0.165051 0.168957 0.14354 -0.0357866 -0.063688 -0.0178702 0.0135012 -0.0126484 0.168701 0.0102499 -0.115988 0.170301 -0.0272604 0.109252 -0.164243 0.13146 -0.101038 0.0799961 -0.0203285 -0.141425 0.00889719 -0.0251903 -0.0549704 0.102258 0.0705788 -0.192096 0.00379859 0.0682297 -0.201586 -0.103871 -0.0158261 -0.0894988 0.0277795 0.135837 -0.0530281 -0.0133468 0.0773194 -0.053449 -0.00752924 -0.00757684 0.00148843 0.0498052 -0.104287 -0.196679 0.020181 -0.00185592 -0.0546416 -0.183434 0.00323589 -0.0397463 0.133631 -0.0801824 0.0385239 -0.0754276 -0.126272 0.0574124 -0.153189 0.0905909 -0.0147713 -0.0763342 0.0985821 -0.1319 0.141457 -0.00280875 0.156623 0.118406 -0.0829368 0.0350988 -0.131244 0.0517003 -0.0541131 -0.0367343 -0.150396 -0.164498 -0.159006 0.0206041 0.195514 -0.0233165 0.131162 -0.146169 0.0745121 0.128129 -0.074514 0.0459322 -0.0851593 -0.147932 -0.0167042 -0.0356789 -0.132826 -0.0135478 -0.0590203 0.160901 0.106817 -0.063915 -0.15826 -0.156207 0.00544451 -0.171707 0.066414 -0.0598596 0.0361797 0.140279 -0.0315115 0.0022791 0.119751 0.0295056 0.0592157 -0.110057 0.00107212 -0.0905734 -0.134868 -0.117054 -0.0504274 0.165589 -0.00171663 -0.0359196 0.0235964 -0.167579 -0.0617905 -0.0955945 -0.110083 -0.0193057 0.0863625 -0.161312 0.0165775 0.121087 0.128319 0.00747619 -0.0827997 -0.0965982 -0.0544966 -0.165657 -0.0790094 -0.161897 0.0286957 0.107403 -0.165038 -0.0173051 -0.0955378 -0.0774406 -0.0774974 -0.00982641 0.0127755 0.0411142 -0.0457377 0.00590914 0.151091 -0.127223 0.0302969 0.101185 0.130516 -0.0138798 0.0206934 0.0307378 -0.14875 0.0529919 0.0463603 -0.0285562 0.173085 0.0893323 0.0405388 0.117942 0.0197171 -0.15084 -0.0394785 0.00985253 -0.11995 -0.00928755 -0.129921 0.0739055 -0.155344 0.00213008 -0.11948 0.127287 -0.118818 0.120945 -0.140882 0.0593626 0.138699 -0.129577 0.0615561 -0.0188588 0.179513 0.126585 0.0410996 0.0327007 -0.0804683 -0.120162 0.0242018 0.0632721 -0.145695 -0.0133103 -0.0772694 0.144667 0.13212 -0.058972 -0.077153 0.125706 0.0167904 -0.0587347 -0.0374174 -0.189321 -0.0109276 -0.203646 0.145423 -0.129213 0.00745137 -0.105167 0.13519 0.0138516 0.0536703 0.0061224 0.00347222 -0.0697448 -0.128788 0.15745 0.0204809 0.0639684 0.0860556 0.0319484 -0.0112633 0.076773 -0.126506 0.027775 -0.10942 0.0471272 0.047844 -0.0162934 0.137126 -0.148954 0.0679644 0.132585 -0.0997358 -0.0214836 -0.0334447 -0.14883 -0.100818 -0.0382316 0.0223321 -0.0389733 0.111031 0.0476775 -0.153917 -0.0422529 0.0501009 -0.101413 -0.0110986 -0.0966762 0.00303313 -0.0120522 0.106625 -0.0608282 -0.0252076 0.0962362 0.0254896 0.0537529 0.0498844 0.0086704 0.0465256 0.0192458 -0.133925 0.0878039 -0.0222114 -0.0983091 -0.0206014 0.198282 0.0893103 -0.0800131 0.0823744 -0.0447803 -0.0239874 -0.118894 -0.0387021 -0.0821174 -0.0280509 -0.0231901 -0.0904994 0.071048 0.0921191 -0.117075 -0.0153458 -0.00920443 0.00620194 -0.00135895 -0.0373005 0.142109 0.0681344 -0.0967434 0.174118 -0.108271 0.173962 -0.0150623 0.110865 -0.15276 -0.101597 -0.0332849 -0.10444 -0.037792 0.00119389 -0.160608 0.0938375 0.00137347 -0.101076 -0.0941603 0.069141 -0.141491 -0.00533649 0.0678807 0.108845 0.0317576 -0.0940749 0.0250277 0.0307061 -0.00674273 0.0109291 0.0164392 0.105111 -0.0498032 0.06919 -0.0395063 0.0364345 0.0871475 -0.181812 0.115653 0.011336 -0.0549349 -0.0894437 0.0678873 0.0383032 -0.0577943 -0.0625438 -0.149165 -0.0945674 -0.00954357 0.0822929 -0.0659987 -0.00458882 0.0880069 0.155879 0.0129362 0.04449 0.117681 -0.0126399 0.118474 0.1426 0.0674527 0.000115827 -0.0331272 -0.051698 0.00418296 0.00113371 -0.00632261 0.0600102 -0.0630262 -0.00520064 0.00963185 -0.0926506 0.0987743 -0.155273 -0.189681 0.113345 0.103684 -0.0557132 0.0828072 0.0110697 -0.101567 -0.0776176 -0.0335042 0.0845976 0.0787029 -0.175214 -0.0243143 -0.0440733 -0.0885215 -0.112288 -0.0344579 -0.0802363 0.0132792 -0.0563635 -0.106947 0.0742456 0.144719 0.179862 -0.104769 0.0481591 0.0573233 -0.128783 0.092464 0.080112 0.058928 0.0138626 -0.0644768 0.126608 0.00982602 -0.0292543 0.0410138 0.120253 -0.0176176 0.0820027 -0.0451071 0.00565959 0.0552965 -0.142642 0.130905 -0.0349321 0.0212585 -0.0805917 -0.10512 0.0335902 -0.161343 0.111475 0.0543143 -0.0200278 -0.0807066 0.0368516 0.0614264 0.0026759 -0.0265713 -0.0239072 0.0436894 -0.0194285 0.113334 -0.0332216 0.0284335 0.0742094 0.128989 -0.067565 0.087991 0.137601 -0.0354395 -0.0727494 -0.01293 -0.103561 0.0965624 -0.0748997 0.0784557 0.113126 -0.190571 0.00884458 0.0236308 0.000341733 0.136968 -0.00859511 0.0787497 0.0949847 -0.0674322 -0.142492 -0.0203408 -0.0614807 -0.0577439 -0.049889 0.0584866 -0.0793452 0.0122459 -0.0241233 0.0788476 -0.0430215 0.039509 0.0413648 -0.0636332 -0.0133684 -0.0661143 -0.0115628 0.0504359 0.0302102 0.00104488 -0.158305 0.148812 0.0792707 -0.0374605 0.0539523 -0.0316741 0.0785143 0.103416 -0.157667 -0.011188 -0.0610455 0.000395015 0.0407178 0.0542981 0.0329367 -0.166094 -0.0883407 -0.0801216 0.0656733 0.0654596 0.116371 0.00836056 -0.0661049 -0.0363922 -0.0447527 -0.0462123 -0.0177701 -0.0158237 0.00194212 0.132136 -0.0778308 0.0562667 0.183908 0.0372477 0.0733845 -0.148956 -0.157433 0.0628978 -0.0261252 0.030013 -0.145673 0.118287 -0.0554138 -0.0808775 -0.0419642 -0.150126 -0.0586351 0.0606677 0.0541921 -0.14519 0.156583 0.0574808 -0.0226892 0.0917739 0.130118 0.0845659 0.0307184 0.0555045 -0.0569006 -0.0409555 -0.0798275 0.0524882 -0.0611218 0.18813 -0.111556 0.10472 0.0254405 -0.135305 -0.0450557 -0.0115905 0.0681335 -0.103931 -0.0188462 0.0795866 -0.0265353 -0.0157698 -0.167085 0.135196 0.062163 0.0367961 0.0719397 -0.0065818 -0.0274954 -0.0838863 -0.1213 0.0596897 0.073298 0.0699701 -0.0879577 0.0283472 -0.00478277 0.015792 0.0470898 0.0359167 -0.10973 -0.11039 -0.0629281 -0.047188 -0.049758 -0.0596884 0.0137676 -0.0692121 0.17352 -0.133062 0.0303097 -0.105677 -0.109496 -0.065906 -0.0192398 0.076164 -0.00267513 0.0223156 0.176205 0.0603576 0.15064 -0.0977135 0.173213 -0.0505929 -0.107835 -0.0429778 -0.0564627 0.0455046 0.0859635 -0.0904664 0.11371 -0.000299054 -0.120068 0.0585277 0.181085 -0.0294728 0.0548339 -0.0529366 -0.0757789 0.0854524 -0.110025 0.103158 -0.110392 0.110134 0.0465748 -0.0284699 -0.00802624 0.0300019 -0.0964946 -0.133441 -0.0556606 -0.0498304 0.0324354 0.186851 -0.0324911 -0.136649 0.0455551 0.0816396 0.0180689 0.0289798 0.0143434 0.0350111 -0.0157949 0.0181848 -0.0300798 -0.0450112 0.0560198 0.0813025 -0.128664 0.160947 -0.050173 0.0600461 -0.0445134 -0.0449821 0.0162952 0.000567105 0.134653 -0.0379419 -0.0592941 0.0637691 0.0221596 -0.0963161 0.0243674 0.0990303 -0.107204 0.124906 0.0674554 -0.0448302 -0.0505151 -0.0487476 -0.0444177 0.0630758 -0.043628 0.109292 -0.191969 0.0187024 -0.124325 0.0210538 -0.0238544 0.0270585 0.172916 0.0529662 0.0378684 0.0697068 0.0334526 -0.00213423 0.0680418 -0.0742564 -0.0537113 0.0953099 0.107299 0.0993789 0.0278534 -0.142847 -0.189984 -0.131691 -0.114239 0.0339542 0.0282535 -0.0986062 0.0564732 0.0308016 0.00357836 0.0101839 0.0214684 0.158302 -0.19131 0.00692394 0.0871178 -0.105281 -0.0422465 -0.0545873 -0.00342622 0.0939412 -0.0779169 0.087192 -0.0162734 -0.00658811 -0.0281811 -0.0232834 -0.139237 -0.188886 -0.0160398 -0.0693849 -0.0207724 -0.100345 0.16745 -0.128128 -0.128921 0.0264227 -0.0579271 0.0163762 0.0365795 -0.147602 -0.0819976 -0.119394 -0.139039 -0.059117 -0.0862235 0.0857933 0.170105 -0.0583689 0.0121607 -0.013887 0.0511996 -0.0731341 -0.0674562 0.117552 -0.070606 -0.139877 0.0406843 0.155122 0.0016064 0.034572 -0.0810227 -0.0709139 0.0323557 -0.138249 0.0361872 -0.0901203 0.0452472 0.0482155 -0.0242223 0.0730205 -0.0259062 -0.0473324 0.0575805 -0.0073503 0.1048 -0.0447208 -0.163418 -0.0324368 0.0305006 -0.0347088 -0.107523 -0.0354834 -0.00568606 0.0264232 -0.106937 -0.0536542 0.0733614 0.186073 0.142265 -0.0877175 0.0731968 -0.0442283 0.0579392 0.184891 0.0440863 -0.0946867 -0.0289545 -0.125704 -0.0514288 0.155072 0.150932 -0.115437 -0.03013 -0.0539113 0.130025 -0.041651 -0.0604525 -0.158 -0.0958781 0.0445481 0.0262556 -0.0677164 0.0805117 -0.028568 0.0207065 -0.0249327 0.0700673 0.0574347 0.0115565 -0.0147234 0.118619 -0.108573 0.00186723 -0.161672 0.0535987 -0.02895 0.0388641 0.036061 0.0928263 -0.111851 0.0639328 0.0637211 -0.061305 -0.100467 -0.0788916 0.120432 -0.0199117 -0.0348927 0.0625938 -0.148411 0.0972394 0.0588636 -0.0213452 0.00650159 0.0451398 0.102925 -0.0709656 0.130862 -0.0674084 -0.180884 0.0408901 0.162895 0.0189601 -0.0664991 -0.071223 0.0287183 -0.00640763 0.0456315 0.052615 0.0575549 -0.00586702 -0.0556597 -0.0270414 0.15423 -0.00429228 -0.121632 -0.103214 -0.101744 0.0555656 -0.0278989 0.0713492 0.0995663 -0.010021 0.000542792 -0.166573 -0.0271823 0.203534 0.197449 0.0324213 -0.0888288 0.00729276 -0.0367036 -0.107101 0.035783 0.0736248 0.102395 -0.0650446 -0.0783662 -0.00933725 -0.16522 -0.024075 -0.00353436 0.112159 0.0194655 0.10553 0.0177742 0.131707 -0.140869 0.0239298 -0.179969 -0.169908 -0.0427812 0.0756747 0.0410341 0.193489 0.0534188 -0.00324023 0.0967829 0.182991 0.0564087 0.0790806 0.0221928 -0.0665243 0.0912958 -0.124138 -0.152575 0.103761 0.100195 -0.0654565 -0.148679 -0.0976256 -0.0209903 0.0740848 0.0759231 0.0179149 -0.00469393 -0.0531232 -0.0914694 -0.0129859 -0.0100543 0.0704799 0.115585 -0.131736 0.0412333 -0.153719 -0.106289 0.00444015 -0.115789 0.10019 0.145248 -0.0545066 0.0788192 -0.0970669 -0.00496954 0.0195315 0.163311 0.0751269 -0.0868942 0.1554 0.176112 -0.0923151 -0.0274026 0.120004 0.0616626 0.0564502 0.0352903 -0.0856424 -0.087597 0.0778706 -0.0923138 0.0151385 -0.133635 -0.0756388 -0.18931 0.121605 0.0155018 -0.0152218 0.0634925 0.0653685 -0.114393 -0.0798406 -0.0925743 -0.07446 0.110726 -0.0167732 0.0567262 -0.0656993 -0.0514072 0.0406382 -0.14918 0.0543764 0.0154775 0.0205402 0.0925459 0.0649614 0.0979021 0.0173076 0.187668 -0.123805 -0.0958772 2.00641e-05 0.135049 -0.171936 0.0698425 -0.0442785 0.0104208 0.0384427 -0.114166 0.12487 -0.00624761 0.0667254 0.00724846 -0.0725154 -0.0425103 0.0955767 -0.0856793 -0.0843196 0.0616283 0.106632 0.0471491 0.108601 -0.0578364 -0.127666 0.0917743 0.141315 0.0710181 0.122267 -0.10381 -0.0650363 -0.151567 0.0859104 -0.142753 0.11658 -0.0209187 0.144849 0.0120404 -0.0707768 -0.107169 -0.015906 -0.0983819 -0.0782293 0.116491 0.0630482 0.0181909 0.132764 0.0177561 -0.0618735 -0.030843 0.0157783 0.00260434 -0.0572034 0.115015 -0.0813063 0.056273 -0.016178 -0.0518316 0.0989241 0.0424064 0.0569589 0.00957788 0.0968082 0.11236 -0.0548474 0.0338273 -0.120154 0.0900846 0.0702287 -0.0195922 -0.00169135 -0.0617629 0.107108 0.196113 -0.0125079 0.0250423 0.00255973 0.051707 -0.0350332 0.153931 -0.000515046 -0.0350145 0.00546278 0.0460168 0.0801286 0.111217 -0.117667 0.13671 -0.0768131 0.0511162 -0.0941282 0.0572193 0.00546298 0.0997315 -0.0476921 0.0484303 0.172717 0.113131 -0.16785 0.028957 0.0378246 -0.0258634 0.0131294 -0.0660679 -0.054464 0.0661548 -0.0140129 -0.0809848 -0.107089 0.0455024 -0.076335 -0.0312271 0.0898565 -0.0190368 -0.00655984 -0.0950519 0.135303 -0.10877 -0.00138493 0.128824 0.0653045 0.0686242 -0.0173012 -0.116357 0.0636385 -0.00204342 -0.0409489 0.0846151 0.0506858 -0.0390418 0.0142501 -0.0983325 0.0861166 0.0174525 0.0362503 0.0134108 0.0921419 0.0100765 0.0956343 -0.0980737 0.0383207 0.0675904 -0.0533171 -0.0535769 0.0600948 0.0200754 -0.0638624 -0.110136 -0.0820664 0.205299 0.100953 -0.136293 -0.0597527 -0.0852582 -0.0162147 0.116715 -0.168905 0.0220691 0.0217643 0.0420126 0.157735 0.163373 0.0528092 0.0371413 -0.154463 -0.000552328 -0.0309483 0.146728 -0.0459641 0.0102989 0.0370001 0.084117 0.0561186 0.0427097 -0.0716989 0.193136 -0.203882 0.0552381 0.0314961 0.0846069 -0.0588913 0.0634959 -0.0174759 -0.0326282 0.0726641 0.0594756 0.113555 0.0975319 0.0560118 -0.0727459 0.131148 0.0483584 0.06498 -0.0179379 0.199652 -0.0704474 0.106976 -0.00580003 -0.163615 -0.168631 -0.175446 -0.0839421 0.0195808 0.136877 -0.0282417 -0.164193 0.0394482 -0.168983 0.0460138 -0.0842084 0.00590878 -0.0565669 0.0588763 -0.0674905 0.0873942 0.102765 0.134618 0.074361 -0.0824968 0.115665 0.0256133 -0.0588085 -0.0817782 -0.0277481 -0.0859915 -0.0688405 0.0920513 0.0992495 0.00429659 -0.172674 -0.0435379 0.129253 0.0999735 0.0965119 0.113366 -0.083347 -0.0163045 -0.14816 -0.0388476 0.0898894 0.0616541 0.0165844 -0.116495 -0.0100733 -0.0972791 0.0703361 0.0521957 0.0412842 0.00102757 0.0757011 0.131313 -0.0652337 0.00121602 -0.00888268 0.107821 0.0401122 -0.0498445 -0.18072 0.0556791 -0.0324886 0.0443251 0.184386 -0.0164981 -0.108202 0.177093 0.03564 0.174776 -0.022675 0.0909701 0.106483 0.0138079 0.00506582 -0.115077 0.00759797 -0.193196 -0.0460156 -0.0726615 -0.154343 -0.122081 -0.104891 -0.0836766 -0.0389285 0.0706833 -0.0502845 -0.189647 -0.00356718 -0.0563885 0.00724471 0.0504409 -0.183533 0.0370801 0.131152 0.158804 0.0449584 -0.0115485 0.0171507 0.0168905 -0.0579081 -0.00972349 0.0292805 0.0500605 0.0889569 0.00395034 0.0234126 -0.0166525 0.0888062 -0.0134747 0.139641 0.0499712 0.0891073 -0.109867 -0.0815618 0.00164518 -0.0997516 -0.0450333 -0.0199448 -0.0329652 0.106973 -0.0777406 -0.102484 0.0852136 -0.0621776 0.0739961 0.157529 0.0221517 -0.0218774 0.0693249 0.089122 -0.116267 -0.0895166 0.173787 -0.00384341 0.149702 0.0975965 0.000406079 -0.139697 -0.0033596 -0.147517 0.0087585 -0.00785368 -0.107525 0.0197936 -0.0225798 -0.0995006 0.0176111 -0.0532572 -0.0029183 0.108942 0.124153 -0.0418491 0.127708 0.117582 0.0525698 -0.0239893 0.00131903 0.021502 0.167304 0.147031 0.135067 0.0832279 0.0169259 0.187634 -0.118747 0.00075523 0.0660666 -0.142618 -0.123629 0.12635 -0.192448 0.177401 0.18827 0.00954577 0.150368 0.0375577 -0.0601023 -0.13036 0.0179906 -0.0827453 -0.0968118 0.0928194 0.0480282 0.00456118 0.0846325 -0.0127532 0.160166 -0.0481436 0.0240786 -0.0477628 -0.0293245 0.0798246 0.0273654 -0.0326329 0.0906406 0.0817673 0.108483 -0.170863 0.147269 0.117259 0.0618252 -0.0680781 -0.0622421 -0.00609485 0.177166 0.0279066 -0.130241 -0.100532 0.146593 0.0760172 -0.113634 -0.0108724 0.0755738 0.122431 -0.0913139 -0.0860308 -0.0715679 0.0455648 -0.011493 -0.0425954 0.00327582 -0.0378178 -0.00498719 -0.196374 -0.00268845 0.0559579 0.0765215 0.0808406 0.129482 -0.147309 -0.162494 0.0829149 0.0642065 0.0856014 0.0510466 0.134505 -0.0395932 0.172395 -0.0638802 0.080514 -0.080589 0.125361 0.0741052 0.134028 -0.099701 0.0882627 0.0389503 0.00984829 -0.110411 0.0839713 0.0697557 0.102435 -0.0811605 -0.191219 -0.0065911 0.111318 0.0231656 0.0732146 -0.159653 0.13659 0.0421568 0.07006 -0.0210368 -0.0521318 0.104147 -0.0189973 0.0980903 0.01629 0.165038 0.0621341 -0.0358237 0.0142005 -0.0940515 0.166684 0.12327 0.00290873 -0.0250126 0.0552143 -0.0721684 0.0344182 0.18031 -0.109328 -0.0660632 0.115553 -0.0046957 -0.151116 -0.0843405 -0.0815759 0.0949121 0.0846536 -0.0413041 0.127376 0.0582615 -0.0341762 -0.0631164 0.14819 -0.0402913 -0.0741774 0.0380774 -0.0932298 0.0989526 -0.059787 0.0441045 0.054383 0.0884678 0.165299 -0.00171094 -0.108458 -0.010773 0.0652102 0.0758762 0.13466 0.143503 0.0564625 -0.175562 -0.189334 -0.127417 0.0220737 -0.0689048 0.00589765 -0.0100872 -0.0836547 0.0440792 -0.107337 -0.000817982 -0.12208 -0.00230938 0.0111386 0.051201 0.076146 -0.177613 0.0114708 -0.0307609 0.0908292 0.0629632 -0.00969793 0.0854398 -0.14734 -0.157979 0.13832 -0.0289484 0.0113723 -0.0730591 0.0936015 0.0388516 -0.0203781 -0.173005 0.117121 -0.00346526 0.0130178 -0.0518267 -0.144061 -0.0177441 0.193507 -0.0374333 0.0153926 -0.190251 -0.136114 0.0955083 -0.11071 0.0671212 -0.000252833 -0.0875747 -0.0725511 0.0342958 0.00591447 0.142045 -0.15809 0.0200866 0.00263672 -0.0702557 0.0556133 0.00022014 0.132912 -0.035535 0.111403 -0.126375 -0.192797 0.116484 -0.0180845 0.163207 0.114878 -0.0129242 0.0777481 0.0501629 0.0902269 0.104551 0.000228431 -0.0813278 -0.0202581 -0.0423078 0.110197 0.0227791 0.108227 -0.107587 -1.54466e-05 -0.10549 -0.107915 0.0256507 0.157142 -0.0995499 -0.0588595 -0.0271315 -0.138394 0.12245 -0.0246211 -0.0843512 -0.0568044 0.00970103 -0.016111 -0.00811083 -0.0715313 -0.092488 0.0228462 -0.0346169 -0.00759241 0.0561684 0.0599431 0.0168326 0.0779627 0.0154679 0.0885223 -0.0289128 -0.0250411 -0.00298482 0.102382 0.15552 0.162539 -0.062986 -0.0812063 0.19248 0.0910706 0.0294344 0.0816025 -0.0456006 0.144409 0.0561034 -0.00225562 -0.0556429 0.0823878 0.0503193 0.0807682 0.0682165 -0.0431172 -0.0828485 0.103928 0.192139 -0.106241 -0.117635 -0.0533866 -0.0655024 -0.0893522 0.171037 -0.168221 0.024685 0.0731578 -0.0511407 -0.0271303 -0.0750218 -0.0460247 0.0476345 -0.0674492 0.117784 -0.0897148 -0.0535091 0.0679049 -0.0101393 -0.0456772 -0.0015244 -0.0690155 -0.0286223 0.16402 -0.0688154 -0.00589912 -0.106487 -0.105452 -0.02121 -0.0864615 -0.0236273 -0.156159 0.104213 -0.0579616 0.0638242 0.0735299 0.0470403 -0.0570004 -0.0313297 -0.0147779 0.141909 0.0466044 -0.115585 -0.104436 0.0515058 -0.0469566 0.040335 0.0423328 0.116006 0.052932 0.0106611 -0.1041 -0.00825914 0.0470942 -0.181603 -0.0340902 -0.0718826 0.0101489 -0.0560047 -0.107715 0.0153937 -0.0083121 0.106072 -0.0415067 0.0251008 0.0184066 -0.122032 0.132774 0.0181504 -0.0195943 -0.0338246 -0.0532048 0.129176 0.0461392 0.0835248 0.0210381 -0.0324064 0.0196914 -0.141199 -0.0347609 -0.176408 -0.00955094 0.121134 -0.0479297 -0.000392201 0.144093 0.0351359 -0.00163813 -0.0755366 0.020664 0.181093 0.081185 0.0423431 0.0291781 0.158788 -0.165619 -0.0344105 -0.0809769 0.0516894 -0.118603 0.0558282 -0.0398708 0.182083 -0.048091 0.041274 -0.133799 0.0115385 0.0960303 0.0635712 -0.148495 -0.0373329 -0.0868917 -0.0272857 0.0173504 0.014479 -0.00708315 0.0705836 -0.075926 -0.0198945 0.00677384 0.0497883 -0.0928335 0.0810847 0.136713 -0.0287248 -0.0926301 -0.0500973 0.0506285 0.136304 0.0235732 0.140553 -0.0613862 -0.0581959 0.100605 0.00854705 -0.0522904 0.170857 -0.0587168 0.193264 -0.0901909 -0.0108264 0.0510966 0.0782611 0.189718 -0.000403387 0.0290566 -0.0876892 -0.0245301 -0.111414 -0.0832418 -0.0251503 0.0310151 -0.091685 0.147427 0.0813741 -0.0786222 0.101042 -0.0702126 -0.0436726 0.145883 -0.115814 0.00836993 -0.114564 -0.160061 -0.0719659 0.100005 -0.00543715 0.0493677 -0.0311242 -0.105283 0.152782 -0.0147678 -0.186478 -0.153027 0.0532136 -0.180133 0.0411484 0.0142971 -0.0188618 -0.00878833 -0.0171138 0.0184627 -0.137387 0.153376 -0.00915933 0.0171426 0.135347 -0.076146 0.143041 0.0189976 0.00127366 -0.065704 0.0887508 -0.101465 -0.000848786 0.0947129 -0.0552751 -0.0504934 -0.0917312 0.0977235 0.0040103 0.0106036 0.0281403 -0.00437593 0.0604378 -0.0633364 -0.0318218 0.0916226 -0.0707091 -0.141127 0.0185528 -0.054979 0.10389 0.118797 -0.126316 -0.0600876 -0.0363852 -0.0351411 0.0548012 0.085976 0.0187025 -0.102765 0.00779382 -0.136966 0.0978486 0.00524172 -0.0878734 -0.0203566 0.0547423 0.123641 -0.0132553 -0.0177308 0.0222639 -0.0091428 0.0538336 -0.038983 -0.176428 -0.0704483 0.0706394 -0.03037 0.188493 0.0259685 -0.0564622 0.0267356 -0.145315 -0.0388862 0.0614903 -0.0152086 -0.092656 0.0560176 -0.147987 0.0339123 -0.0442278 -0.0710474 0.00244242 -0.0529509 0.0760311 0.100078 0.2027 -0.0180974 -0.0175003 -0.0887551 0.0763032 -0.117686 0.0252823 -0.0908032 -0.0427809 -0.110884 0.143822 -0.145673 0.0666854 0.125746 -0.0188065 0.116078 -0.0404792 -0.166085 -0.0642919 -0.0237964 -0.0707252 -0.193848 -0.122473 0.153975 0.0209036 -0.0407424 -0.0800609 0.00819041 0.128433 -0.0506455 -0.128752 0.115967 0.146215 -0.0740458 0.0736367 0.0236593 -0.0132688 0.0997576 0.0514198 -0.157597 -0.0769788 0.0808652 -0.1972 0.0851427 -0.0578271 0.0486113 -0.0459883 -0.0943507 0.117218 0.0545217 0.00208833 0.00423425 -0.091041 0.15266 -0.0693364 0.102825 0.0412815 -0.127353 0.0517989 -0.16853 0.0799824 0.0829268 0.0973933 0.0591861 0.0490366 -0.118943 -0.0986302 -0.1298 -0.00987689 0.0099414 0.097094 0.161147 0.0552358 -0.0760562 -0.185966 -0.0991281 -0.0691448 0.0366189 -0.0540575 -0.00335096 -0.00098259 -0.00817309 -0.0138926 -0.18886 -0.0486484 -0.0423733 0.107608 -0.0581903 -0.0291017 -0.0849118 0.0553989 -0.0158201 0.0286543 -0.0507968 -0.0310862 -0.0200555 0.0389582 0.180076 0.0597761 0.146139 0.140321 -0.0213791 0.0675419 -0.0645301 0.100733 -0.0268769 -0.12203 -0.0653488 -0.0205277 0.0911028 0.00196982 0.0640074 0.103803 0.12043 0.0205802 0.115278 0.0139422 -0.081061 -0.0178119 0.021639 -0.102243 -0.198903 -0.0101918 0.0803913 0.0806154 0.107463 -0.0522703 -0.144306 0.156214 -0.0335424 -0.135763 -0.131401 -0.00999439 -0.0141968 -0.0968204 -0.197017 -0.0124549 0.0696698 0.00639422 0.0595212 -0.100422 -0.0938632 0.100837 -0.0188201 0.0351143 -0.0763524 -0.0243544 -0.147106 0.0398433 -0.0878553 0.036529 -0.0329771 -0.149927 0.0166308 0.0370919 -0.0780073 0.110291 -0.109967 -0.0533456 -0.0515186 -0.0791058 0.0393725 0.0864437 -0.104975 -0.0147827 0.0369174 -0.0058917 -0.0297195 -0.00875289 0.0631145 0.15324 0.160385 0.124803 -0.0912681 -0.0608648 0.0388194 0.13989 0.0255293 0.0275422 0.116046 0.105714 -0.0831162 0.0805554 -0.00601659 -0.0505272 0.125262 -0.180207 0.0696028 0.099062 0.0755564 0.186541 -0.0439129 -0.0129401 0.0421593 0.0678688 0.0894065 -0.0596944 -0.0877819 0.098742 -0.14471 -0.0919121 0.0599343 0.0458851 -0.0469585 0.0751374 0.118566 -0.0785051 -0.0787615 -0.0949686 -0.0546889 -0.163123 0.003902 0.0787408 -0.124988 -0.0350803 -0.0378298 0.0190502 0.14228 -0.115598 0.0408738 0.01883 -0.120833 0.0674921 -0.0666726 -0.0178118 -0.102666 -0.161613 0.0307779 -0.158261 0.0119361 0.0964717 0.126816 -0.0894433 -0.0613754 -0.1385 0.147755 0.111028 -0.176149 -0.150806 -0.0255187 0.00747641 -0.0864906 -0.119471 -0.159479 -0.0408743 -0.0377051 -0.158933 -0.0271564 0.0578009 0.0110018 0.0089428 0.0382673 0.138605 -0.048912 -0.0106792 -0.0587366 -0.0942918 -0.124717 0.0625341 -0.0678045 0.0577706 0.184662 -0.0228481 -0.0585483 0.0154058 0.142235 -0.0317292 0.0158198 0.00183722 0.0892871 0.0251799 -0.0833981 -0.118628 -0.0215625 -0.127819 0.053383 0.0414892 -0.0814904 0.100592 0.096068 0.0915465 -0.0457724 -0.0390912 -0.0402696 0.139986 -0.0663961 -0.187988 0.119009 0.187172 0.0850452 -0.0791355 0.038627 0.138805 0.042816 0.0684623 0.107863 0.06026 0.0601803 0.105923 -0.0981909 0.0387735 0.13332 -0.0308326 -0.000776145 -0.0132649 -0.111607 0.0315138 0.0437312 0.137888 0.0613844 -0.0110417 0.0483376 0.0214553 0.16795 0.0559608 0.0820779 -0.172912 0.0399888 -0.146091 -0.103162 -0.0745043 0.14811 0.0263538 0.0699172 0.160154 -0.0656109 -0.14428 -0.100517 -0.00344217 0.0362095 0.155184 -0.0378185 -0.0943043 0.0156395 -0.01328 0.149624 0.106354 0.178222 0.183524 -0.0315588 0.0433308 0.0556699 -0.0962988 -0.0446578 0.0902794 -0.0440455 -0.142497 -0.18609 -0.0779798 -0.00329544 0.114917 -0.0233302 0.0771762 -0.0461621 0.0578436 0.143266 0.0174185 -0.0419473 -0.0853035 0.0844395 0.0770151 0.0210756 0.0627013 0.0609099 0.115602 -0.168849 0.0526105 -0.0244339 0.000493845 0.091812 -0.165951 -0.0261796 0.0555369 -0.118146 -0.190784 0.0500966 0.0975803 0.0476467 -0.0221659 0.0173045 -0.0225078 -0.0537261 -0.0167426 -0.140891 -0.00895768 -0.144268 -0.114444 -0.0446241 0.162199 0.0660056 0.0288575 -0.114045 -0.0284971 0.138699 0.0365742 0.0302292 0.0300986 -0.0564621 0.0429067 -0.0993109 0.140367 0.146595 -0.116019 -0.112068 -0.0167429 0.092027 -0.0234276 0.0202127 -0.0153456 0.174097 0.0243746 0.0269701 0.0510327 0.0604307 0.0796782 -0.129675 0.096831 0.0646925 -0.0888663 0.134485 0.0065983 -0.022468 -0.0920231 -0.0409472 -0.0604996 -0.110253 0.0861983 0.0487842 -0.021958 0.0241753 -0.177448 0.0185102 -0.0509157 -0.117137 -0.0252727 -0.0270495 0.0209009 -0.0116816 -0.0237202 0.11785 -0.0323868 0.0162859 0.00413765 0.176918 -0.0671505 -0.126845 -0.0802194 0.076226 0.168837 0.0191053 0.0592187 -0.0305692 0.00140573 -0.0180964 -0.0595229 -0.150048 -0.000361717 -0.0898737 -0.0750629 -0.0752346 -0.117408 0.0173093 -0.0363318 0.117886 0.0562408 -0.04823 -0.0131895 -0.146412 0.017767 -0.0644332 0.0243662 -0.0278044 -0.00559895 0.0400443 0.0394764 0.00670881 0.152124 0.00591097 -0.0811817 -0.0130101 -0.00191897 -0.0764393 0.0984001 -0.102253 -0.11637 0.0109102 0.16891 0.034713 -0.111831 0.181566 0.0316604 0.0683904 0.0240158 -0.0661171 -0.0971487 -0.171911 0.0949447 0.0950006 -0.114681 0.139892 -0.0845588 0.130115 0.038264 0.0161805 -0.126608 -0.104281 -0.0406448 0.0435751 -0.0200907 0.124648 0.0441054 -0.00252187 -0.194655 0.100177 0.00290399 0.0548403 0.0562384 0.0530606 0.130498 0.0950337 0.00414448 -0.070894 0.177101 0.128182 0.175292 0.0401136 -0.0587316 -0.152532 -0.0235124 0.156649 0.0601251 -0.0373094 -0.11116 -0.151671 0.0654347 -0.140265 0.0419183 0.0456705 0.108122 -0.193975 0.0103306 -0.0894039 -0.124456 0.0469203 -0.0179053 -0.102423 0.020659 0.0472546 0.0209517 0.00866596 -0.000725465 -0.0321076 0.0532297 0.0765928 -0.195256 0.0285761 0.0282217 -0.0579051 0.0397181 -0.0748511 -0.127036 0.0470331 0.029064 0.0647752 -0.0330823 -0.176054 0.00629094 -0.127434 0.0213902 0.0248798 -0.170362 0.12928 -0.0813656 -0.137756 0.121896 -0.0912709 -0.133701 -0.0568904 0.124409 -0.105757 -0.125689 0.0202343 -0.0547268 0.039129 0.0953124 -0.126947 0.00878981 -0.108093 0.0519512 0.0115384 -0.0317977 0.00722612 0.142436 -0.078379 -0.0705867 -0.038443 0.0186749 0.140631 -0.0276874 0.0444925 -0.0311297 -0.181621 -0.0612049 -0.0923447 -0.00384652 0.160857 -0.0149429 -0.183612 0.109807 0.0451428 -0.105247 0.0273356 0.00884727 0.0850968 -0.124842 0.179089 0.0483739 0.098786 0.0452716 0.0263875 -0.202524 -0.0154184 -0.0152071 -0.127941 -0.0344682 0.0412425 -0.0938389 -0.0594967 -0.0274622 -0.0455245 0.0372015 -0.0423816 -0.0279617 -0.0578632 -0.118453 0.108252 -0.193074 -0.0103844 -0.0973076 0.0759986 0.0685113 0.0348695 0.0375554 0.134333 0.00546799 -0.0622064 0.00835914 0.00934926 0.022195 0.0300289 -0.141154 0.0883131 -0.104564 0.154188 0.0741621 0.0696951 0.0452008 -0.105539 0.0624801 -0.0574548 0.0374191 -0.0521938 -0.162435 0.141063 0.171295 -0.0275209 -0.0215395 -0.0761868 -0.155451 -0.0471194 -0.0687644 0.0723206 -0.0464784 -0.112389 -0.0181664 -0.0323189 -0.176891 0.0839132 0.00718983 0.0301875 -0.176671 -0.0123023 -0.119494 -0.157633 -0.0407548 0.124532 0.149815 0.0782298 0.0265607 -0.00429849 -0.0947497 -0.101069 -0.0757085 -0.0738381 -0.0402207 -0.0462867 0.0653354 0.134657 0.109511 0.166339 0.0781883 0.04393 0.120912 0.00773193 -0.0466582 -0.0784604 0.000846596 -0.0329171 -0.0886211 0.10118 0.031189 -0.0785766 0.170614 -0.0509661 0.0102427 0.0399386 -0.041131 0.0862655 0.0675721 -0.0381211 0.0827469 -0.0520916 0.00105453 -0.101177 -0.167524 -0.0290824 0.0422545 -0.0653076 0.180024 -0.0212865 -0.012007 -0.0640914 -0.00219604 -0.0424441 0.0600198 0.0576142 -0.0768447 0.139032 -0.0696852 -0.0447084 0.00775303 -0.0540242 0.05511 0.0617621 -0.0428961 0.141272 0.0254144 0.0092202 -0.107095 0.018111 0.111197 -0.0292724 -0.0552173 -0.0733608 0.0148612 -0.0514874 -0.0297311 -0.0780286 -0.111354 0.119795 0.0684466 0.101136 -0.139073 0.109623 0.0664046 -0.193514 0.0581061 -0.177743 0.00324972 -0.0259959 -0.0213498 -0.0301675 -0.0605403 -0.0284655 -0.0253835 0.0474052 0.063727 0.0225926 -0.118488 0.0612276 0.110681 -0.0372037 -0.0921995 0.0593175 0.018113 0.0179836 -0.168986 0.0445216 0.000396436 -0.0682981 0.102227 0.0264322 0.0363831 0.0035292 0.038942 -0.082365 -0.121766 -0.0712383 0.022571 -0.154201 -0.0339914 0.0633343 0.0268921 0.086926 0.0605488 0.0488233 0.0657608 0.0206007 -0.0948071 -0.00941393 0.0683851 -0.171894 0.050896 0.142829 -0.0907613 -0.0305758 0.152433 -0.116844 -0.019387 -0.106389 0.180526 0.141076 -0.117707 -0.00866582 0.0466772 -0.00454073 0.025587 0.0243834 0.0139538 0.000326452 0.0806939 -0.0401986 0.00603967 -0.129297 0.0844623 0.0340249 0.00382157 0.000274202 -0.187425 -0.0355284 -0.0283733 -0.0231488 0.0494692 -0.0185171 0.110614 -0.0845395 0.131072 0.010733 -0.140758 -0.0421355 -0.158469 -0.046296 0.0534755 0.152376 -0.0775529 0.0659502 -0.138766 -0.151151 -0.0647252 0.0560002 -0.0267917 -0.104346 0.0905936 -0.0818729 0.096135 -0.0607898 0.104335 0.0102994 0.0304934 -0.0135404 0.174907 0.0810251 -0.0200097 0.182394 0.0472412 0.128949 0.160361 -0.108379 -0.0191586 0.0261575 0.0210928 0.0312126 -0.0824185 0.0613536 -0.115729 -0.181 0.0140859 -0.148833 -0.00852461 0.0105125 0.0402405 0.0519595 -0.0543498 -0.0200783 0.0586906 -0.108024 -0.147122 -0.0432328 0.0145655 0.0231101 -0.0514983 0.0430644 0.112899 0.0380038 0.0672037 0.0997933 -0.0506551 0.0493802 0.103697 0.0617637 -0.13304 -0.00568253 -0.00841317 0.149614 0.0870532 -0.0875541 0.0645091 0.139432 0.00638658 -0.0876984 0.0623344 -0.0277028 -0.187219 0.179056 0.100268 0.023573 0.0104207 0.0926103 -0.0479457 0.148677 -0.0288448 0.0748751 -0.0624067 -0.0286926 0.000378527 -0.0307909 0.0556687 -0.019666 0.106615 0.0256623 0.0343423 0.159217 -0.0219468 0.110379 -0.0563713 -0.0901069 0.0108535 0.0798283 -0.00633406 -0.0218301 0.153465 0.127429 0.0233499 -0.0498373 0.161313 -0.127698 -0.0816434 -0.0615767 -0.140195 0.172846 0.1602 0.150869 -0.0462844 -0.0681917 -0.0551516 -0.0878786 0.0197812 0.146221 -0.0540127 -0.0778791 0.0598548 0.0539364 -0.0737028 0.0785248 -0.0610182 0.0371346 0.0889607 -0.0410459 0.00802728 -0.0472204 -0.130745 0.0087642 -0.0202983 0.00443633 -0.0396367 -0.0314432 0.0948181 0.0224192 -0.0608344 0.16343 0.0131648 0.166046 0.00691308 0.0268459 -0.086711 -0.0365489 -0.14739 -0.135526 -0.121588 0.050067 0.0106102 -0.0806379 -0.0513869 -0.0353814 0.0605959 -0.114178 0.0403732 -0.025467 -0.0249579 -0.0267599 0.110809 -0.0957798 -0.0205517 0.0149393 0.147398 0.0313775 -0.14721 0.0623295 -0.0796866 0.000486635 -0.0209728 0.101481 -0.132963 -0.0791229 -0.0564815 0.101098 0.134263 0.0753738 0.013106 -0.16945 -0.118653 -0.135039 0.137317 0.00643757 -0.0110042 -0.0742861 0.0972889 -0.0959559 -0.0717393 0.0793652 0.0984385 -0.131494 0.127588 -0.087025 -0.124295 -0.0536913 -0.0391697 -0.0131327 -0.0716307 0.0658224 0.120734 -0.0239764 0.116089 0.00250295 -0.0416738 -0.126556 0.101356 -0.102578 -0.0441955 0.0944593 -0.0145704 -0.0510129 0.14014 -0.0123912 0.0866486 -0.0168986 0.0698146 -0.0809672 -0.152737 -0.0972492 -0.11591 0.0372793 0.0779945 0.142016 0.0274852 0.108111 -0.0612803 -0.0710949 -0.00538818 -0.0759306 -0.0868919 0.0182106 0.09387 0.00497985 0.0195197 -0.0676299 0.00618825 0.00130444 -0.0559804 -0.0348254 0.109105 0.0300182 0.0826508 -0.0263733 -0.0693306 0.0617847 0.0412835 -0.0427552 0.0968688 -0.0271682 -0.0314513 0.142152 0.0530401 -0.0381985 -0.0202722 0.0352425 -0.00795558 0.054336 -0.0328959 0.0195575 -0.0177845 -0.0389552 0.137767 0.0196186 0.126435 0.13216 0.0678806 0.0172982 0.135136 -0.04859 0.0249225 0.0473389 -0.0231896 0.0709723 0.0946294 -0.115146 0.000780186 -0.0782584 0.0103064 0.0439096 0.120445 -0.0621999 -0.00803282 0.126949 -0.0801334 -0.0501003 0.188547 0.0595703 -0.119451 0.0143978 0.121941 0.106458 -0.0217673 0.0563611 -0.0701979 -0.0595119 0.0307233 -0.00941284 -0.0708871 0.0844834 -0.115318 -0.0178592 0.0125007 -0.183385 -0.00226006 0.0579981 0.0135522 -0.120082 -0.130546 0.0436084 -0.120197 0.0214455 0.0925021 -0.000584454 0.0263891 -0.0108199 0.0663501 0.128781 0.132497 -0.0630601 -0.0727739 0.0169057 0.18339 0.0393751 -0.0226 -0.0475319 0.0146847 0.0208912 -0.0481203 -0.0401565 0.0809604 0.0404292 -0.119682 0.0794074 0.0671548 0.168375 0.114669 -0.109504 -0.0363341 -0.124294 -0.172602 0.00668021 0.104066 0.195029 -0.080831 0.0869782 -0.156116 0.105937 -0.095576 -0.0250194 -0.0644383 -0.0225275 -0.023972 -0.0929585 0.103028 -0.0465674 -0.0546443 0.100665 0.131015 -0.022649 -0.0588108 0.138477 -0.0673155 -0.0953516 0.0639946 -0.121726 -0.132267 0.0152382 0.0983691 -0.0471691 0.0109002 -0.102246 0.173898 -0.17185 -0.0411435 0.0541474 0.174203 0.0561203 0.0283398 -0.0210424 -0.0261367 -0.0484458 0.154417 -0.0525856 0.0513324 0.0308509 -0.0460599 0.0900147 0.0357358 -0.0496808 0.0458336 -0.18092 -0.0317178 -0.111192 -0.0399227 -0.0345142 -0.162275 0.116117 0.0596133 -0.0279412 0.0179977 0.0337301 -0.0711267 -0.0570041 0.00576613 -0.0190388 -0.0493137 -0.170132 -0.16953 -0.13343 0.021801 -0.00662282 0.117683 0.0571281 0.0173955 -0.0500133 -0.0130203 0.0118465 0.0525174 -0.128114 -0.111659 0.0697998 -0.0261177 -0.0784034 0.205509 0.0500743 0.127492 0.184624 0.151009 -0.0362242 -0.000383209 0.0166757 -0.0478042 0.0278474 0.134897 -0.103595 0.159754 -0.0458757 -0.00375352 -0.0684011 -0.0280483 -0.0942336 0.0472593 -0.172771 0.0379615 -0.0828408 -0.0444154 0.109218 0.0975283 -0.0603945 0.119013 0.000698239 0.00392911 0.127453 0.138333 -0.0583615 -0.0559292 -0.0185687 -0.091376 0.0704016 0.0732308 0.128315 -0.0363878 0.137785 0.0451308 0.138498 0.0111561 0.00505125 -0.0301571 0.078707 0.142611 -0.0273429 0.099337 -0.0181461 -0.146197 0.0378088 -0.0419826 0.0430925 0.00177999 -0.0655214 -0.0741578 0.101888 -0.030916 0.09214 -0.0913237 -0.118977 0.0905202 -0.0507071 0.0376986 -0.114766 0.0135802 -0.0147427 -0.0771863 0.0316355 0.00964805 0.119344 -0.0479014 0.159949 0.112139 0.0162165 0.0694461 0.0305296 0.105398 -0.0255282 -0.145304 0.0997986 -0.0883567 -0.00481148 0.105712 0.101942 0.0819921 -0.0485394 -0.107763 0.044514 -0.120278 0.074139 -0.0692611 0.154847 0.102727 -0.0592256 0.0875165 -0.028967 0.0201019 -0.113414 0.011733 0.0517278 0.118862 -0.0256608 -0.02927 0.0555139 -0.00242044 -0.134157 0.0849209 -0.124931 -0.0614736 -0.000399362 -0.0115257 0.0301603 0.13997 0.168075 0.0554742 0.026589 0.0702193 -0.105129 0.0625591 -0.0392495 -0.113799 -0.102356 -0.114605 -0.169147 -0.142656 -0.0278026 -0.062328 -0.0300088 0.161508 0.0309138 0.0350592 -0.0178176 0.0613752 0.0571355 -0.0362316 0.0232741 0.0669334 0.147332 0.0297229 0.0848699 0.126646 0.00132632 -0.164328 -0.0479456 -0.124621 0.056803 0.0855009 -0.200282 -0.081231 -0.123233 -0.0660708 -0.047585 0.154035 -0.0125892 0.0253064 -0.0761815 0.156431 0.0495128 -0.0394994 0.0561406 0.0809844 -0.117991 0.182707 -0.169218 -0.0441601 0.0219683 0.117013 0.0267467 -0.033903 0.0692387 0.030283 -0.105321 -0.17962 -0.0588976 -0.0615665 0.0685911 -0.0264708 0.0536662 0.125221 0.0580701 0.0644559 -0.165161 0.08018 -0.0282599 -0.116139 0.0441097 -0.164356 0.0319892 -0.0668777 -0.106484 0.0958337 -0.0187678 -0.0383409 0.0985902 0.0430245 0.0503511 -0.149021 -0.100388 0.0655377 0.0473674 0.0705356 0.00588279 0.0108035 0.0558089 -0.172091 -0.172166 0.105987 0.0613247 -0.146855 -0.14489 0.043433 0.00458031 -0.194768 3.9771e-05 0.0028013 -0.0918924 -0.0206528 0.079791 -0.0105176 -0.0699938 -0.0606661 0.0811068 -0.0105623 0.124679 0.0594004 0.0169487 -0.0169119 0.0267997 -0.0674877 -0.0267048 0.124062 -0.0392136 -0.04789 0.138303 0.0125511 0.0338378 0.0830798 0.0715914 -0.00187885 0.1348 0.0246638 0.0103671 0.0520325 -0.0114514 0.0925076 0.110179 -0.0456376 0.00498352 -0.0387406 0.0139866 -0.128683 -0.0956186 -0.180335 0.0577075 0.0371672 0.0784879 0.0505958 -0.0315826 0.0117101 -0.00130525 0.179559 0.0508113 0.0701382 0.0475043 -0.0605693 0.00695561 -0.0128694 -0.0343955 0.00604399 0.00360104 0.0594684 0.00505999 -0.080204 -0.126304 0.0964034 -0.088859 -0.00201397 -0.0794739 -0.0320516 0.0463652 0.00754364 -0.0674809 -0.0357413 0.110905 0.125346 -0.0563977 0.0963517 0.0526901 0.170792 0.072219 -0.0126631 -0.00230405 -0.0896785 -0.0252438 0.008342 0.0607853 -0.134182 0.0770792 -0.131107 0.00736862 0.0111647 -0.083289 0.125928 -0.140653 -0.0142976 -0.0866849 0.15477 0.0903815 -0.0973214 -0.00802121 0.0177841 0.0398665 -0.126865 -0.168919 0.0524608 -0.153663 0.00776978 0.170758 0.00241808 0.0336471 -0.0965982 0.13423 -0.0905173 -0.103557 -0.0606591 -0.0646934 -0.0387982 -0.0456989 0.12342 -0.012208 -0.121949 -0.0967423 0.0783397 0.0295208 0.112263 -0.0167263 -0.111417 0.00384218 0.110037 -0.0266782 -0.0364715 -0.142606 -0.017934 0.155507 -0.00920208 0.0247622 0.0072351 -0.0757298 -0.169596 0.021237 0.127909 -0.0105491 0.0395208 0.138961 -0.142319 -0.0189173 0.0922557 -0.0565556 -0.109411 0.0383934 -0.0385115 -0.0358309 -0.0636216 -0.190926 0.0323513 -0.0846054 -0.0969366 0.0797541 0.00564178 -0.0885198 0.078068 -0.0818971 0.0729611 -0.14208 -0.0116408 0.0726123 -0.0862507 -0.0334826 0.00649936 -0.00154424 -0.0225411 -0.165242 -0.128533 -0.0745783 -0.028619 0.120331 -0.00535878 0.00160607 -0.111873 0.0705714 -0.0250396 -0.0399094 0.0543173 0.0315689 -0.045939 -0.160964 -0.0919339 -0.0312148 0.0853151 -0.0486155 -0.105084 0.0907021 0.0656439 -0.0707172 -0.0619615 -0.0214952 -0.0505785 0.153916 -0.0223053 0.0534459 0.0643447 0.151245 0.00933541 0.11357 -0.0878665 -0.044999 -0.0709077 0.178767 -0.0541248 0.0277287 0.0929307 0.0279264 0.133141 -0.0391179 -0.0847135 -0.180767 -0.0306512 -0.131686 0.0149771 -0.126664 0.0218787 0.0258408 -0.0120911 0.0254459 -0.046225 0.029478 -0.0590888 -0.00713902 0.163215 0.00886367 -0.0523372 0.0403855 -0.023159 8.24339e-05 0.0815748 0.126025 0.0973786 -0.114103 -0.0546315 0.00990622 -0.112854 -0.029074 -0.127853 -0.0572949 -0.173312 -0.0506026 0.0207762 0.0728887 0.0652488 0.0897095 -0.00440045 -0.0157804 0.0295843 -0.0305719 -0.0197473 0.0700819 0.170016 0.189791 0.110518 0.0855554 -0.0451394 -0.0409257 0.11317 0.0867796 -0.00334074 0.0748084 0.154342 -0.154673 0.0499377 0.0765687 -0.0860735 0.0987247 -0.101667 0.0811924 0.0522538 -0.094192 -0.0230739 -0.0266113 -0.192532 -0.0304644 0.0497095 0.083721 0.0642597 -0.13571 0.00740208 -0.0105113 -0.0246896 0.14428 0.132596 0.073422 0.0654049 -0.0372619 0.0928182 -0.112284 0.168052 -0.0242649 -0.158322 -0.139498 0.126882 -0.080922 0.142894 0.0446311 0.150502 -0.075211 -0.0471741 -0.00127562 -0.112282 0.101297 -0.139995 0.082842 0.135361 0.151073 0.0742155 0.116407 -0.0193568 0.105365 -0.080422 0.02754 -0.0536823 0.029875 -0.187116 -0.118653 0.0207787 0.0645994 -0.00370102 -0.102074 0.0264406 -0.0554765 -0.121122 0.127985 -0.0439359 -0.0726624 -0.118311 -0.0410797 -0.109037 0.0614952 0.0550903 0.0252959 -0.159597 -0.0471294 -0.119825 0.00446596 -0.00965371 0.0603827 -0.0373828 -0.0259885 0.118582 0.16256 0.122496 -0.0477625 0.0702018 0.0987493 -0.109022 0.0641649 0.0514595 0.100883 -0.102764 0.0405525 0.0301515 -0.0922454 0.040528 -0.0418087 0.0477521 0.105186 0.0669677 0.0528983 -0.0305611 0.106257 -0.115439 0.0429431 0.117236 -0.00511322 0.114429 -0.0595384 -0.0376305 0.160412 -0.0732504 0.0966137 -0.0793324 0.0887401 0.0872175 0.0690889 -0.131551 -0.0522433 0.0162112 0.13064 0.178219 -0.0657017 -0.0616121 -0.01386 0.00111827 -0.00320743 0.0488711 -0.120428 -0.105489 -0.00602551 -0.0356728 0.0365253 0.0313322 -0.0227381 -0.0617555 0.00535246 -0.02234 0.0327989 0.143829 -0.0450053 -0.00248644 0.0411225 0.066332 -0.054197 0.0363125 -0.0505149 0.0995019 0.0648201 0.170256 0.0600156 0.00881936 0.0361153 0.0860486 -0.0376676 0.0512595 0.104339 0.0807059 -0.154912 0.0771692 -0.00851405 0.138894 -0.085864 0.163262 -0.0744322 0.0361145 0.0632562 -0.116284 0.0096689 0.0944652 -0.00194181 0.0392773 -0.00305263 0.0140192 -0.0099408 -0.00274431 0.047889 0.0739834 -0.0499353 0.0634894 0.0648136 0.00952792 -0.0860793 -0.166793 0.0458321 0.0462579 0.0563879 -0.00073995 -0.0445623 0.163794 -0.0413226 0.0253157 0.0943923 0.0720234 0.0323073 -0.00791149 -0.141852 -0.00302642 0.0304716 -0.0623994 -0.0427719 -0.0155928 0.028262 -0.00534222 -0.14613 -0.143708 0.0809754 -0.14563 0.0318904 -0.0212605 -0.128469 -0.0303887 0.0157493 0.00342748 0.0352761 0.131248 -0.0560057 -0.0126319 -0.100829 0.0140025 0.0268054 -0.112116 0.0980116 0.0176401 0.0196676 0.0564376 0.000178561 -0.0952923 0.044683 -0.0124141 0.0652937 0.103209 0.128643 -0.00212117 0.149288 -0.0412846 0.0464818 0.0415008 -0.0558173 0.0485332 0.0303453 -0.0797522 -0.119235 -0.0319705 0.00471237 -0.00181117 0.0781395 -0.07192 -0.187962 -0.0110628 0.00399717 0.0362947 0.0663747 0.00683903 0.104377 -0.0963838 -0.0840625 -0.17537 0.0878 0.00181121 -0.139202 -0.0547082 0.0944529 0.0648555 0.128423 -0.0274293 -0.101834 -0.163205 -0.0521702 -0.0973064 -0.046758 -0.149825 0.0839908 0.10666 0.0621289 -0.0409435 -0.0107288 -0.110993 -0.0282018 -0.11057 -0.0297342 0.0525889 0.0351625 -0.173038 -0.00533277 0.0645012 -0.129357 -0.000122076 0.14145 0.0578522 0.0065569 -0.125642 -0.109584 -0.0126236 0.0820954 0.0149587 0.0303674 0.0770496 0.00256718 0.110341 -0.0505621 -0.143207 0.0144342 -0.0301179 0.0648878 -0.0230328 -0.0358144 0.10342 -0.0797585 0.137281 0.0758126 -0.0730092 -0.166056 0.0937931 0.0343246 0.00570047 -0.043573 0.184813 0.0131969 0.072208 -0.0415686 0.00960462 -0.0677371 -0.120609 0.117952 0.104243 -0.121078 -0.147732 -0.0496968 0.187746 -0.0927645 -0.0925793 0.0377602 0.145795 0.00489497 0.00516773 -0.0524458 -0.102001 0.0384793 0.120221 0.0935036 0.17809 0.0214015 -0.00883561 -0.0177937 0.105965 0.0847602 -0.0703213 -0.00732436 0.0663178 -0.0614173 -0.0233846 0.136259 0.0451398 0.0758874 0.0572273 -0.0264318 -0.144701 -0.00714727 0.0353107 0.126815 0.109257 -0.114144 -0.106941 -0.0970235 -0.0652005 -0.162223 0.137711 0.0620055 0.0579445 0.0742955 -0.123752 0.192056 0.109392 -0.0313904 0.0506086 0.015112 -0.0681238 -0.165818 -0.0435369 0.0772629 -0.108174 -0.0272094 -0.0594044 -0.00976402 -0.0778925 0.00431611 -0.105248 0.115016 -0.0149501 -0.106926 -0.051235 0.19359 0.108163 -0.0995136 -0.182563 -0.130877 0.108166 -0.00563359 -0.00321528 0.013232 -0.0424781 0.00391154 -0.0109497 0.0476852 -0.0520369 -0.0602109 -0.0278626 -0.0650247 -0.0115268 -0.141005 0.0235743 0.0284939 0.0186841 0.147134 -0.0480143 0.038591 0.0415202 -0.0829798 -0.0767056 0.0603236 0.00670201 0.0935546 -0.0183496 0.0653293 0.0966905 0.0694044 0.0375204 -0.0637338 0.0257209 -0.0646669 -0.115827 -0.00188449 -0.101276 0.0303832 0.0113091 -0.137425 0.0588271 0.112655 0.0182212 -0.0910081 0.071996 0.042027 0.0790573 -0.102798 0.044391 -0.113857 -0.0165762 -0.0504842 -0.0655543 0.051742 -0.0370171 0.0371862 -0.0997202 0.0570083 -0.0237841 -0.097615 0.0277241 0.0113214 0.0835999 -0.0747306 -0.070625 -0.0897238 0.112375 -0.0432465 0.186498 -0.189583 -0.00467227 0.0856268 0.177163 -0.0456405 -0.070781 -0.0356844 -0.0117393 0.135105 -0.0100311 0.0624108 -0.101527 0.0542781 -0.0202075 0.0535973 -0.19995 -0.190902 -0.0574223 0.136982 0.0244986 -0.0604146 0.0178491 0.0892926 0.0667772 -0.0530413 -0.106306 -0.0284988 0.119275 -0.104178 0.182509 -0.0266487 -0.0913266 0.152045 0.00762683 0.0604503 -0.0305917 -0.0617236 -0.012237 0.0594412 -0.0730528 0.0153749 -0.174503 -0.150915 0.00141061 0.0874647 -0.094842 0.00685781 -0.0570692 0.00501944 0.049468 0.116189 -0.0891859 0.0026234 -0.114325 -0.0461848 -0.114388 -0.0647623 0.0826764 -0.0815929 0.0674373 -0.100247 0.0395233 -0.0975965 -0.0974801 -0.0446476 0.0822048 0.0299371 0.142492 0.024966 -0.0391315 0.0443517 -0.0729166 0.0259534 -0.0475454 0.046374 -0.106841 0.0396809 -0.0518159 0.0988574 0.0750207 -0.0377761 0.0218001 0.17484 0.00339648 -0.0960199 0.0683528 0.0890686 -0.0595653 0.179086 0.00512299 0.0534009 0.00195011 -0.0421542 -0.0212777 -0.0672043 -0.0022197 -0.160635 -0.0549357 0.0620099 0.123872 0.0028841 0.0701097 0.0859261 0.148416 -0.133955 -0.0704089 -0.178935 -0.0330217 0.0662689 -0.0659593 -0.186947 -0.0615552 -0.0910164 -0.0242561 -0.122685 -0.0219736 -0.0244307 -0.0385427 -0.0178375 0.114481 0.0439527 -0.126096 -0.0393681 -0.00167576 0.0589634 -0.100035 0.117979 -0.158551 0.073784 -0.0519993 0.0589993 -0.0898276 -0.00767974 0.0523347 0.199948 0.163111 -0.0502775 0.0515428 -0.0636165 0.148285 -0.0605872 -0.0928179 0.0709035 0.113208 0.0136697 -0.0570164 -0.00682146 -0.124955 0.101998 0.122784 -0.00922314 0.0855852 0.103164 0.142326 -0.0325701 -0.19681 0.0994621 -0.0765397 -0.0381486 0.0586046 -0.0262034 -0.045029 -0.0213509 0.0831354 -0.100255 0.040724 0.0438884 -0.0318413 0.179145 -0.175601 0.0174036 0.0538758 -0.15261 -0.021614 -0.0804604 -0.1574 -0.0796842 0.0102643 0.106319 -0.174594 0.0908969 0.0875807 -0.126789 0.0527433 -0.0327656 -0.0461388 0.0373936 0.0574139 0.0378741 -0.00870007 -0.118879 0.0540814 -0.0655942 0.158946 0.040025 0.0195351 0.0199512 -0.0371777 0.13459 0.00835149 -0.0504704 0.0442468 0.136652 -0.0128289 0.0649928 0.0670176 -0.090132 0.0146691 0.179929 0.097463 0.00668347 -0.089545 -0.0792331 -0.161981 0.106966 -0.12855 0.0365684 0.0221657 -0.0256378 0.0785079 -0.0901815 -0.0869799 0.000790805 0.130668 -0.0355398 0.0162035 0.135362 -0.0102998 -0.134186 0.0390592 0.0180853 -0.130914 0.0835069 -0.0438515 0.0551956 -0.0192068 -0.0743577 0.0224128 -0.00314334 -0.0162979 -0.0977984 0.0661927 -0.0366351 -0.115978 0.144825 0.00959587 0.00700651 0.00848645 -0.0184104 -0.0396046 0.142773 0.0251225 0.136888 -0.137843 -0.141131 -0.102195 0.180723 0.0873783 -0.10001 0.0991045 -0.107687 0.150635 -0.112938 0.156416 0.0854976 0.012712 0.0813824 0.0731729 0.112881 -0.0100258 0.0497253 -0.0806975 -0.134541 -0.105744 -0.0190065 -0.0879667 0.0306905 0.0197159 -0.0396514 0.0246145 -0.102843 -0.099821 0.157729 0.110195 -0.028618 0.122643 0.082933 -0.0487221 0.0235652 0.172775 0.0468888 -0.0166139 -0.0901987 -0.122395 -0.111621 0.112692 -0.080579 0.0187076 -0.0699702 0.0504768 -0.115451 0.107073 -0.153877 0.0568566 0.0819733 0.183176 -0.0917888 -0.0234737 -0.150517 -0.105078 -0.104826 0.176787 0.148361 0.0414364 0.155317 -0.106924 -0.0592758 0.00613374 0.124419 -0.0720293 0.0231938 0.0779938 0.0940497 -0.0756462 -0.173037 0.0818943 -0.0445967 -0.0490327 0.054564 -0.121376 -0.0569791 0.0511357 -0.0507088 -0.156466 0.035725 -0.0329144 0.0474342 -0.106482 -0.033145 -0.0574635 0.0581275 0.0993188 0.014175 -0.0559418 -0.0954822 -0.0933276 -0.125968 0.0805872 -0.117711 -0.00515868 0.111516 0.0708381 0.0940592 -0.0689955 -0.078832 -0.0676543 0.055459 -0.0236385 -0.0484632 -0.0114801 0.0999739 0.106066 -0.0184564 0.132935 0.0802543 0.14518 0.0485011 0.0268839 0.102039 -0.0525401 -0.156081 0.0256741 0.0703343 -0.0133237 -0.140509 -0.0559476 0.0384143 -0.0538231 -0.0846325 -0.125551 0.0930959 0.112166 0.10415 0.0243425 0.0324805 -0.0545824 0.0633966 0.119139 -0.0846372 -0.11266 -0.0449314 0.0384183 0.151593 -0.0793723 -0.104139 -0.039662 0.00233395 -0.0701614 0.0785829 -0.0652625 -0.0722301 0.0513989 0.0105765 -0.0590208 -0.108978 0.0703581 -0.081503 0.0968348 -0.0475764 0.110431 -0.0419614 -0.0913773 0.0433043 0.0284202 -0.0216083 0.0889754 0.0461578 0.00870576 0.0107581 0.018275 0.0296357 0.03378 -0.00398979 -0.0439217 -0.100005 -0.070477 -0.0156805 0.176665 -0.00472707 -0.0724123 -0.017663 -0.0668288 -0.0349233 -0.0607856 -0.175714 0.0932174 0.121229 -0.0590866 0.0840214 0.0127143 0.0594844 2.55678e-05 -0.174672 -0.0440373 -0.0463723 0.106521 -0.0760086 -0.0252656 -0.0574725 0.0480842 0.122459 0.0909606 -0.00533903 0.123363 -0.0141608 -0.0346824 -0.00303444 0.0177845 0.0742697 0.000424464 -0.0251132 0.150884 -0.150598 -0.0225705 0.00174844 0.00564873 0.0905864 0.00649166 0.040132 0.0179222 0.0323607 -0.0846731 0.0924181 -0.0726786 -0.00839222 -0.189545 -0.0299809 0.193033 0.0719829 0.0584287 0.0370207 -0.132565 0.11955 0.0658602 -0.0994623 -0.164778 0.0516519 0.133723 -0.0268952 0.114498 -0.00281719 0.150019 0.0578576 0.0193275 -0.148167 0.0857352 0.0333818 0.150301 -0.00405314 -0.0449356 -0.0608853 -0.0915994 0.160057 0.0372004 0.032436 -0.0864172 0.0597543 0.161012 -0.0174862 -0.0272483 0.124822 -0.0394947 0.00200161 -0.0543985 -0.128516 -0.00868264 -0.0540539 0.0431534 -0.0179272 -0.152295 0.051865 0.032439 -0.105503 0.069622 0.141756 -0.137391 -0.0218731 0.048865 -0.125219 -0.0992862 -0.110367 -0.0551572 -0.0710816 -0.0385395 -0.0614951 0.0886608 0.105294 0.168805 0.00604348 -0.125189 -0.0262558 0.11094 0.0216441 0.164785 0.0466968 0.0528213 -0.0269864 0.0355937 -0.0191224 0.0453681 0.00554538 0.00852502 0.0200957 -0.0876901 -0.0890518 -0.0924964 -0.083227 -0.0192378 -0.020098 0.00418931 -0.153829 0.0886737 0.0827999 0.0483018 0.140919 0.0985133 -0.0656132 -0.0787629 -0.0105725 0.0965564 -0.0779982 0.0447557 -0.129884 -0.0263835 0.10117 0.0388528 0.142175 -0.0321453 -0.0270535 -0.0647872 -0.0194432 -0.145023 -0.106482 0.152342 0.0394677 -0.0185253 0.171583 0.0851704 0.0749827 0.0918478 0.0901407 0.0443977 0.0252466 0.0226264 -0.000509105 0.0729057 0.0599127 0.00139722 0.0800824 0.000112659 -0.0633414 -0.103377 -0.021734 0.092316 -0.0836763 -0.120971 -0.0888495 -0.067935 -0.00858409 -0.160186 -0.0929366 -0.0856281 -0.00983961 -0.043531 -0.0111555 -0.0503201 -0.0764165 -0.0166461 -0.0133431 -0.080707 0.0565984 0.0930195 0.0646422 0.00726831 0.192509 0.0111926 -0.0812148 0.0534389 -0.0929872 -0.0460376 -0.195862 0.0859772 -0.0582016 0.181746 0.0329494 -0.0120849 -0.0295279 0.0374638 0.147746 0.0731855 0.0661353 -0.07807 0.104164 -0.0153879 -0.0360828 -0.0902996 -0.133464 -0.130428 -0.156842 -0.11153 0.0303772 -0.0726452 -0.147195 0.0678693 -0.102553 0.0201481 0.163022 0.103793 0.043943 -0.0683033 -0.03826 -0.045537 -0.123664 -0.188061 0.0321332 -0.0424146 -0.0293008 0.100646 -0.0593733 -0.0903416 0.0154118 0.0172767 -0.0678019 0.101469 0.0293101 -0.13138 -0.101787 -0.0403992 -0.183905 -0.00987407 0.0576133 -0.048025 -0.0444139 0.0511833 -0.022078 -0.0265026 -0.0942924 0.0724332 0.133441 0.0577385 -0.0872709 0.0294798 -0.0815533 -0.0324683 0.119817 -0.145985 -0.0264534 -0.0910203 0.160645 -0.150911 0.120774 0.10417 -0.114379 -0.0821751 0.107267 -0.0735022 -0.109822 -0.12984 -0.0672246 0.0656277 -0.0519867 -0.0945511 -0.122593 0.0586275 0.175694 0.0861234 0.132566 0.140432 0.095941 -0.049176 0.146767 -0.166668 -0.0195615 0.00735274 0.0312138 0.174647 0.0114226 -0.000300927 -0.00347784 -0.0115199 0.00468511 0.0423734 0.0151481 0.0919787 0.0390958 -0.107979 0.172079 0.0989956 -0.111426 0.0684902 0.157709 -0.0524111 -0.00874075 -0.11676 0.168631 -0.0667377 -0.011814 0.0203208 -0.115516 0.0064564 -0.00645109 0.0154447 0.136238 -0.158676 -0.00519348 0.0347756 -0.0167631 -0.121401 0.00573144 -0.0892527 0.0221359 -0.0821272 0.134406 0.042555 -0.172621 -0.0288765 0.0431316 -0.0891627 0.0648654 -0.0784135 0.117482 0.142368 0.15956 0.0302333 -0.162109 -0.0869632 -0.0574407 0.0802373 0.0262246 0.0818393 0.115105 -0.141773 0.0335934 -0.185826 0.160679 -0.0152241 -0.0623704 0.0804715 0.117642 0.153806 -0.12765 0.0744076 -0.118921 -0.141115 -0.0784916 0.0149347 -0.105423 -0.0499449 -0.00106157 0.121338 -0.115062 -0.0407898 0.089888 -0.0245762 0.0080122 -0.115328 -0.0252561 -0.0157684 0.010992 0.045705 0.0467868 0.084307 -0.0371002 -0.0841793 0.0649643 -0.106514 -0.129347 0.0202283 -0.105922 0.10613 -0.106496 -0.136161 -0.118097 -0.0736699 0.0148508 0.120866 0.170551 0.019764 0.170415 -0.0805534 -0.122801 0.0771662 0.14321 0.172875 -0.116453 0.100022 0.0785651 -0.0635371 0.168341 0.00198904 -0.0173133 -0.0488809 -0.0229527 0.0155907 -0.053948 -0.0829298 -0.0181728 0.064675 0.041582 -0.0782923 -0.0313284 -0.0340542 -0.159978 -0.0516329 -0.0567122 0.137881 -0.121342 -0.0574025 0.0365832 -0.129939 -0.16962 0.00430029 -0.147875 -0.0154703 0.0121181 0.002339 -0.107567 -0.174038 0.119705 0.114046 0.00825476 -0.157225 0.0183635 -0.176904 -0.0601029 0.121974 0.000954573 0.0403465 0.144195 -0.0810699 -0.0412689 -0.0439039 0.145796 -0.114508 -0.0605555 -0.143066 -0.0602308 -0.026986 -0.020313 -0.0192585 0.0643546 -0.205664 0.05444 0.0523858 -0.112017 -0.113332 -0.0209369 0.0309003 0.0248374 -0.0928949 -0.122894 0.108017 0.0442106 -0.0234088 0.00842739 -0.0125215 -0.0224715 -0.0538577 0.135792 -0.123406 -0.173973 -0.0250097 -0.104028 -0.151193 -0.140555 -0.0906693 -0.06253 0.0697912 -0.109562 0.0779213 0.09642 -0.0529028 -0.168194 -0.00931532 0.0836844 -0.143096 0.121849 0.00294913 -0.045116 0.056541 -0.108291 0.0648425 0.0268571 -0.141211 -0.116015 0.134733 -0.00262646 0.167029 -0.0441952 -0.0724046 -0.0631102 -0.0148514 0.0925088 0.16283 -0.0168769 0.102877 0.0709317 0.0859108 -0.0300605 0.117238 -0.0416072 -0.0973442 0.0489233 0.0214394 0.00869674 -0.121276 0.125564 -0.0166743 0.119083 0.00371377 -0.0601838 0.0990514 -0.155939 -0.111251 -0.014864 -0.0367688 -0.0411331 0.0528779 -0.0389184 0.138134 0.0967898 0.00413729 0.0157509 -0.0142717 -0.0110298 -0.0980796 0.0909854 -0.0712456 -0.0552522 -0.133779 0.0464936 -0.0331485 -0.14502 0.0772062 -0.0604041 0.0368863 0.0509578 -0.0238234 0.17144 0.0707976 0.00848724 -0.0155148 -0.0137929 -0.0899689 -0.0226393 -0.0488514 -0.148637 0.0652079 0.0817128 -0.00696743 -0.0808519 -0.0101954 -0.0413336 -0.0283954 -0.14828 -0.0407922 -0.0183504 0.154074 0.0363311 -0.0499706 -0.0367316 -0.115966 -0.135723 -0.178978 -0.0139685 -0.0473045 -0.136733 0.0729284 -0.0611519 -0.0374297 -0.0346034 -0.0490894 -0.020795 -0.0334672 0.0246376 0.0905858 0.134574 -0.0405414 0.0184227 0.00189303 -0.100754 -0.0697399 -0.0201096 -0.037285 -0.133192 0.142351 0.157269 0.0187473 0.0397422 0.140685 0.0560791 -0.0221979 0.0320686 0.00954791 0.153262 -0.0773692 -0.0365262 0.0672046 -0.074399 0.0247462 -0.108025 0.0180478 0.0568913 0.0244928 -0.185354 0.0492681 -0.0121441 -0.085484 0.0422187 0.142641 -0.184613 0.00508963 -0.120605 -0.0941524 -0.0118424 -0.0549226 0.0855493 0.109222 0.0523643 -0.0328566 -0.0261157 -0.076327 0.029691 -0.164483 -0.00613814 0.0355962 0.00467059 -0.0212908 0.0349653 0.0211699 -0.039171 -0.0793635 0.0875606 0.190574 0.00420728 -0.0341275 -0.103722 -0.0059672 -0.00348528 -0.0157272 0.0573857 -0.057481 0.000488972 0.00405258 0.0144809 -0.0680935 -0.144082 -0.0825013 0.0669747 -0.0392474 0.0367444 0.00788732 0.0823624 -0.10733 0.115482 0.0426597 0.20167 -0.145131 -0.073356 0.0151938 -0.00800165 0.0496934 0.0331257 0.0596568 -0.0551013 -0.00914546 -0.0814585 -0.084781 -0.180225 0.0258753 0.0383274 0.0325131 0.135763 -0.106725 0.0865713 -0.0620159 0.125713 0.137174 0.0144354 0.163032 0.00527044 -0.103496 0.0119572 -0.109348 -0.0221981 0.132337 -0.0491703 -0.107064 0.0659623 -0.0788509 0.125539 -0.055228 -0.0491858 0.0304257 0.0167935 -0.140199 0.112159 -0.0395055 -0.116068 0.0943305 0.180589 0.0284778 -0.079747 -0.00179964 -0.0247602 -0.0669094 -0.0636188 0.139959 -0.0211519 -0.0803148 0.025364 -0.0626403 0.0717626 -0.133068 -0.174028 0.00337152 -0.0960369 0.188348 0.02434 0.0313027 0.133039 0.0285165 0.00930887 0.0549749 0.0584268 0.0836451 0.0153116 0.0110036 -0.188034 0.170086 0.0421771 -0.00264521 -0.102869 -0.0772829 -0.129549 0.039622 0.0584808 -0.066233 0.0038086 -0.0107731 -0.119159 0.0623831 -0.0253008 0.0436848 -0.0745648 0.0775966 0.0106174 -0.0882945 0.00513664 -0.0751112 -0.0954717 -0.190719 0.0843791 0.0538669 -0.127653 -0.0745398 0.0577402 0.100706 -0.00430167 0.0607998 -0.114069 -0.015738 -0.0205805 -0.0122635 -0.0483816 -0.0141551 -0.107265 0.0836781 -0.0920529 -0.0487342 -0.0249554 0.0840188 0.0303257 -0.10773 -0.113109 0.000705477 0.0537031 -0.0819249 -0.0805359 -0.0507964 -0.0140259 -0.0159419 0.165097 0.168472 0.115791 0.0372565 -0.0663193 -0.0300435 -0.0400202 0.158818 0.0850664 -0.0778208 0.0506886 -0.0588414 -0.0200124 0.114196 -0.0053825 0.0466576 -0.0696806 0.0537837 0.161002 -0.019282 -0.0735766 -0.0610122 0.00112536 -0.00497199 -0.0910292 0.117334 0.144055 0.00817665 0.0536691 -0.0530521 -0.0509824 0.077902 -0.0122267 -0.0563725 0.121877 -0.113885 0.118075 -0.154429 0.0385269 0.0891699 -0.0473761 0.0483217 0.0373841 0.177805 -0.0434472 0.0971663 -0.184255 0.014986 0.0377794 -0.0421774 -0.0464013 0.0443156 -0.0681884 -0.0365231 8.93703e-05 0.0753687 0.118389 -0.0322061 0.0318105 -0.0285341 0.0200088 0.132837 -0.0261055 0.0454398 -0.0737073 -0.00768119 0.0081403 0.0816284 0.0906895 0.0114266 0.101022 0.0640414 -0.000592984 0.012409 -0.183489 -0.0590685 0.0460906 0.0798256 0.159844 -0.161074 0.0956314 0.00960514 0.133967 -0.0806312 0.0229843 -0.00015399 -0.111631 -0.0721034 -0.0385858 0.0314497 -0.177033 0.154766 -0.148218 0.0689683 -0.0478518 -0.0539568 0.00141699 0.19045 0.0397225 0.00310007 0.111328 0.00195467 -0.116107 0.0408629 -0.00661346 -0.0902473 0.0267586 0.164039 0.0472759 0.0401131 -0.0218079 0.0872286 0.0643293 -0.0560339 -0.00291566 0.117325 -0.0209583 -0.0920316 -0.0867096 0.00708919 0.014373 0.0362197 -0.131207 -0.0282455 -0.125364 0.0740241 -0.190473 0.0309013 -0.00361401 0.0764557 -0.0727834 0.0221235 -0.0355601 0.00648781 -0.169199 0.0602736 -0.0226409 0.0848763 0.101705 -0.0522764 -0.0860772 -0.0617395 0.0109032 -0.0772782 0.0641736 -0.191056 -0.0111485 0.0390793 -0.019105 -0.0662125 -0.159606 -0.0300809 -0.0112622 0.0583236 0.105434 -0.0745399 0.00374379 0.0474584 0.114486 -0.151787 0.0613876 0.0931396 -0.0719464 -0.0114795 0.0245214 0.132527 0.0306417 -0.0389811 -0.0425678 -0.0619776 0.0354167 -0.190532 -0.0509758 -0.026642 -0.0502117 -0.0603578 0.121473 -0.00326529 -0.0838288 0.0591538 -0.0511834 -0.056108 0.000619553 0.171953 0.035103 -0.110396 0.203523 0.0284883 -0.0299277 0.0607505 -0.180014 -0.0815123 -0.0899256 0.00431337 0.0885223 0.0838649 -0.00737379 -0.0448642 -0.113315 0.113471 -0.00548533 -0.113054 0.139703 -0.145596 0.112789 -0.134548 -0.0923594 -0.0187009 -0.0296477 -0.064972 0.0723685 -0.149371 -0.0265729 -0.0407795 -0.0493062 0.105707 -0.0756095 -0.0352136 0.0988331 -0.0174916 -0.014544 -0.0995554 -0.105333 0.00563831 0.0392244 0.0822858 0.0705065 -0.176016 0.0648661 0.0482145 -0.190983 0.157786 0.0019098 0.00603293 0.000514457 -0.0563279 0.0230094 -0.138371 -0.0134245 0.133394 0.0406012 -0.0843569 0.0394849 0.108878 0.0933455 0.0895803 0.0378872 0.15327 -0.178101 -0.008981 0.0624016 -0.0482298 -0.105988 -0.00925658 -0.00845938 0.0329648 -0.0385941 -0.0874751 0.00214033 -0.0578028 -0.0555374 -0.0398973 -0.0874661 0.00817148 -0.157553 0.0908688 0.0784928 0.033883 0.119186 -0.129303 0.0396437 -0.0566398 -0.00897627 0.0431008 0.179972 -0.0514402 -0.145654 0.0283449 -0.101369 -0.0270861 0.137526 0.0054563 0.0859228 0.0117995 0.0285497 -0.0640231 -0.0726388 0.0379926 -0.13301 0.0418894 -0.145852 0.117213 0.0935636 -0.0362917 0.0182379 0.0123597 0.112831 -0.00525118 0.157787 0.0600041 0.157202 -0.0668687 -0.0598564 0.0971365 -0.0219682 0.00736555 -0.119698 -0.00931843 -0.0876189 0.135905 -0.156207 -0.0268928 0.0355001 -0.0508146 0.195709 0.146752 -0.0369483 -0.0859131 -0.0762563 -0.0470237 0.0476125 0.0717485 -0.0944256 0.169056 0.037828 -0.0265041 -0.036053 0.00688586 -0.0130578 0.0153357 -0.0534953 -0.0696743 -2.97686e-06 0.164308 -0.0801696 0.0671419 0.111461 0.035786 -0.119382 -0.0512113 -0.0326713 -0.138529 -0.0351832 -0.0262494 0.0787975 0.0181546 -0.102328 0.0166421 -0.0811964 -0.0442529 -0.00650674 0.0417781 -0.0616539 -0.0324137 -0.0883156 -0.00538632 -0.045691 -0.163334 0.0279154 -0.0313937 0.175048 0.193425 -0.0380425 -0.0189657 0.167174 -0.0799317 0.0375075 -0.165494 -0.0881386 -0.00956908 -0.0526779 -0.102649 0.0284982 -0.0129534 -0.0897746 0.0772623 -0.16361 -0.0189617 0.100147 -0.00916369 0.0291292 0.00157018 0.0790998 -0.0167277 0.0986272 -0.00595742 -0.00570576 -0.0369617 0.131057 -0.0150756 0.186394 0.101508 0.0858776 -0.0692607 -0.194024 0.0411037 -0.0640318 0.123001 -0.0222294 0.0580084 0.0357265 -0.0314549 -0.0690572 0.0615131 0.0660375 -0.101627 -0.0228916 0.0395006 0.019943 0.0546977 0.114073 0.0305085 0.072194 -0.0640819 0.10469 -0.172369 0.0993131 0.0744317 -0.0765758 -0.0438556 -0.0296296 -0.179083 0.00489534 0.00710372 -0.0965723 0.156568 0.0551301 0.0186026 -0.129919 -0.017112 -0.0280554 0.184723 -0.00860432 -0.0301753 0.0976242 0.152313 0.0598001 0.190032 0.183239 0.144239 -0.0265643 0.123039 -0.0255659 -0.105165 -0.127523 -0.169168 -0.0350096 -0.0334376 -0.0665914 -0.0140036 0.0912999 -0.0313466 -0.0380984 0.0901703 -0.0881697 -0.0421405 -0.0179269 -0.0739329 0.0407889 -0.200287 0.0402473 -0.0597652 -0.114617 -0.19398 -0.0272399 0.107005 -0.154939 -0.0098836 -0.10585 -0.0248535 -0.0759024 -0.0690221 -0.146515 0.0459569 0.000483585 0.0675845 -0.189343 0.149198 0.0415255 0.0584699 -0.107633 -0.0557347 0.0056309 -0.0743524 -0.0139732 -0.0566413 -0.112791 -0.116287 0.156344 -0.133234 -0.160846 -0.000427664 0.0320665 0.105081 0.106543 -0.171683 -0.106964 -0.147141 0.00870324 0.174968 0.175074 0.0765272 -0.087368 0.0420617 -0.07153 0.0157938 -0.0334905 0.141506 -0.126984 -0.0465567 -0.0156801 -0.132282 0.00596661 -0.0789149 0.00710972 0.048523 0.183889 0.154663 -0.136476 0.123196 -0.0584297 0.00430867 0.00702239 0.0657039 0.0775217 0.119776 0.142125 -0.0779833 -0.191744 0.0952573 0.0205945 0.109545 0.116708 -0.0396336 -0.171153 0.144323 0.0297508 -0.122249 0.191525 0.0497864 0.124602 -0.128303 -0.110798 -0.0389059 0.0890686 0.0828498 0.05508 0.0297662 0.0535978 -0.128695 0.0650147 -0.0852579 0.0702405 -0.0506645 0.0262223 0.00504657 0.111317 0.111581 0.0968766 -0.0431083 0.0910358 -0.0709011 0.0774263 0.025639 0.0982277 0.0246484 0.00262399 -0.021165 -0.165307 0.0776609 -0.0257458 -0.0179764 0.088559 0.0704709 -0.100333 0.0526972 -0.0598732 0.0961523 -0.00849276 -0.038495 0.0789677 0.101528 0.0943748 -0.0370015 0.0468295 0.108574 0.00906192 0.0191206 -0.110481 0.161049 0.125761 -0.0815893 -0.00802652 -0.170364 -0.126326 -0.0206357 -0.0199705 -0.0210493 0.154545 0.0194529 0.119101 -0.0299821 -0.00137394 -0.00535919 -0.0193949 0.0621961 0.0574805 -0.115886 0.0976533 0.0110768 0.0631262 0.0896384 -0.0641659 0.0370979 0.144135 -0.06083 0.0213918 0.00481621 0.108668 0.0354273 -0.115751 -0.0678055 0.0283021 -0.0416522 -0.182715 0.0056014 -0.0609248 -0.0865638 0.0583296 0.05491 0.058736 0.024873 -0.0762909 0.0511716 0.0295168 0.12938 0.0554884 0.194761 -0.0870339 -0.00792761 0.143156 -0.0292537 0.0523837 -0.00509211 -0.126892 0.0765972 0.00484416 0.0622623 -0.108111 0.172478 0.0427068 -0.0386978 0.0529143 -0.0698544 0.0878099 -0.0718728 -0.0773883 0.132242 0.090346 0.163489 0.0601635 -0.0325102 -0.0991015 0.00176307 -0.0829512 -0.170663 0.072773 -0.0888491 0.0565603 -0.00211155 0.196825 -0.122 -0.0620285 -0.00540485 -0.0430469 -0.136456 0.0279178 0.0352439 -0.00840227 -0.0476741 0.0614187 0.0393817 0.0486468 0.0876547 0.0927975 0.162672 0.0402919 -0.094118 0.119701 0.0891037 -0.0194224 0.04868 0.173181 -0.156099 -0.0129693 -0.140497 -0.14531 -0.141927 -0.0448621 0.049706 0.0991033 -0.171192 -0.0205959 0.037227 0.0737548 -0.0372167 -0.0692991 -0.13287 0.0765883 -0.00589721 0.0298136 0.0965302 0.0660742 0.0194618 -0.128449 -0.0136864 -0.0871124 0.0164979 0.0565823 -0.0104995 0.0768993 -0.0223366 -0.149059 0.106374 0.0132723 0.0287065 0.122553 -0.0518422 0.162225 -0.0227497 -0.0405007 -0.0254345 -0.0102617 -0.0919642 0.135455 -0.17124 -0.0664446 0.0782438 0.0301517 0.17572 -0.0890023 0.0948535 0.0491029 -0.0343084 0.0665687 -0.0476032 0.0905487 0.0960956 0.156729 -0.129846 0.0049299 0.00804097 0.0691119 0.0815785 -0.142175 -0.16659 0.14898 -0.0592972 0.0376124 -0.0134061 -0.175084 -0.158057 0.197442 0.0562309 -0.0180243 0.118092 0.111622 0.143397 0.00705073 -0.0213998 0.0788094 0.122213 -0.0308724 0.017797 -0.0558784 0.0726352 -0.113152 -0.0515824 -0.134222 0.0492996 0.118393 -0.145277 -0.0593758 0.0342216 -0.0246138 -0.173693 0.0124968 -0.100985 -0.00817097 -0.00586041 0.14056 0.0832446 0.0236971 -0.0981502 -0.0645272 -0.138609 -0.159898 0.0709465 0.0280847 -0.0702922 0.0769801 0.0585513 -0.110497 0.0244457 0.0341413 0.0351045 -0.143535 -0.051727 -0.178411 -0.101027 -0.0477908 -0.0996747 -0.00609235 0.0723589 -0.0651726 0.0739368 0.111931 0.0325615 0.0128397 0.141178 -0.0640963 0.154276 0.0592139 -0.017802 -0.140435 -0.0230102 0.0916585 -0.151932 -0.03087 -0.102535 0.0468986 -0.178897 -0.0849506 0.150221 -0.0825223 0.0182253 -0.0810893 -0.0648253 -0.0459613 0.131045 0.0968681 0.0243807 0.183274 0.0996096 0.0448171 0.0226951 0.0120317 -0.147767 -0.0309278 -0.14088 -0.0806026 0.0578678 0.030756 0.175891 -0.00120574 -0.0761659 0.0749392 -0.00609236 -0.159494 -0.022546 -0.0491141 -0.0298098 0.0451439 0.114579 0.117167 0.039676 0.0565582 -0.0324065 0.0890313 0.157757 0.0514899 -0.0375738 -0.0337785 0.0610587 -0.0335137 0.148142 -0.12137 -0.019698 -0.071995 -0.110728 -0.132443 0.129058 -0.0536549 -0.0209038 -0.0476107 -0.011097 0.0919956 0.162319 -0.0854729 -0.0210598 -0.0188328 -0.111552 -0.0933323 -0.0321448 0.078457 -0.0522526 0.12929 0.0689509 -0.0248333 0.0380775 -0.14671 -0.0431235 -0.138157 0.0975866 0.114273 0.0665812 0.132335 -0.0244969 0.0403564 -0.0585507 -0.00212713 0.0864042 -0.0620227 0.104657 -0.149925 0.085195 0.141587 -0.0662238 0.0309025 0.122335 -0.0459676 0.0608896 -0.0599221 0.00130215 -0.0188041 0.0293438 0.103217 0.0580775 -0.0956021 0.106692 0.0668659 0.0800546 0.182376 0.0583329 0.135646 0.164152 -0.117388 0.0328433 0.0640417 0.144269 -0.0772536 0.0446324 0.0697708 0.0134781 0.0066633 -0.109711 -0.00532158 0.0465115 0.11981 0.0755338 0.0341381 -0.137965 0.0136062 0.0125783 0.0407116 0.0102879 0.160988 0.0200124 -0.12868 -0.0771688 0.079514 0.0192932 0.0625005 -0.027469 -0.172825 0.06123 -0.0192667 0.117545 0.0923584 -0.0464786 0.138675 -0.105929 -0.029964 -0.124732 0.0417855 -0.0937261 0.0340733 0.0110298 -0.0715326 0.0931195 -0.0502287 0.0931064 -0.0056849 -0.0669403 -0.031799 0.075836 -0.0852894 0.0201591 -0.196161 -0.0214781 0.0701415 0.0308475 0.102278 -0.0426005 -0.0250351 0.010068 0.0252126 0.0327482 -0.106318 0.134315 -0.0643392 0.00633148 -0.0438615 -0.0214585 0.0954632 0.132711 0.0389301 0.141651 0.00485407 0.0245133 -0.0186597 0.0232926 -0.0184827 -0.050274 -0.0855601 0.0823751 0.0212559 -0.0562778 0.0249375 0.081818 -0.19965 0.0240689 0.0804355 -0.0725676 -0.0674214 0.0250778 0.0108812 -0.111708 0.105874 -0.0471538 -0.116621 0.0578663 -0.102336 -0.0957642 -0.0475195 0.0320744 -0.163534 -0.107425 -0.0817702 0.135633 0.13013 0.0286159 -0.0862797 -0.0906364 -0.121926 -0.00967261 -0.05173 -0.00551846 -0.039785 0.0311661 0.000781527 -0.0423127 0.00844948 0.101507 0.130217 0.0752728 -0.0934606 0.0188705 0.0171277 -0.0579549 0.0472835 -0.0190238 -0.0241529 -0.123603 0.0368815 0.0448467 -0.00248074 -0.093322 0.0371978 0.0729693 0.0956898 0.150439 0.0254925 0.179096 -0.0406885 -0.10527 0.00104736 0.0247122 0.0945269 0.0193502 -0.0980246 -0.132773 -0.0453918 -0.0105492 0.0507742 0.0441288 0.101479 0.0889648 -0.105857 0.0418468 0.081147 0.0528927 -0.109791 -0.0148796 0.000410519 0.0616412 -0.12274 -0.0226192 0.0603403 -0.151202 0.0429939 -0.0701316 0.125231 -0.129529 -0.0887025 0.0364015 -0.0336028 0.108629 0.0576904 -0.00674919 0.166553 -0.0466895 0.0193368 -0.0418245 0.0321588 -0.107095 -0.0804482 -0.109825 0.0914957 -0.0474002 0.0431696 -0.118994 -0.0515533 0.0297251 -0.0113591 -0.128021 0.0783549 -0.0918446 -0.147219 0.0966413 0.0292722 0.192635 0.0547393 -0.0968381 0.0580151 0.113119 0.030445 -0.152253 0.0575947 -0.109508 -0.0366363 0.0568259 -0.00677183 -0.133689 0.0507419 -0.0596797 0.071333 0.153794 0.0928331 0.0559053 -0.0511491 -0.00937582 -0.0685925 0.128245 0.003526 -0.010425 0.088846 -0.0213896 0.112388 -0.00677846 0.161482 -0.00549781 0.115792 -0.0979544 0.104974 0.0216256 0.00642647 0.156223 -0.00556101 0.0400315 -0.16772 -0.070893 0.00454996 0.0195093 0.00163249 -0.0841134 0.02309 -0.00975597 -0.0035983 0.103029 0.165587 -0.0515967 -0.147731 -0.00377868 -0.18693 -0.0519719 0.0519665 0.00630366 0.104795 0.0551313 0.069571 0.0524357 0.0127199 -0.00348161 0.13901 