0.0862956 -0.0525856 -0.0553884 -0.169531 0.177075 0.0278471 -0.0702062 -0.091376 -0.114509 0.0801292 0.0519758 0.105712 -0.192147 -0.124931 -0.180884 0.0613751 -0.0302315 0.0495126 0.120156 0.0801799 -0.052976 0.0613246 0.041264 -0.0478899 0.0741221 0.0761364 -0.0565557 0.183483 -0.140543 0.0706843 0.153916 -0.0461423 -0.0241019 0.0249566 0.0668832 0.0271135 -0.101667 -0.00171533 -0.139498 0.0736366 0.0087678 0.121915 0.16256 0.052033 0.114429 -0.0155639 0.0365253 -0.0125974 0.0927169 0.202627 -0.167063 0.0471733 -0.0588175 0.10342 0.0714513 0.0377608 -0.0726941 -0.150707 -0.0184572 -0.0272095 0.00132457 -0.0158519 0.0620531 -0.00188462 -0.0559381 0.0397351 -0.0486132 -0.190903 0.111667 -0.174503 0.0769001 0.0299373 -0.00223695 0.00195026 0.0162829 -0.082883 0.0245582 -0.106061 0.0541812 0.0939267 0.0813823 0.0576705 -0.0286248 -0.0253363 -0.0712856 -0.0928466 0.0993162 -0.150948 0.0485011 0.00655649 0.0264098 0.102775 0.034147 0.0799217 -0.0119854 0.00669103 0.0905864 -0.0255331 0.150019 0.0228563 -0.0498187 -0.0764162 0.00700356 -0.0780699 -0.00773789 -0.0232953 -0.026907 0.0174689 -0.165619 0.138572 0.11799 -0.0464056 -0.0402754 0.0431316 0.0385859 0.0804118 0.0309174 -0.123348 -0.0343906 -0.0368701 -0.0626282 -0.113571 -0.046491 -0.199658 0.0324886 0.072522 -0.136733 0.135247 -0.0221979 -0.0748635 0.0855496 0.163849 -0.04547 0.044135 -0.0814583 -0.057631 -0.0552279 -0.0124284 -0.096037 0.0503508 0.0623831 -0.0885108 -0.0952554 0.11546 -0.06581 0.0259138 0.133888 -0.0482913 -0.0165231 -0.0361156 0.087979 0.0351029 0.0543168 -0.076983 -0.152693 -0.00549107 -0.0429046 -0.0698138 0.0488973 0.0225442 0.0525933 0.123901 -0.0785839 -0.0801702 0.0582271 -0.0434006 0.0170339 0.0866871 0.0968744 0.0546975 0.132604 0.0856134 0.0980817 -0.200288 0.00181044 -0.121938 0.0468292 -0.0116245 0.0110768 -0.124787 0.0235117 0.17106 0.163489 0.0252867 0.0867921 -0.0778243 -0.00589731 -0.0312037 0.123444 0.00821171 -0.0134062 -0.187202 -0.0246158 -0.0681067 -0.113038 0.0920536 -0.0825224 -0.0132039 -0.0225459 -0.132903 -0.0310548 -0.0438087 -0.113674 0.012502 0.0216376 -0.05953 0.0643746 -0.0579547 0.0591278 0.0387639 0.0585679 0.00526308 -0.0276964 0.0700261 -0.159006 -0.0187893 -0.0598601 -0.180925 0.0285883 -0.0990278 0.0891739 0.0484559 -0.118818 0.0502933 -0.0587413 -0.160608 8.47746e-05 -0.000674895 0.0486707 -0.00782796 -0.0521248 -0.112288 0.0888615 -0.0571179 0.0290698 0.0621985 0.0344426 -0.0577438 -0.152032 -0.169678 0.00164962 0.0252368 0.168209 -0.0569006 0.0531552 -0.0958973 0.00527271 -0.0192399 0.0742324 0.0854526 -0.0232831 0.0360773 0.0391892 -0.0518798 -0.0490351 -0.123749 0.150933 -0.0166901 -0.0229443 -0.0751659 0.0408908 0.190249 -0.027182 0.0018181 -0.169907 0.0988847 0.00731754 -0.0330833 -0.0923146 -0.127082 0.0567273 -0.0224222 0.0547148 0.0946242 2.97493e-05 0.0100765 0.130842 0.0528093 0.11948 0.109543 -0.169538 0.0588763 0.0856999 -0.142155 0.0441393 -0.00448592 0.0291918 0.0192561 -0.0535531 0.00164529 0.0610754 -0.159528 0.0859181 -0.106736 -0.0072182 -0.0597739 0.0924981 -0.0913139 0.187635 0.0805141 0.138321 -0.0768907 0.034296 0.186417 -0.00824601 0.174356 -0.0346162 0.0402842 0.0883934 -0.00986541 -0.0535086 -0.0907929 0.0586157 0.0280539 -0.122032 0.149499 0.0932028 0.195199 0.0825947 0.0318043 0.0631077 0.00241868 0.00657414 0.152237 -0.053693 -0.0680152 0.0428355 0.0497739 -0.0787004 -0.182855 0.117693 -0.0265332 -0.0557033 -0.00819189 -0.0144316 -0.0473402 -0.0561596 -0.0120222 -0.0307732 -0.0889632 -0.0631235 -0.0553699 0.0429471 0.0605091 -0.03219 -0.0302837 -0.0318975 0.135863 -0.152355 0.0136145 -0.129148 0.186725 -0.087074 0.0964895 -0.102254 -0.0509299 -0.0200907 0.0528404 -0.163681 -0.0149393 0.0277071 -0.0659176 0.039129 -0.0262202 0.0977962 0.0416888 -0.0698741 -0.0073366 0.0624801 0.110923 -0.169643 0.146666 -0.0886211 -0.127928 -0.0424441 -0.129297 -0.102193 -0.064725 0.0945951 0.0613561 0.140253 0.103697 0.0993319 -0.0286928 -0.0488011 -0.140195 -0.0258087 0.00443642 0.0261286 -0.036969 -0.0291715 -0.00557293 -0.060999 -0.0441954 0.0166597 0.00497982 0.070109 -0.044907 -0.0483495 0.114938 