double conv2_weights[5*5*16*32] = {0.135689,0.0851177,-0.0189451,-0.226252,-0.53438,0.0776525,0.0316229,-0.130403,-0.524639,-0.415,-0.0856905,-0.0576364,0.126815,-0.0294457,-0.0396872,0.0907242,0.149028,-0.0037263,0.380148,0.203844,0.094397,-0.0154713,-0.00703464,0.130475,0.150722,-0.00809045,0.0860082,0.139573,0.00448949,-0.363083,0.0166496,0.110898,-0.117672,-0.150872,-0.242874,-0.208093,0.00867078,-0.146422,-0.0255491,0.112981,-0.145959,-0.103266,-0.015832,0.128596,0.377304,-0.120116,-0.12217,-0.15302,0.0474898,0.121955,0.126814,0.0585287,-0.141547,-0.381533,-0.471707,-0.159381,-0.0474439,-0.0301017,-0.273652,-0.5725,-0.0699718,-0.162137,-0.152452,-0.192923,0.00719925,-0.0166236,0.310861,-0.014758,-0.186437,-0.077945,-0.01037,-0.0013353,0.0770374,-0.148643,-0.262415,0.14697,0.141344,-0.0478218,-0.17801,-0.383808,0.253154,0.0883058,0.0834956,-0.173911,-0.167995,0.0452107,-0.170253,-0.134422,-0.0182665,0.105924,0.120785,0.133191,-0.0250104,-0.0465034,0.273363,-0.00807092,0.0696353,-0.104605,-0.0713171,0.116974,-0.121557,-0.118642,-0.0409997,-0.317613,-0.446772,-0.152306,-0.0409564,-0.26079,-0.432663,-0.446366,-0.0786027,-0.321989,-0.378119,-0.348448,-0.278183,-0.0402797,-0.0568368,-0.106333,-0.477127,-0.379748,-0.00989828,0.014679,-0.178014,-0.530719,-0.316737,-0.0969163,-0.155789,-0.393972,-0.188388,-0.306168,-0.461226,-0.674569,-0.341295,-0.267547,-0.24026,-0.45775,-0.226132,-0.282165,0.00089226,0.0693504,-0.269091,-0.420532,-0.266241,-0.0257734,-0.0182775,-0.313081,-0.675666,-0.394942,-0.328074,-0.165177,-0.305303,-0.256212,-0.131854,-0.33066,-0.275073,-0.382207,-0.453944,-0.395298,-0.24294,-0.171085,-0.362687,-0.396857,-0.221684,-0.00988597,0.0154456,-0.392224,-0.356221,-0.237329,0.017726,-0.0400359,-0.389258,-0.387317,-0.516821,-0.35249,-0.118811,0.178491,0.0346855,-0.212089,-0.570407,-0.471802,-0.1267,-0.13903,-0.120236,-0.427428,-0.217482,-0.0437777,0.152305,-0.101848,-0.0599108,0.106607,-0.0505313,0.0223114,0.0882503,0.115189,-0.0541643,-0.00338408,-0.0682655,-0.000140755,0.0452891,0.00815455,-0.122722,-0.0770818,-0.018018,-0.310965,-0.568535,-0.201882,-0.141123,-0.283755,-0.307985,-0.379829,-0.0550613,-0.213751,-0.345849,-0.206792,-0.145769,0.0224627,-0.0034052,-0.260737,-0.233313,-0.232959,-0.0359928,-0.0269791,-0.0738946,-0.26931,-0.30328,0.381995,0.111225,0.0696475,-0.0558684,-0.49955,0.126562,-0.0244225,-0.239019,-0.441192,-0.311838,0.206602,-0.272153,-0.344335,-0.0568855,0.0285922,0.0582082,0.113898,-0.11718,0.0179846,0.334465,-0.0923018,0.1151,0.036041,-0.0632361,0.112914,-0.0676141,-0.192631,-0.0137326,-0.279068,-0.383509,-0.11884,-0.265315,0.0266953,-0.192177,-0.466345,-0.121639,-0.181441,0.00473988,-0.127019,-0.18793,-0.155269,-0.00395885,-0.0594974,0.011365,0.0423938,-0.0817736,-0.0407008,-0.109124,-0.272144,-0.0988214,0.308774,0.214095,-0.133624,-0.384169,-0.434012,0.0106354,-0.0369772,-0.0160008,-0.338159,-0.140409,0.189729,-0.0808875,-0.158122,0.117545,0.0296666,-0.0877616,0.0636517,-0.181223,0.0514316,-0.181325,-0.0820202,-0.141724,-0.141061,-0.167291,0.369842,0.101361,0.0566664,0.106566,0.0780362,-0.303351,0.161807,0.177419,-0.0855625,-0.207535,-0.193606,-0.0393272,-0.142949,-0.0917277,0.135258,0.21533,0.124173,0.0443705,0.0179711,0.0483577,0.274378,-0.0072091,-0.27538,-0.118341,-0.0577938,-0.0349006,0.430788,0.241685,0.0872609,-0.101115,-0.468644,0.011527,0.0539689,-0.408537,-0.344294,-0.257206,-0.37766,-0.303144,-0.0407637,0.00669527,0.226476,0.233071,-0.133861,0.00686453,-0.0229967,0.114929,-0.0138987,-0.265935,-0.198478,-0.331727,0.191263,-0.0313873,0.359016,0.0707946,-0.28744,-0.304862,-0.150563,-0.34677,-0.484645,-0.274758,-0.188509,-0.296259,-0.392032,-0.169303,-0.0559798,0.196116,-0.266707,-0.283435,-0.411209,-0.114441,0.0363128,-0.127711,-0.389159,-0.346554,-0.531826,0.0801985,0.139323,0.136001,-0.0316949,-0.264626,-0.771337,-0.110729,-0.172479,-0.191813,-0.222934,-0.0272537,-0.046402,-0.0349621,-0.0880905,0.256206,0.361999,0.0994748,0.0237129,0.0783025,0.160001,0.00987769,-0.0524688,0.0355456,-0.00525269,0.186764,-0.00262732,0.00316129,-0.079638,-0.00103496,0.0256519,0.0339947,-0.134745,-0.196862,-0.0674725,0.143452,-0.0805822,-0.258608,-0.0539611,0.0932238,0.147698,-0.0605187,-0.281372,-0.325357,0.0158682,0.213308,-0.0612947,-0.497575,-0.0836362,-0.219463,0.00474388,-0.100971,-0.0174653,-0.0343659,-0.198237,-0.249325,-0.0462716,-0.160878,-0.104546,-0.194209,-0.204132,-0.0136838,-0.169923,-0.140694,-0.1022,0.0664206,-0.0101664,-0.41604,-0.278826,-0.229904,-0.00339118,0.012229,-0.249343,-0.323466,-0.217744,0.0768724,0.047421,-0.145716,-0.289036,0.156047,0.13691,-0.0237264,-0.352609,-0.174132,-0.180724,0.00913319,-0.113081,-0.382479,-0.405262,0.078302,0.16822,-0.100215,-0.520168,-0.525818,0.00533459,0.0100135,0.00959667,-0.375471,-0.305833,-0.0460714,-0.0493459,-0.0742078,0.0169727,-0.0137814,0.0245974,-0.101057,-0.0844776,-0.0468174,-0.000395388,0.0278702,-0.0250858,-0.100629,-0.0262703,-0.015705,0.0419025,-0.0909018,-0.280874,-0.471691,-0.488602,-0.260325,-0.179863,-0.261798,-0.32171,-0.345442,-0.138824,-0.2971,-0.280173,0.0995223,-0.452958,-0.286229,0.0364067,0.173634,-0.425198,-0.19734,-0.0835387,0.128045,0.204924,-0.307261,-0.451935,-0.208302,0.0143241,0.208674,-0.447406,-0.230835,-0.0737482,0.195192,0.239183,-0.603262,-0.269584,0.0834584,0.163145,0.214481,-0.545815,-0.576549,-0.163337,0.179094,0.00643965,-0.388912,-0.450242,0.00721558,0.0249393,0.156431,-0.398845,-0.296349,0.0182065,0.0375834,-0.0317092,-0.307406,-0.347549,-0.0953002,-0.00886485,-0.0128113,-0.144304,-0.0950521,0.0205236,-0.027662,0.213744,-0.364372,-0.389601,-0.138473,0.0369172,0.26246,-0.475019,-0.544517,0.0276015,0.158858,-0.0765246,-0.346383,-0.144057,-0.0780101,-0.0616493,0.0590767,-0.261389,-0.369481,0.0575667,0.174881,0.236873,-0.529919,-0.32331,-0.0992838,0.122157,-0.130209,-0.121173,-0.395002,-0.146289,-0.0839652,-0.20003,-0.248101,-0.593764,-0.184307,-0.181613,-0.198416,-0.0510239,-0.339399,-0.330736,-0.0171788,-0.0728099,-0.0400237,-0.247873,-0.0185572,-0.122977,-0.00480756,-0.128758,0.0603055,-0.0132907,-0.18069,-0.0217229,-0.126611,-0.344686,0.165769,0.132156,0.125464,-0.244995,-0.166819,-0.0230331,0.0978037,0.00752697,-0.538715,-0.244912,0.0435605,0.206618,0.0849458,-0.634756,-0.479163,0.201012,0.0937979,0.144487,-0.507572,-0.234712,-0.00696475,0.131387,-0.0462716,-0.0451719,-0.0871307,0.0318563,-0.105437,-0.214643,-0.282191,-0.410433,-0.104037,-0.256607,-0.123837,-0.263592,-0.335003,-0.0990317,-0.0733956,-0.291273,-0.166074,-0.369495,-0.320509,-0.139187,-0.263564,-0.123815,-0.353542,-0.223764,-0.128824,-0.164272,-0.333901,0.0323741,0.0278245,0.0836097,0.16363,-0.370612,-0.2833,-0.00149499,0.170949,0.0623694,-0.318757,0.351573,0.0475504,0.150936,0.0520789,-0.219002,-0.191446,-0.0470657,0.13271,0.0115682,-0.545636,-0.313394,0.110997,0.145212,-0.147634,-0.32301,-0.261006,-0.0141644,-0.143231,-0.251373,-0.448527,-0.219639,-0.173199,-0.27779,-0.301372,-0.38496,-0.463251,-0.0792884,0.096515,-0.338672,-0.461875,-0.219788,-0.141437,0.0342912,-0.193736,0.0579255,-0.00547252,0.0269056,-0.000289061,-0.0478631,0.139164,-0.0683818,0.0281119,0.168269,-0.0244026,-0.401282,-0.109048,-0.0307149,-0.051521,0.0241627,-0.102352,-0.17818,0.0566176,0.094976,0.0401799,-0.110066,0.0318438,0.253788,0.149945,0.0450154,-0.374748,0.029266,0.106032,0.0231093,-0.0651577,-0.0768307,-0.156498,-0.0484242,-0.199401,-0.114188,-0.43254,-0.537596,-0.357525,-0.321778,-0.160194,-0.256693,-0.348601,-0.0762238,0.0106853,-0.297958,-0.120164,-0.123433,0.00317221,-0.0381903,-0.147978,-0.114453,-0.0491428,0.108417,-0.0537184,-0.0248001,-0.610874,-0.643964,-0.357121,0.0813893,0.0225297,-0.548286,-0.371397,-0.0878084,0.108717,-0.0239372,-0.431727,-0.744269,-0.139594,0.187291,0.0575825,-0.494322,-0.490034,-0.0382622,0.104162,0.0190282,-0.595418,-0.545613,0.108659,0.118719,-0.055291,0.00768465,-0.41531,-0.0197304,0.0771511,-0.0153275,-0.275484,-0.379621,-0.118905,0.104376,-0.0158477,-0.364158,-0.633984,0.0339749,0.163875,0.112196,-0.390332,-0.458537,0.192616,0.00866437,-0.0122715,-0.313885,-0.094456,-0.0439955,-0.0241335,-0.035869,-0.457423,-0.214413,-0.103075,-0.0537624,-0.0143772,-0.166456,-0.232551,-0.218921,-0.00968244,0.0110036,-0.179324,-0.112368,0.0993009,0.104085,0.018801,-0.285507,0.10382,0.0981382,0.0376477,-0.0978288,-0.119869,-0.0879286,-0.142678,-0.206215,-0.371715,-0.246948,-0.432053,-0.188227,0.0717761,0.0685999,0.0538021,-0.201178,0.129191,-0.00467108,0.320989,-0.164074,0.19621,0.0142291,0.0669712,0.224974,0.145685,0.0882692,0.0579892,0.00159736,-0.0901995,0.103934,0.243309,-0.0574499,-0.258989,-0.551634,-0.229601,-0.185672,-0.324707,-0.121499,-0.0245814,0.0697824,-0.443916,-0.366415,-0.19052,-0.0370962,0.0546787,-0.186453,-0.180036,-0.453203,-0.15107,-0.0724564,-0.288681,-0.138546,-0.257711,-0.390648,-0.0571202,-0.211931,-0.445547,-0.554984,-0.238211,-0.156488,-0.174836,-0.316557,-0.0874806,-0.0013604,-0.179576,-0.0206289,-0.0962889,0.010597,0.0268834,-0.238038,-0.119214,-0.0660805,0.0963174,0.0202863,-0.0565692,-0.0395366,0.141682,-0.0514269,-0.0520703,0.0857339,0.212048,0.216566,-0.247332,-0.39534,0.0718707,-0.345626,-0.277448,-0.148848,-0.0032173,0.052128,-0.339953,-0.323488,-0.0789249,-0.0285453,-0.0354874,-0.18648,0.0972759,-0.209046,-0.0140932,-0.122572,-0.166845,-0.00259312,-0.331697,-0.486758,-0.103617,-0.168801,-0.598073,-0.619286,-0.491735,-0.544567,-0.378725,-0.148264,0.0544962,0.102491,-0.270114,0.00232949,0.247802,0.177581,0.256485,0.00975074,0.259709,0.0344693,0.0453387,-0.271769,0.101112,0.0207095,0.0311631,-0.335245,-0.65905,0.00455531,-0.298539,-0.755745,-0.659026,-0.61858,-0.353303,-0.234525,-0.0676855,0.0248378,0.144659,-0.309018,-0.138664,0.0361037,0.206301,0.0184243,-0.0105967,0.271938,0.216945,0.0249825,0.00834932,0.0505426,0.20076,-0.160884,-0.0879849,-0.591575,-0.0538361,-0.244244,-0.49546,-0.439646,-0.424051,-0.175096,-0.196367,-0.191063,-0.0894163,-0.0281572,-0.0192162,0.0714562,-0.0708717,0.0478418,-0.189486,0.0400692,0.0544824,0.0192685,-0.21918,-0.0242278,0.0402471,0.0545845,-0.173545,-0.15452,-0.424415,-0.0497566,-0.109596,-0.262757,-0.368101,-0.238521,-0.104262,-0.40776,-0.320941,-0.0385803,-0.0492613,0.0382038,-0.406211,-0.253312,-0.105853,0.0302682,-0.0246324,-0.259425,-0.176125,-0.169921,-0.28046,-0.207407,-0.420737,-0.418785,-0.565404,-0.406281,-0.174519,-0.581254,-0.712617,-0.5934,-0.63621,-0.145622,-0.425034,-0.143491,-0.0337019,0.00438371,-0.219276,-0.225166,0.0370556,0.0315186,0.0508078,-0.0587509,0.137244,0.0428663,0.0374214,0.0537502,0.00500229,0.102276,-0.0531723,-0.0443874,-0.218984,-0.0865886,0.129564,0.130463,-0.349563,-0.407098,-0.226397,-0.353907,-0.0452287,-0.0101368,0.0172863,-0.30339,-0.322464,-0.0311265,0.0998174,-0.218822,-0.164949,-0.261306,-0.0795875,0.113324,-0.287045,-0.367799,-0.275656,-0.0997557,-0.345124,-0.34812,-0.225813,-0.732522,-0.344992,-0.135766,-0.250983,-0.392582,-0.483197,0.0222292,0.110476,0.11653,-0.146468,-0.0509288,0.0991884,0.126693,-0.00490015,-0.0294353,0.168627,-0.0137446,0.103294,-0.126127,0.149628,0.171513,-0.0941638,-0.159316,-0.303047,0.04565,-0.128607,-0.205502,-0.368448,-0.237266,-0.143597,-0.346672,-0.196799,-0.13492,0.00369774,-0.175071,0.0426216,0.0246203,0.165061,0.0738911,-0.11341,0.013391,0.0667646,0.136515,0.0695762,0.0416882,0.0598104,-0.0584355,-0.0543205,-0.0216523,0.162973,0.0935847,0.123988,-0.174889,-0.327189,-0.371337,-0.642022,-0.300407,0.0423159,0.157312,-0.265232,0.0157343,0.033035,0.139635,0.0410867,-0.0911987,0.192252,0.0953224,-0.049123,0.0212614,0.170889,0.175841,0.196526,-0.0300062,-0.19724,0.189895,0.279016,0.035857,-0.405673,-0.398296,-0.241114,-0.709932,-0.21588,0.0423724,0.119954,-0.0447919,0.0405108,0.115144,0.00654644,0.548913,-0.0392108,0.266969,0.164968,0.214482,-0.00967567,0.124721,0.228887,-0.0351621,-0.258808,-0.636699,0.178379,0.0682442,-0.443577,-0.780003,-0.626662,-0.108294,-0.537752,-0.219107,-0.0846825,0.0562442,-0.0649776,-0.107713,0.102157,0.0891379,0.0972143,-0.098733,0.161804,0.15955,-0.0247755,-0.0613775,-0.0311245,0.175191,-0.158135,-0.268586,-0.329082,-0.0501335,-0.421919,-0.432542,-0.40404,-0.15286,-0.12304,-0.0778868,-0.213826,-0.00246301,-0.215217,-0.0902955,-0.438661,-0.616996,-0.171163,-0.213288,0.0730905,0.076861,-0.0686886,0.00270302,0.000132565,0.158794,0.0607842,0.136659,-0.0247198,0.256776,0.164314,0.108592,0.08153,0.0641644,-0.0386126,-0.0165061,-0.147662,-0.0667456,-0.12147,-0.205369,-0.163084,-0.426163,-0.445645,-0.484394,-0.175076,-0.0228558,-0.188407,-0.118174,-0.0972455,-0.135418,0.0971222,0.161802,0.154665,-0.0453112,0.160484,-0.0318428,0.109477,-0.00828452,-0.0571759,0.0477409,-0.189483,-0.319195,-0.371481,-0.346886,-0.268567,-0.0485343,-0.270292,-0.290129,-0.226605,-0.100937,0.0919351,0.183598,0.0396085,-0.09599,-0.153971,0.0893883,0.053301,-0.0891868,-0.0601896,0.160235,0.0307715,-0.195457,-0.350887,-0.523528,-0.0910614,-0.107289,-0.045073,-0.0850096,-0.0948374,0.00938919,-0.125038,-0.468224,-0.354876,0.0220754,-0.147263,0.0552563,0.0335241,-0.0971339,0.00228943,-0.0953021,0.173368,0.0606905,0.108625,-0.00590435,0.282956,0.0232817,-0.00653163,0.0243986,0.0733333,0.166171,0.00228376,-0.106211,-0.221161,-0.275445,-0.356218,-0.025493,0.0764255,-0.0919027,-0.376006,-0.111187,0.0528631,0.015799,0.0139327,-0.00677812,0.278574,0.0146295,0.178842,-0.16742,-0.484078,0.09137,0.0601029,0.0254152,-0.0867085,-0.371077,-0.204311,-0.0290996,-0.0626125,-0.127729,-0.353519,-0.384303,-0.0221868,-0.0296297,-0.264254,-0.339638,-0.326931,0.0513487,0.277534,-0.0471178,-0.118484,0.053901,-0.00253546,0.182184,-0.16367,-0.297528,-0.163968,0.0448402,0.00305481,-0.55706,-0.247169,-0.176891,-0.0663162,0.0388914,-0.105501,-0.261608,-0.377025,0.00350406,0.0738314,-0.378839,-0.467166,-0.254412,0.0950122,0.195117,0.0299538,-0.0392214,0.00291074,0.086989,0.143848,-0.0857486,-0.0995544,-0.0196619,0.0269102,0.0502489,-0.227676,-0.167505,-0.159962,-0.252767,-0.338324,-0.15607,-0.529643,-0.260819,-0.00844207,0.0410544,0.175827,0.199027,-0.182161,0.15033,0.0237143,0.0292235,0.185901,0.232186,0.0865901,-0.0462321,-0.212519,-0.132213,0.131994,-0.444733,-0.442604,-0.404901,-0.417408,-0.280181,-0.0851116,-0.0907215,-0.121525,-0.354149,-0.536894,0.129363,-0.0641011,-0.149942,-0.173234,-0.442528,0.0757692,0.161218,0.154449,0.100309,-0.0232769,0.113801,0.143482,-0.21003,0.0359166,-0.0630436,0.143809,-0.0236177,-0.266413,-0.405773,-0.123549,-0.0845393,-0.00530512,-0.0480303,-0.00374639,-0.194087,-0.111123,-0.587165,-0.414071,-0.332327,-0.362615,0.0994219,-0.0441677,0.0272857,-0.104907,0.00263599,0.13063,0.150258,0.120871,0.0503337,0.220511,-0.0514931,-0.135014,-0.0112029,-0.312521,0.256345,-0.198707,-0.121937,-0.135694,-0.20141,-0.259671,-0.182394,-0.269662,-0.213001,-0.243407,-0.525601,0.0826473,-0.0114985,-0.052375,-0.0301114,0.0503307,0.159544,0.18007,-0.0613981,-0.0982291,-0.00962377,0.0357445,-0.0751898,-0.0923903,-0.0650791,-0.0491968,-0.063187,-0.119303,-0.23462,-0.335769,-0.363267,-0.0419709,-0.321288,-0.0940638,-0.322472,-0.237083,0.08011,0.0395077,0.0936662,-0.0746626,0.033173,0.0792673,0.114212,-0.0832023,0.13908,0.0704906,-0.659954,-0.585092,-0.672054,-0.352504,-0.44289,-0.0505433,-0.0717304,0.0739647,0.0109832,-0.186421,-0.152295,-0.249522,-0.264827,-0.214802,-0.42146,0.0421414,0.0286338,-0.110805,-0.0791426,-0.0325568,0.344013,0.19069,0.0632476,0.0481507,0.212401,0.102515,0.12676,0.0144256,-0.0156548,-0.0526468,-0.0299503,-0.10421,-0.0886047,-0.133376,-0.368692,-0.127776,-0.24233,-0.230465,-0.190205,-0.252963,0.0665394,0.0397175,0.0121894,-0.0401745,-0.0446112,0.0755023,-0.00443793,-0.0117289,-0.00507337,0.0968637,-0.292063,-0.333058,-0.488246,-0.602247,-0.446239,0.0145765,-0.184392,-0.240245,-0.382785,-0.591657,-0.0329784,-0.11786,-0.191416,-0.35722,-0.290749,-0.0762993,0.00433794,0.00610872,-0.0365435,-0.139557,-0.00931218,0.143612,-0.145952,-0.469508,-0.3713,-0.0597748,0.0390253,-0.344224,-0.391536,-0.196007,0.0126378,-0.276712,-0.385679,-0.515395,-0.433261,-0.0318131,-0.0829796,-0.181883,-0.386552,-0.358414,0.184262,0.0892786,0.118861,0.291804,0.192988,0.136631,0.121162,0.0261428,-0.0659735,0.0983062,-0.0415689,-0.182128,-0.316275,-0.248194,-0.147483,-0.150572,-0.1189,-0.0675697,0.349998,0.068882,-0.343641,-0.193942,-0.205389,-0.0101062,-0.167081,0.195081,0.0719725,-0.32235,-0.0316996,-0.172898,0.395468,0.312237,0.0461075,0.226266,0.240037,-0.00530462,-0.178428,-0.0444874,-0.190453,-0.0368941,-0.0188671,-0.0767423,-0.10155,0.317893,0.270639,-0.456618,-0.197574,-0.310317,-0.197492,-0.300082,0.053381,0.0371299,-0.11115,-0.172015,-0.285107,0.107786,0.159488,0.0488769,0.0803296,0.0292799,-0.157584,-0.195552,-0.155352,-0.14322,0.0165658,-0.412424,-0.288521,-0.252753,-0.246975,-0.192427,0.0819518,-0.460024,-0.131437,-0.104804,-0.21911,0.173122,-0.0176113,-0.201692,-0.364416,-0.0655785,-0.0883272,-0.0640065,-0.189032,-0.156255,0.148181,-0.139735,-0.375866,-0.373945,-0.14926,-0.208088,-0.171943,-0.331565,-0.14719,0.0798782,0.0639025,-0.0122447,0.0290611,-0.0358531,0.00157167,0.000345398,0.204117,-0.116134,-0.186899,-0.296439,-0.273071,0.392445,0.177957,-0.126918,-0.102377,0.241292,0.272446,0.0399753,0.00664143,-0.278294,-0.0772674,0.00210022,-0.58739,-0.348116,-0.344876,-0.454246,0.00277332,-0.210074,-0.450282,-0.581456,-0.575321,-0.0689428,0.0248206,-0.0731799,-0.271291,-0.320427,-0.219263,-0.227326,-0.460679,-0.316006,-0.111485,-0.0507073,-0.511128,-0.70824,-0.616296,-0.254971,-0.48311,-0.616811,-0.581325,-0.358324,-0.319193,-0.633565,-0.647234,-0.538117,-0.599724,-0.283341,-0.402435,-0.408716,-0.00110258,-0.179899,0.0336885,-0.661308,-0.453078,-0.283246,-0.0769662,0.0655034,-0.867498,-0.854167,-0.562042,-0.120676,0.0393202,-0.361881,-0.149899,-0.321097,0.0360482,-0.305412,-0.350517,-0.503453,-0.54008,-0.494545,-0.458729,-0.29898,-0.367178,0.0356318,-0.188977,-0.0882199,-0.421938,-0.248682,-0.11794,0.0486129,0.105944,-0.623769,-0.677387,-0.580767,-0.132472,0.014472,-0.179558,-0.300346,-0.214622,-0.0374986,-0.275325,0.063094,0.150159,-0.165001,-0.0138027,0.0196141,0.129055,0.0446984,-0.0285278,0.0488524,0.299185,0.0380185,-0.000325105,-0.110163,-0.340332,-0.244324,-0.0193397,0.0283994,0.036905,0.0364201,-0.167163,-0.190743,-0.473693,-0.470661,-0.194189,-0.184855,0.00561925,-0.622528,-0.501659,-0.262856,-0.438049,0.048737,-0.0543681,-0.11469,-0.11351,-0.244305,-0.277007,-0.0880694,-0.47483,-0.236219,0.086482,-0.309929,-0.633782,-0.651903,-0.30872,-0.0195701,-0.0257504,-0.362671,-0.225585,0.157554,0.0774195,-0.166075,0.0457122,-0.505134,-0.39448,-0.222701,0.281097,-0.0520905,-0.188899,-0.212614,0.0646919,0.191929,0.0270512,0.0552505,-0.0625511,0.150542,-0.0589699,-0.122528,-0.177322,-0.304502,-0.0321613,-0.647786,-0.256639,0.0116739,-0.125276,-0.0346091,-0.285223,-0.352954,-0.356879,-0.143066,-0.0652868,0.100008,0.0904147,-0.0694878,-0.108566,-0.215946,-0.164847,-0.262855,-0.111694,0.129291,0.1929,-0.469297,-0.495212,-0.0530258,-0.0801142,0.0662321,-0.118433,-0.282593,-0.304486,0.0769325,0.143338,0.0457745,-0.353561,-0.494206,-0.589994,-0.72572,0.298909,0.040926,-0.0501029,0.0340858,0.177006,0.279837,-0.0275079,-0.0824279,0.0292385,0.116666,-0.236425,0.0708186,-0.408466,-0.0620717,-0.134619,-0.0377963,-0.0780691,-0.107174,0.229755,0.154966,-0.242261,-0.17203,0.0413111,-0.112413,0.112579,0.229975,0.00881594,-0.282414,-0.11631,-0.165403,0.338353,0.215679,0.0537514,0.158614,0.326032,-0.0429201,-0.151627,0.024809,-0.160604,0.137782,0.0076874,-0.543806,-0.47356,-0.172759,0.414474,-0.0607124,-0.488107,-0.619925,-0.617562,-0.813831,0.279434,0.0516881,-0.0227239,-0.148487,0.214358,0.17104,0.085011,-0.0823312,-0.0185865,0.136866,-0.492345,-0.531671,-0.495691,-0.394094,-0.0849238,-0.164914,-0.387291,-0.662189,-0.414242,-0.350345,-0.144881,-0.356549,-0.452522,-0.322866,-0.510667,-0.19785,0.00921438,0.0130974,-0.362497,-0.112882,-0.224155,-0.37259,-0.362919,-0.157673,-0.02307,-0.472786,-0.655842,-0.824786,-0.264557,0.0401449,-0.188593,-0.516503,-0.199841,0.164057,0.0594466,-0.0465218,-0.123901,-0.572559,-0.28294,-0.496419,0.212027,0.318997,0.138627,0.118897,0.339137,-0.044735,0.273538,-0.170724,-0.153284,0.268495,-0.0968487,-0.224517,-0.232305,-0.168806,0.0777254,-0.208279,-0.0495704,0.189177,0.154285,0.126437,-0.00210468,0.092497,-0.0451254,-0.0682536,-0.174906,0.0654541,0.0781064,0.043992,-0.00745508,-0.0967597,-0.030726,-0.00513366,0.0868616,0.0361114,0.0619495,-0.137591,-0.224197,-0.0228665,0.0255733,0.0465846,0.110314,0.0615779,-0.0350662,-0.422386,-0.223528,-0.108192,-0.488955,-0.293134,-0.0602617,0.0278304,0.0386852,0.0993102,0.0456447,0.0688397,0.0595492,0.0798476,0.0331506,0.0318681,-0.0985654,-0.00317493,0.0455657,0.172338,0.0586813,-0.0493128,0.0304568,-0.125618,-0.148016,0.0599317,0.0950555,0.326729,0.0749036,0.159362,0.171591,-0.151189,0.180133,0.201994,0.158977,0.097003,-0.0437557,0.0743731,-0.0163606,-0.00269479,0.0726582,0.144544,0.0511329,0.0883709,-0.117318,0.0870935,-0.0198043,0.0114462,-0.217906,-0.0442181,0.0306257,0.104165,0.0690592,0.168999,0.113675,0.0490435,-0.123469,-0.13717,0.218682,0.193659,0.0467461,0.04849,-0.113419,-0.0344688,0.146482,0.126044,-0.0102991,-0.0430951,-0.300306,-0.00888168,0.0136641,0.137542,-0.0749115,0.115095,-0.0578801,-0.0162246,0.133209,0.127532,0.0633686,0.0384286,-0.185695,0.0751026,-0.0117406,0.0527995,-0.0225653,-0.0359059,-0.143295,-0.133928,-0.0486362,-0.127921,0.109178,0.0298453,-0.0117076,0.0262512,-0.0739808,-0.0423035,0.051879,0.00219642,0.0561926,-0.115505,-0.0650698,-0.0806578,0.0957783,-0.0922624,-0.421704,-0.0698667,-0.0753291,-0.0334469,-0.0234653,-0.261677,-0.251471,-0.118355,-0.0768722,0.092613,-0.00424086,-0.132828,-0.126427,-0.0358358,0.00357008,0.0168089,-0.0103404,0.0496466,0.018887,0.0702736,-0.0662423,-0.00792357,0.0177742,0.0973679,-0.0414665,-0.317978,-0.203608,-0.0973806,-0.0461252,-0.0824224,-0.251986,-0.336688,-0.202938,-0.115667,0.0470053,-0.0174618,-0.149595,-0.175526,-0.112899,0.00393037,-0.0149587,-0.0328724,-0.0341212,0.0228217,0.136722,-0.0740228,-0.199119,0.129729,0.189441,0.309526,0.215247,0.160027,-0.0394025,-0.26317,0.159881,0.188268,0.0989621,0.0127915,0.120198,-0.0720878,-0.111947,0.0708231,0.0788379,0.0820383,0.0754422,0.127765,-0.0479122,-0.143949,-0.081653,0.00986953,-0.0897433,0.182928,0.175957,0.123419,0.0721489,0.0545736,-0.145974,-0.0335692,0.0199795,0.0563019,0.0496436,-0.00798868,0.0464377,-0.00999137,-0.0687759,0.0683624,0.0864197,0.0534624,-0.0197754,0.0546724,-0.169553,0.00209907,0.0869013,0.00867339,-0.0619344,0.166179,-0.00824758,-0.0023035,-0.228204,0.105963,0.0678242,-0.0890171,-0.127352,-0.0572192,-0.021503,0.207608,0.0732753,0.113579,-0.0503695,0.0530358,0.0801185,0.108419,-0.0103914,0.0659313,0.0012812,-0.0071954,-0.016789,-0.0577857,-0.0751606,-0.221431,-0.0486086,0.0893181,0.0918411,0.0373308,0.000450687,-0.101808,-0.11268,-0.109182,-0.0559716,0.101872,0.152711,-0.0645116,0.0119977,0.0200371,-0.0663279,0.0839839,0.0989516,0.172312,0.116199,-0.164053,-0.0816126,0.108913,0.126886,0.0924213,-0.04691,-0.0374619,-0.3027,-0.319779,-0.155934,-0.0318527,-0.0335453,0.151193,0.0560635,-0.124274,0.0612923,0.135521,0.0783764,0.0581228,0.0485209,0.0162698,0.120982,0.0311384,0.186884,-0.0170064,0.0446042,0.103126,0.0456816,-0.0877758,-0.0828186,-0.116918,0.0679713,0.0830883,-0.022777,-0.0257291,-0.030086,-0.308013,-0.281601,-0.176511,-0.133865,0.111019,0.00876995,0.0413653,-0.035029,-0.0900095,-0.00267807,-0.00371063,0.0627229,0.0181178,0.0949548,0.0219503,-0.0756148,0.00966593,0.0497647,0.021139,0.0622757,0.0497293,0.0522748,-0.319726,-0.183729,0.00959796,-0.168846,-0.012021,-0.112479,-0.0890085,0.0119088,0.213374,0.114612,0.153049,0.0518176,0.128872,0.183002,0.0676577,0.105756,0.0059576,0.131126,0.14717,0.0796142,0.106378,0.0194803,0.099066,-0.0516318,-0.100729,-0.21547,0.0141911,0.0240332,-0.181379,-0.0438852,0.0041782,-0.0358524,-0.0845847,-0.101136,0.0317222,-0.00175211,0.010738,0.0917249,0.121762,-0.0130688,-0.0247317,0.0558378,0.0996605,0.0773979,0.110092,0.13387,0.105306,0.00316874,-0.26907,0.0182301,0.0169537,0.0477603,0.0871992,0.0283143,-0.0406994,-0.0981057,-0.204302,0.0757719,0.183742,0.0892577,0.120731,0.0366885,-0.00781033,0.0741071,0.071478,-0.0463215,0.0498391,-0.0225006,-0.0553897,0.0683443,0.0180326,-0.0154836,0.103797,0.0476916,0.0347959,0.0155256,0.0407238,0.159431,0.201289,0.0169338,0.0682957,0.0331037,-0.28593,-0.127741,-0.210321,-0.034798,-0.139428,-0.538139,-0.283851,-0.29614,-0.0983601,-0.134478,-0.274894,-0.143488,-0.0580194,-0.230707,-0.0415825,0.0314163,-0.0417284,0.0298517,0.0645245,0.0395414,-0.0859607,0.0297594,0.0120245,0.144302,0.169107,-0.024886,0.0850521,0.0400793,-0.00959972,0.0444491,-0.105581,-0.315141,-0.209409,-0.0369487,-0.0129204,-0.133065,-0.0845349,-0.0278681,-0.0340853,0.088512,0.00736386,0.0845886,0.157001,0.0774924,0.064054,0.0710981,-0.0366217,0.0665113,0.0118974,0.0311354,-0.179234,-0.103066,-0.250959,-0.325801,-0.0814715,-0.284261,-0.22684,-0.399593,-0.418519,-0.0518026,-0.220112,-0.0947269,0.116575,-0.498255,-0.243217,0.0859822,0.0797507,0.103989,-0.0138139,0.192812,0.292518,0.0687044,0.133749,-0.013149,0.244704,-0.147936,-0.185865,-0.126735,0.163332,-0.0326488,-0.119558,-0.249039,-0.266436,-0.27366,-0.240226,0.0548756,-0.153423,-0.135299,0.0276634,-0.146951,-0.0493781,-0.15103,0.0511665,-0.134994,-0.0806311,-0.239274,-0.123481,-0.195486,-0.213115,-0.029483,-0.106689,-0.254125,-0.513993,-0.460706,-0.00868686,0.0408776,-0.470301,-0.431005,-0.432036,-0.000485747,-0.0323663,-0.324885,-0.0261284,-0.2113,-0.0692475,-0.04324,-0.130921,0.0135953,-0.0857126,0.00529979,-0.104507,-0.196853,-0.107074,-0.0966778,-2.65216e-05,-0.162942,-0.487814,-0.284637,-0.0607429,-0.0172933,-0.250145,-0.422418,-0.0240833,-0.00724202,-0.0303457,-0.0500566,-0.175369,-0.0619732,-0.0776761,-0.0250295,-0.217734,-0.0951166,0.0931086,0.0185332,-0.0651426,-0.137253,-0.190772,-0.130067,-0.115621,-0.0582586,-0.217194,-0.37723,-0.329001,-0.169102,-0.0639436,-0.321093,-0.398983,-0.336883,-0.0741955,0.00691531,-0.330723,-0.137807,-0.0932608,0.0157072,-0.0072041,0.0778025,0.264994,0.156919,0.176576,0.277416,-0.17254,-0.0182155,-0.172085,-0.128485,-0.164233,-0.434648,-0.0264044,-0.317199,-0.305301,-0.387857,-0.425293,-0.143381,-0.392722,-0.445592,-0.427447,-0.0798401,-0.0816265,0.049343,0.0669048,-0.13771,0.00154134,-0.0874809,0.122686,0.00357461,-0.0129314,-0.286677,-0.0327588,-0.225267,-0.145246,0.0102639,-0.417298,-0.329188,-0.349279,-0.169285,-0.0438129,-0.280779,-0.551592,-0.339297,-0.30907,0.0109764,-0.245179,0.00537005,-0.15669,-0.464881,-0.0714335,0.209017,0.0377308,0.0908903,0.0711271,0.366781,0.00376494,0.103589,0.127526,0.123896,-0.00376218,-0.227858,-0.0592943,-0.289065,-0.147006,-0.123832,-0.521665,-0.400188,-0.363246,0.0799037,-0.306962,-0.118211,-0.213461,-0.0998513,-0.123835,-0.0390118,0.0657521,-0.00488464,0.00443764,0.0664034,-0.0317672,-0.197426,0.0692762,-0.0157877,0.0433157,0.0935467,0.0934325,0.0712126,-0.168622,0.137247,-0.0111077,-0.337842,-0.253923,-0.463247,0.0808172,-0.0028878,-0.459567,-0.211557,-0.277766,-0.252709,-0.0355042,0.0609542,-0.0698602,0.0600643,0.0459026,0.182239,-0.0343991,0.142952,-0.0464883,0.0332498,0.136352,-0.135747,-0.311502,-0.170947,-0.174221,-0.447165,-0.265012,-0.415703,-0.0395166,-0.201709,-0.0838692,-0.125234,-0.0371453,-0.014248,0.0134084,0.0521064,0.0406112,0.185335,0.08574,0.0304647,0.146675,0.218531,0.123327,0.0191142,0.11841,0.164694,0.00852653,-0.300616,-0.115476,-0.158729,0.0303642,-0.382634,-0.375718,-0.164345,0.0453374,-0.0436495,-0.213346,-0.204817,-0.231175,-0.217441,-0.0801239,0.0674778,0.118873,0.0128951,0.0471442,0.147196,0.0946154,-0.0761109,0.0930007,0.0386285,0.0246819,-0.0683974,-0.00946273,-0.409151,-0.441333,-0.370733,-0.339609,-0.466133,-0.0327674,-0.0570009,-0.307201,-0.172423,-0.0651616,-0.0191091,0.0968994,0.00339343,-0.0375584,-0.262794,-0.00517114,-0.0260902,0.014634,0.0560622,-0.0374627,-0.196111,-0.0892446,-0.0318951,0.0188022,-0.264721,-0.375692,-0.134074,-0.0272736,-0.0597698,-0.482723,-0.381633,-0.0849086,-0.0687798,-0.299032,-0.0254709,0.00580192,-0.0168633,0.00960477,0.114121,0.120867,-0.0247979,0.0669436,0.138537,0.0235555,-0.161908,0.0488694,-0.0496346,0.00968317,-0.365414,-0.147841,-0.325042,-0.303415,-0.148499,-0.300639,-0.484728,-0.478446,-0.337082,-0.074649,0.0146158,0.199779,-0.0723247,0.0388948,-0.0213089,-0.265765,-0.151843,-0.0875491,-0.0760378,-0.302442,-0.194828,-0.118781,-0.145966,-0.246058,-0.416359,-0.159641,-0.154394,-0.247201,-0.00517049,-0.191159,-0.0247426,0.0860429,0.0502649,0.0238147,0.215692,-0.0113574,-0.0516271,-0.0820325,0.0788859,0.0721463,0.071277,0.0881337,0.136756,0.141984,-0.0847153,0.172652,0.294663,0.15895,0.0561279,-0.397981,0.160488,0.0905038,0.113795,0.0118895,-0.281612,0.0808554,0.114407,-0.0822818,-0.0606568,-0.000765857,0.059915,0.0654724,-0.0988481,-0.139192,0.115653,-0.0771111,0.0921616,-0.417355,-0.471504,-0.365695,-0.0312119,-0.37759,-0.40994,-0.397695,-0.423998,-0.269272,-0.613342,-0.546891,-0.669287,-0.354874,-0.281809,-0.391814,-0.335765,-0.18477,-0.0925212,-0.159446,-0.559159,-0.594692,-0.631633,-0.173505,-0.135263,-0.151456,-0.00689007,0.0109595,-0.197861,-0.0580888,-0.0510443,-0.000998024,-0.0782986,-0.363357,-0.0918525,0.0980056,-0.0588637,-0.106623,-0.264271,-0.0287382,0.152662,-0.138374,0.0317392,0.170605,0.0891092,0.0239778,0.202198,0.227955,0.059716,0.0243905,0.0912614,0.0308586,-0.0101402,-0.00518512,-0.0612043,0.0186951,-0.127696,-0.416704,-0.531389,-0.185819,-0.10322,-0.389431,-0.524977,-0.566522,-0.0705206,-0.261725,-0.354796,-0.287602,-0.316541,-0.00457391,-0.359419,-0.521686,-0.571821,-0.409325,0.116115,0.196098,0.133164,0.282039,-0.362469,0.0840634,0.137524,-0.0449118,-0.181941,-0.225603,0.0535205,-0.0309953,-0.0364508,-0.104111,-0.228107,0.0161275,-0.325717,-0.217904,-0.120515,-0.0711003,-0.216755,-0.532807,-0.663967,-0.462003,-0.352682,-0.00449029,0.0857944,0.166853,0.302835,-0.338555,0.0169241,0.195151,-0.140168,-0.153728,-0.217364,0.0458115,-0.00955271,-0.270516,-0.218276,-0.175519,-0.00471075,-0.253596,-0.227822,0.0341968,-0.0170575,-0.184769,-0.448826,-0.57249,-0.366314,-0.31636,0.092993,0.0162633,-0.401095,-0.366748,-0.339488,0.0445006,-0.193753,-0.559912,-0.585849,-0.238645,0.0562035,0.0765968,-0.0225296,0.0817088,0.406216,0.0105445,0.0379778,0.0270416,-0.0661807,0.103435,-0.0583998,-0.112334,-0.0495341,-0.173969,-0.07047,0.0238519,0.0428197,-0.132589,-0.352415,-0.385011,-0.210309,-0.358886,-0.526332,-0.434164,-0.345229,-0.236188,-0.567242,-0.581636,-0.597891,-0.321773,-0.36856,-0.567036,-0.272577,-0.226039,-0.379586,-0.152503,-0.713046,-0.632583,-0.475422,-0.338704,-0.10973,-0.0992316,0.0894924,-0.0215401,-0.172528,-0.0164691,0.0662355,-0.00643935,-0.166901,-0.368301,0.0571879,0.0180627,-0.104901,-0.402216,-0.032123,0.0190277,0.126236,-0.0689497,-0.302531,0.338652,0.0859645,0.161204,-0.111047,0.0833706,0.205196,-0.0400495,-0.0360341,-0.191471,-0.239556,-0.19909,-0.159616,-0.412956,-0.29289,-0.274005,-0.388091,-0.193049,-0.728697,-0.419574,0.0806284,-0.0606515,-0.380401,-0.524283,-0.326825,-0.17278,-0.109176,-0.410585,-0.464916,-0.33474,-0.430849,-0.132927,0.051591,0.166277,0.187565,-0.0527138,-0.432487,0.142602,0.249883,0.0659234,-0.26452,-0.295358,0.0956841,0.209513,0.110685,-0.159288,-0.109596,0.184894,0.21807,-0.0163239,0.0573578,0.150026,0.0222607,0.0122196,-0.196558,-0.230045,-0.277491,-0.0745379,-0.0267029,0.120744,-0.042497,-0.310825,-0.0486511,0.0857749,0.0443467,-0.28586,-0.425004,0.106948,0.117176,-0.049077,-0.0525838,0.00975544,0.00579304,-0.0537093,0.0526212,-0.0129122,0.392536,-0.122025,-0.0512471,-0.0300627,0.0153913,0.0362329,-0.0143379,0.0774627,0.296088,0.175574,-0.198813,0.288159,0.195035,0.208048,-0.0458394,-0.416468,0.0820884,0.284017,-0.100331,-0.12893,-0.157509,0.276372,0.0152866,0.156166,0.0555881,0.145973,0.11162,0.0618176,0.109424,-0.059446,-0.163165,0.125628,0.118475,0.227593,0.252241,-0.0981871,0.0680161,0.200747,0.264582,-0.0629669,-0.377727,0.0640805,0.158396,0.055523,-0.0923602,0.0295707,0.0738034,-0.049885,-0.0812319,-0.28201,-0.260018,0.0540373,-0.274348,-0.310544,-0.309643,-0.336542,-0.0469638,0.112766,-0.0275214,-0.210029,-0.497275,-0.0201087,0.0881092,-0.173859,-0.386819,-0.456827,0.0364234,0.0478255,-0.274578,-0.193005,-0.0888098,-0.00276882,-0.152107,0.061609,0.174858,0.0359596,-0.0614869,-0.268106,-0.304288,-0.578882,-0.378912,0.0474257,0.117368,0.0406569,0.0119479,0.103387,0.193305,0.167357,0.0901038,-0.0200182,0.126331,0.0528469,0.0561921,-0.0244252,-0.0886983,0.0978471,-0.128253,-0.0439775,-0.19906,-0.245287,0.00854852,-0.125759,-0.164182,-0.216548,-0.294788,-0.368745,-0.0329781,0.0400072,0.048644,-0.17864,-0.128132,-0.0484063,0.0546865,0.0406702,-0.183794,-0.153973,-0.202878,0.240353,0.0832872,0.0276417,0.123836,0.0768591,0.0446258,-0.0227437,-0.271147,0.0393752,0.038557,0.120787,-0.108837,-0.425633,-0.125843,0.0999783,0.23685,0.134822,-0.0788133,0.0684076,0.00842698,0.194642,-0.00629943,0.0110562,0.0960543,0.0219961,-0.0459637,-0.229184,0.00511862,-0.065516,-0.184653,-0.297943,-0.190217,-0.576136,-0.00547755,-0.248309,-0.594619,-0.572139,-0.255786,-0.021872,0.0700489,0.014459,-0.0600692,-0.0930186,-0.0947695,0.0954904,0.23025,0.098356,-0.0526858,-0.018725,0.075322,-0.140016,-0.321445,-0.0286867,0.0923977,-0.0821048,-0.0283319,-0.18292,-0.364741,0.0630075,0.0398262,0.00255283,-0.101902,-0.17084,-0.197397,-0.15697,0.1148,0.126594,0.177848,-0.04907,-0.0209834,0.159202,0.0450973,0.163569,0.343477,0.0658918,0.0305779,0.172213,-0.217426,9.5183e-05,-0.24291,0.175839,-0.189436,-0.168002,-0.321219,-0.244737,-0.0938587,-0.385973,-0.40362,-0.302622,-0.170021,-0.134213,-0.00560549,0.263089,0.152541,-0.0782082,0.0960281,0.00691768,0.0971904,0.168287,0.0220796,0.150823,0.111287,-0.0708477,0.0455697,0.107991,0.0638133,-0.0779377,-0.407543,-0.385779,0.0566094,-0.164805,-0.289106,-0.381937,-0.434124,-0.105177,0.0648749,-0.157374,0.232699,0.208335,-0.154443,0.0606733,0.0493097,0.102857,0.151716,-0.0422164,0.227321,0.0740485,0.0510904,0.0774907,0.110767,0.0773207,0.0304728,-0.105286,-0.267878,0.105824,-0.163377,-0.227459,-0.364164,-0.517847,-0.121766,0.140725,0.147172,-0.176263,0.00315249,-0.086742,-0.0420605,-0.09323,-0.222705,0.176155,-0.167035,-0.232958,-0.172985,-0.313591,-0.0450665,-0.0647327,-0.372729,-0.330957,0.0140795,0.0254043,-0.350771,-0.690825,-0.355509,-0.446749,-0.128846,-0.115889,0.118307,0.331913,0.0150443,0.160795,0.304601,0.0906808,0.179247,-0.020867,0.0801451,-0.0940738,0.0244849,-0.0566805,0.0354899,0.0312202,-0.21315,0.0403269,-0.0824094,-0.326402,-0.235962,-0.345693,-0.41282,-0.498964,-0.176004,-0.447926,0.0400136,0.0211292,-0.11089,-0.243649,-0.479485,0.0660554,0.0273578,0.00902866,-0.203282,-0.0907804,-0.093492,-0.0431154,-0.123752,-0.100389,0.0673928,-0.0181147,0.035758,0.0267079,-0.364325,0.0926407,0.112106,-0.035285,-0.323614,-0.579519,-0.386346,0.173352,0.246875,0.0724475,0.124854,0.0320645,0.176426,0.358386,0.0179696,0.0628755,0.2195,0.151958,0.113213,0.100403,0.126363,-0.108798,-0.0956863,-0.0740476,-0.124337,-0.185956,-0.141239,-0.17432,-0.506212,-0.0968755,-0.289154,-0.163914,-0.049134,-0.0629208,-0.146422,-0.414356,-0.403842,-0.15729,-0.284211,-0.275805,-0.181464,-0.0972305,-0.174878,-0.0210976,-0.256837,-0.537771,-0.0653563,0.02247,0.0255598,-0.170651,-0.512979,-0.338375,0.0739506,-0.197424,-0.629452,-0.32407,-0.0329042,-0.0419132,0.0410819,-0.0237735,0.0183656,0.124694,0.111849,0.143697,0.139209,-0.1761,0.128711,0.0391687,0.114748,-0.160743,-0.13422,0.021445,0.00371973,0.0644365,-0.0964638,-0.0919534,0.0627869,-0.0120444,-0.103215,-0.141171,-0.445272,-0.396268,0.0732183,-0.0345148,-0.0693825,-0.337415,-0.253665,-0.0199055,-0.238633,-0.0979113,-0.314941,-0.096747,-0.241985,-0.0820315,-0.141942,-0.310968,-0.0397371,0.0591536,0.0792641,0.0849942,-0.516413,-0.284446,0.0952671,-0.02269,-0.338962,-0.573601,-0.246007,0.0355737,0.0444855,-0.0457224,-0.15787,0.24889,-0.185465,0.0716798,0.0123293,-0.231875,0.176375,0.009047,0.204016,0.0951712,-0.22516,-0.0051229,0.0906509,0.153234,-0.0739411,-0.295623,-0.342704,0.0569621,0.0638972,-0.347228,-0.352199,-0.449636,-0.0679253,0.0953811,0.0740676,-0.0745807,0.0244448,-0.107668,0.102592,0.210306,-0.149366,0.136205,0.111945,0.158203,0.0553458,-0.348793,0.0548444,-0.145365,0.0405462,-0.183896,-0.535716,-0.446488,-0.174265,-0.217342,-0.594128,-0.624822,-0.514093,-0.320185,-0.144173,-0.173774,-0.0209551,-0.0863787,-0.110341,0.0110138,-0.0335713,0.117383,0.0326954,-0.13997,-0.02292,0.0861051,0.0693085,0.109011,-0.0381994,0.071654,0.0792773,-0.0545762,0.0654128,-0.185802,-0.0616988,0.107026,-0.0854341,-0.0179246,-0.0300673,-0.0819552,-0.0912725,-0.194677,-0.0722856,-0.0116592,0.0134056,-0.0917682,-0.301041,-0.0986608,-0.176513,-0.111302,-0.0595439,-0.125586,-0.00462149,-0.133473,0.0626688,-0.097575,-0.145243,0.0282644,0.0913166,-0.0867709,-0.175567,-0.172613,-0.0313349,-0.106566,0.0195592,-0.360053,-0.105601,-0.148136,-0.145056,0.00127505,-0.102792,0.110024,-0.0418962,-0.231469,0.0462013,0.0561079,-0.0365588,0.08926,-0.208975,0.0794336,0.0372756,-0.108817,0.101273,-0.201314,-0.167674,0.0578378,0.0118134,-0.191763,-0.188622,-0.259009,-0.10749,0.0622561,-0.333585,0.00241682,-0.0554062,0.0692284,0.051913,-0.248623,-0.101482,-0.170728,-0.0471779,0.0371614,0.0196546,-0.134163,-0.115757,0.0134984,-0.0478564,0.0106522,-0.158802,-0.154643,-0.023292,-0.10458,-0.0295741,0.0831195,-0.1433,-0.272498,-0.404409,0.0129182,0.106019,-0.186332,-0.265803,-0.254469,0.140022,-0.251757,0.159298,0.0319248,-0.226801,0.0822764,-0.224156,0.0672321,0.00255457,-0.232365,0.151176,-0.0757779,0.0681807,-0.0165515,-0.0811416,0.0226256,-0.349046,-0.087171,-0.167989,0.122747,0.0810724,-0.273355,-0.195462,0.122724,0.072223,0.295199,-0.26565,0.0680484,0.149507,-0.107299,0.0709911,-0.125223,-0.060753,-0.111559,-0.00590802,0.223032,-0.100254,-0.0137182,-0.447888,-0.165307,-0.210634,-0.274603,-0.348717,-0.0868135,-0.0895575,0.00208538,-0.283535,0.104007,0.010515,0.123687,0.0269965,-0.163621,0.221084,0.0201081,0.00335113,0.105421,-0.0998801,0.0448663,-0.229624,-0.0437519,0.209257,-0.174297,-0.0473988,-0.225632,-0.158018,-0.0188517,0.0276991,-0.024238,0.0480627,-0.0850727,-0.184696,-0.0394187,0.014478,-0.257222,-0.312426,-0.17539,-0.0902244,0.114189,-0.0488065,-0.25795,-0.126811,-0.0611341,0.0288276,-0.0141626,-0.0260466,-0.199831,-0.125377,-0.122149,-0.0222462,0.0376153,-0.123585,-0.050239,-0.220797,-0.48583,-0.0979746,0.0845492,-0.154918,-0.157464,-0.221053,0.0998517,0.106215,-0.149117,0.0701212,-0.157419,0.0147145,0.133705,-0.167594,0.0355792,0.113915,0.0388982,0.116338,-0.152408,0.10717,-0.0107847,-0.0602177,-0.0120879,-0.179716,-0.142461,-0.0160627,-0.303974,-0.18525,0.0347626,-0.0265287,0.0555632,0.0198279,-0.141972,-0.153675,-0.177092,-0.120739,-0.101045,-0.101259,0.0603852,-0.00327262,-0.00263717,-0.179377,-0.0396723,0.0612479,0.0453661,0.00575811,-0.0417928,-0.0591685,-0.348572,-0.202671,-0.125016,-0.0795798,0.0141081,-0.485864,-0.123455,0.12923,0.132201,0.197136,0.129328,-0.00638769,0.113315,0.191029,0.0612196,-0.17865,0.0208502,0.540508,0.013147,0.124713,-0.17319,0.0457834,0.08018,-0.00919219,0.0670519,-0.0676694,0.0428025,0.144162,0.01963,-0.0636644,0.15732,0.107714,0.014019,-0.0450472,-0.13634,-0.259085,-0.17577,-0.0566618,-0.0562366,-0.118245,-0.0942461,0.115223,0.0864045,-0.0678737,-0.0788131,0.0277495,-0.0104643,0.0683334,0.0818094,-0.167241,-0.213274,-0.386823,-0.0355651,-0.097476,0.136431,0.0472292,0.0809618,0.076825,0.0888519,0.0787277,-0.195874,-0.0984087,0.0351795,0.190766,0.209345,-0.134222,-0.0181054,-0.041041,0.0131593,0.112648,-0.0582474,0.0147794,-0.226843,0.0181011,0.0483955,-0.0502619,0.058355,0.178178,0.103325,0.0898905,0.119512,0.0175736,0.173104,0.0266807,-0.0112892,-0.187012,-0.143016,0.0904722,-0.018445,-0.0606612,-0.0180836,0.0520568,0.0687669,0.0365578,0.0436244,-0.106463,0.0604774,0.0291267,0.133835,-0.0445129,0.0528393,-0.223138,-0.17426,-0.173293,0.135823,-0.25186,-0.00418731,-0.130712,-0.0881755,0.146892,-0.122049,0.102928,0.00601022,-0.114372,0.124633,0.068391,-0.000740942,-0.000920562,-0.0255408,0.03274,0.0517261,-0.027319,-0.0579747,-0.0951265,-0.0276053,-0.13904,-0.0700148,-0.146688,0.0911719,0.00628963,-0.151652,0.0306165,-0.0518691,-0.106054,0.0513057,-0.17244,0.177273,-0.100322,-0.104191,0.117003,-0.0829349,0.0585542,0.000813996,-0.00229447,0.137266,-0.196718,0.0715794,0.0140645,-0.246857,-0.0544161,-0.155606,-0.298749,-0.578624,-0.513736,-0.531669,-0.187565,-0.445007,-0.262988,-0.431943,-0.637321,0.0510557,-0.150662,-0.224416,-0.095017,-0.417541,0.0663907,-0.00664949,0.00626287,-0.0560494,0.0695219,0.0920141,0.0304114,0.0181362,0.0548867,0.0319896,0.0175103,-0.0185286,-0.225931,-0.308168,-0.580233,-0.108772,-0.118203,-0.0391051,-0.318361,-0.48017,-0.268158,-0.19064,-0.0647868,-0.121135,-0.19853,-0.0702141,-0.0269715,0.06022,-0.0353467,-0.123334,-0.0467207,0.053577,0.0184136,-0.0247884,0.0557771,-0.421225,-0.380353,-0.594167,-0.276444,-0.457851,-0.361898,-0.052338,-0.357384,-0.292147,-0.579757,0.109161,0.0848345,0.0199627,0.130666,0.163129,0.108672,0.00961672,0.0343726,0.0411982,0.182697,0.047851,-0.0287505,0.0733017,-0.0733138,0.186791,-0.147102,-0.29573,-0.427734,-0.51193,-0.476356,-0.375695,-0.386269,-0.387972,-0.315636,-0.435929,-0.155804,-0.174793,-0.189788,-0.297263,-0.436089,0.0968972,0.165957,-0.021428,-0.101364,0.0687744,0.11661,-0.0310773,0.132953,0.0423793,0.153817,0.0198713,-0.0941973,-0.165258,-0.505201,-0.639058,0.00774177,-0.0174655,-0.309693,-0.288734,-0.307606,0.0405013,0.0285581,-0.00710069,0.00264137,-0.0830427,-0.0214744,0.0179175,0.00548452,0.0812335,0.0134354,0.0010117,-0.0735788,0.0319543,-0.0496808,-0.163848,0.143116,-0.0170827,-0.188335,-0.370814,-0.364525,0.0662216,-0.275273,-0.0616413,-0.264228,-0.355768,-0.0266583,-0.126175,-0.0999811,0.0493451,-0.162671,-0.0690041,-0.0897002,-0.034111,0.0390551,-0.130594,0.0469733,-0.00662875,-0.0253432,-0.0173769,-0.0654312,0.0544367,0.0421582,-0.31255,-0.285086,-0.45009,0.0664967,-0.206611,-0.306428,-0.246262,-0.262248,-0.0171728,-0.187803,-0.135358,-0.0433693,-0.256833,-0.0466661,-0.0575645,-0.0966283,0.0166016,-0.0925608,0.0308982,-0.0312597,-0.0898242,0.0298001,-0.0716842,-0.644701,-0.22554,-0.124237,-0.17906,-0.129592,0.0659655,0.155292,0.284059,0.042188,0.122367,0.199197,0.100988,0.0441874,0.0567504,0.0532754,0.197152,0.140601,0.158694,-0.0861396,0.233104,0.271961,0.124355,0.124932,0.275411,-0.00928297,-0.0679893,-0.23664,-0.623805,-0.6444,-0.645945,-0.0937132,-0.00450679,-0.443723,-0.203113,-0.33877,-0.0066048,-0.00590303,0.0886125,0.0875348,0.11185,-0.0763354,0.0888223,0.0609811,0.127268,0.124985,0.0874262,-0.0387212,-0.00554196,0.197598,-0.0273305,-0.0361851,-0.180561,-0.283136,-0.302507,-0.455939,-0.405024,-0.325129,-0.43368,-0.278976,-0.586152,0.0549521,-0.146791,2.68405e-05,-0.125942,-0.15197,0.106982,-0.0190257,0.0417236,-0.0359723,0.0615929,0.0831555,0.0530107,-0.0153844,0.178183,0.119913,-0.0492314,-0.465769,-0.417464,-0.329123,-0.631466,-0.267762,-0.445771,-0.282145,-0.103456,-0.268794,-0.0923368,-0.16233,0.0400141,-0.339557,-0.253267,0.108287,0.0276224,-0.0361424,0.0510259,0.109585,0.00145859,0.0559439,0.141922,0.0122027,0.0295356,-0.141385,-0.258256,-0.450139,-0.391611,-0.348917,-0.261855,-0.398272,-0.245221,-0.183839,-0.414714,0.22688,-0.0409552,-0.00213318,0.0812977,-0.0298038,0.0718588,0.13189,0.0012871,-0.0212331,-0.0153241,0.2153,-0.0477336,0.106285,-0.130608,0.147689,0.0459883,-0.113321,-0.39348,-0.416093,-0.51326,-0.252814,-0.155483,-0.0545632,-0.306862,-0.163227,-0.0201374,0.0211221,-0.137557,-0.0892121,-0.219138,0.150509,0.156903,0.0346715,0.0634961,-0.015231,0.0872768,0.152806,0.124117,0.129672,0.0962336,-0.0847007,-0.10122,-0.426525,-0.34744,-0.391443,-0.148028,-0.392022,-0.312226,-0.442416,-0.65423,0.0205436,0.210345,0.150902,0.119161,-0.0975766,0.175184,0.0115888,0.130717,-0.0417366,0.0688881,0.15616,0.0836374,0.103185,0.103946,0.0419663,-0.00697162,0.0135935,-0.415639,-0.50103,-0.567005,-0.0126732,-0.0641263,-0.181538,-0.164361,-0.240894,0.00498735,-0.130141,-0.0200161,0.0440804,-0.0923031,-0.0815367,-0.0113788,-0.0121167,0.139535,0.0415027,-0.00746158,-0.00830086,0.0611305,-0.0146117,0.00624447,-0.125264,-0.371905,-0.477803,-0.860139,-0.420253,-0.0715732,-0.193947,-0.184393,-0.208148,-0.367404,0.0708566,0.115762,-0.00137491,0.129542,-0.0809018,0.152813,0.0135123,0.144542,0.116052,0.038331,0.108761,0.145687,0.0601771,0.142057,0.171832,-0.42922,0.0207075,-0.0548817,0.0365004,0.0535066,-0.46844,-0.39377,-0.142991,-0.0264145,-0.120619,-0.387806,-0.19059,0.0871017,0.147123,-0.149711,0.115548,0.0431235,0.235625,0.319967,0.0246391,0.0984133,-0.0483253,-0.00178748,0.26521,0.121164,-0.160952,-0.0250232,-0.0611681,0.043665,-0.032006,0.0264809,-0.0196122,0.0108428,-0.164578,-0.300014,-0.101229,-0.0423228,-0.191234,0.162541,-0.0771431,0.0217083,-0.0559713,0.132369,0.0473252,0.0320576,-0.0421155,-0.0858994,-0.0386805,-0.0200176,-0.0470452,-0.0424428,-0.306437,-0.304467,-0.304766,-0.189619,-0.229772,-0.171451,-0.147885,-0.40269,-0.448609,-0.243772,-0.198168,-0.243493,-0.177729,-0.0699821,0.0289455,-0.0527958,0.0392139,0.0208221,0.141861,-0.0344229,0.174927,0.0843234,0.142173,0.146657,-0.307429,-0.41498,-0.0759393,0.0465638,-0.0481487,-0.0948053,-0.234131,0.0150495,0.0203048,-0.202074,-0.380462,-0.173709,-0.166605,-0.0565061,0.02671,0.0683188,-0.073244,-0.153959,0.151314,0.258257,0.0152319,0.189476,0.0431472,0.111551,0.220153,-0.449426,-0.436054,-0.70114,-0.516755,-0.457585,-0.504131,-0.556233,-0.622632,-0.358457,-0.210696,-0.153121,-0.00174468,-0.357415,-0.107904,-0.252338,-0.153519,-0.101406,0.105571,-0.0529268,-0.022514,-0.0898709,-0.0691884,0.0670245,-0.000205104,0.0531465,-0.237015,-0.392812,-0.17699,-0.264984,-0.109736,-0.261546,-0.273152,-0.28066,-0.193672,-0.140888,-0.284798,-0.187455,-0.0877451,0.0427032,-0.0494453,-0.0314921,-0.145016,-0.153602,0.0192749,-0.017453,-0.0338502,-0.0587825,-0.198458,-0.0957029,-0.034305,-0.286239,-0.277932,-0.403166,-0.268234,-0.0222027,-0.185523,-0.265292,-0.428166,-0.309365,-0.117096,-0.216875,-0.326654,-0.116433,-0.0906928,-0.033271,-0.0729545,-0.109021,-0.0427346,0.0567395,-0.0682756,-0.0249365,0.0241333,-0.220966,-0.0897314,-0.0269375,-0.237664,-0.321784,-0.349946,-0.318558,-0.273472,-0.137951,-0.332024,-0.166919,0.069841,-0.0650794,-0.172457,-0.0828479,-0.00289321,0.0763602,0.0903126,0.0449027,-0.0947394,-0.0316786,0.423811,0.146825,0.131749,-0.0317392,0.0740132,0.00282509,0.147581,-0.569549,-0.490708,-0.634795,-0.79235,-0.211077,-0.565023,-0.742781,-0.638953,-0.385383,-0.231836,-0.161224,-0.160534,-0.225072,-0.0190923,-0.234012,-0.103243,-0.068088,-0.0646989,0.0302457,0.023664,0.0328969,0.0604022,0.0188021,0.0823469,0.0535451,-0.473195,-0.212828,0.0206818,-0.0243287,-0.0403923,-0.156759,-0.241608,0.165017,0.206281,-0.0982167,-0.0041981,0.0293757,-0.113035,0.127292,0.18631,0.0439954,-0.0183531,0.0759214,0.250574,0.139429,-0.0153356,0.0172159,0.0461691,0.0137949,0.0624205,-0.368066,-0.608675,-0.38947,-0.286006,0.0128233,-0.451757,-0.411193,-0.305958,-0.253592,-0.0452272,-0.239348,-0.132987,-0.251699,-0.22947,-0.383568,0.159904,-0.131968,-0.0892295,0.149766,0.137971,0.18034,-0.100237,-0.0351854,0.284244,0.132895,-0.217447,-0.0570385,-0.0735286,0.152567,-0.0542148,-0.085839,-0.181789,-0.33723,-0.196231,-0.2076,-0.00137386,-0.0572948,-0.0626459,0.100262,0.263627,-0.00883388,0.0051677,0.17356,0.0940752,0.105391,0.053666,0.0725959,-0.176465,0.172614,-0.0327483,-0.290611,-0.277481,0.151856,0.134473,0.110177,-0.406537,0.0238021,0.00757453,0.0148517,-0.0516101,-0.0055526,-0.0649839,0.0821162,-0.149168,-0.0839818,-0.0620963,0.0485292,0.1127,0.344374,0.0529234,0.136163,0.0220944,0.14316,0.172911,0.15819,-0.164335,-0.200766,-0.0279905,0.0466846,0.327474,-0.0468234,-0.133389,-0.173421,-0.196774,-0.0714784,-0.0346866,-0.167586,-0.079405,0.075864,0.103916,0.0173594,0.280015,-0.0636716,0.101754,0.198632,-0.0312282,-0.0790875,0.00888024,-0.0645682,0.0269037,-0.188572,-0.10053,-0.428968,-0.332594,-0.214745,-0.144934,-0.147618,-0.440389,-0.341309,-0.092345,-0.0248501,-0.0708253,-0.257114,-0.0261576,-0.0296117,-0.106305,-0.0964687,0.100168,-0.0970077,0.0225919,-0.174665,-0.0258961,-0.0224065,-0.101238,-0.0477872,-0.578275,-0.54613,-0.256888,0.121368,-0.211024,-0.444419,-0.541841,-0.392836,-0.22544,-0.575299,-0.0935465,0.0221762,0.0961691,0.230118,0.168529,0.086773,0.0476124,0.147804,0.0854833,0.164367,0.112077,0.115317,0.185862,-0.0122336,0.0104166,0.120412,0.126534,-0.0227089,0.0511545,0.0286977,0.109288,-0.0249752,-0.026379,-0.0268156,-0.0989578,-0.372949,-0.126786,-0.224389,-0.111245,-0.0313596,0.0645297,0.174844,0.00459096,0.0533875,0.135833,0.0100709,0.121393,0.0241671,0.169128,0.0386046,0.054955,-0.011452,0.0740278,-0.00555518,0.134035,-0.039474,-0.100946,-0.00157178,-0.084264,0.10733,-0.210202,0.0924385,-0.0583324,-0.0825593,0.217742,0.095686,0.296873,0.118678,0.0639361,0.291699,0.233477,0.129974,0.160449,0.00712447,-0.0150444,-0.026842,-0.378726,-0.119673,0.0483991,0.0896266,-0.325989,-0.456046,-0.475002,-0.472998,-0.42927,-0.272152,-0.269664,-0.336168,-0.13714,-0.261421,-0.181137,-0.126597,-0.128312,-0.200601,-0.209455,-0.175101,-0.282789,-0.426455,-0.14967,0.00376229,0.0524823,0.0987597,0.0892783,0.00405297,0.029981,0.25929,0.0380025,0.00540927,-0.0561694,-0.0792111,-0.170039,-0.0272919,0.0399827,-0.0422594,-0.239682,0.0564906,0.255705,0.192437,0.191964,0.0808024,0.0298615,0.333049,0.0205696,0.048126,0.13797,-0.00586078,-0.130182,-0.367312,-0.223981,0.0324938,-0.123895,-0.532478,-0.554967,-0.613788,-0.299504,-0.110736,-0.504635,-0.547202,-0.5162,-0.505525,-0.224799,-0.0983426,-0.153244,-0.427331,-0.395674,-0.21729,-0.311152,-0.196422,-0.323757,-0.383165,-0.196286,-0.0350727,-0.00741764,-0.0529795,-0.195129,-0.372405,-0.439694,-0.201532,-0.133079,-0.0662471,-0.4996,-0.325292,-0.286873,-0.181552,-0.0797358,-0.124802,0.0251143,-0.406274,-0.0187356,-0.134708,0.115236,-0.121777,-0.442198,-0.106819,-0.108255,-0.159926,-0.132032,-0.10283,-0.0378093,-0.225028,-0.418495,-0.390484,-0.224216,-0.177212,-0.245187,-0.630472,-0.245979,-0.229951,-0.377384,-0.163393,-0.184166,-0.027219,-0.340417,-0.150156,-0.128167,0.034332,0.132022,-0.387643,-0.139604,-0.219847,0.0789561,0.0428955,0.000626077,-0.143579,-0.0325658,-0.140331,0.100005,-0.0818027,0.0206446,-0.139848,-0.0746165,0.0536245,0.0907686,-0.0292541,-0.195357,0.0760827,0.0645076,-0.00560365,-0.150197,-0.0639273,-0.0309271,-0.0307144,-0.0322949,-0.0710924,0.287749,-0.0633473,-0.0274375,-0.148321,0.065029,0.00638442,-0.431189,-0.709531,-0.657931,-0.415101,-0.235734,-0.383236,-0.276138,-0.583433,-0.394701,-0.468973,-0.259215,-0.20538,-0.276929,-0.423264,-0.219257,-0.214653,-0.521092,-0.407643,-0.526779,-0.233524,0.0155333,0.0432327,0.0341002,0.177513,-0.0618472,-0.0383664,0.0943596,0.112186,-0.0681457,-0.084055,-0.147479,0.0692596,0.201084,-0.0157642,0.203128,0.00113009,0.0181934,0.205149,0.181429,0.0731868,0.245739,-0.0777604,0.155726,-0.0298848,0.0645951,0.0572151,-0.0105305,0.0379308,0.0423617,-0.00807695,-0.358571,-0.540442,-0.182298,-0.0174286,-0.0896375,-0.432658,-0.578804,-0.145557,-0.184568,-0.414542,-0.299904,-0.306898,-0.132078,-0.158465,-0.337652,-0.158591,-0.475637,-0.372145,-0.224815,-0.159558,0.0717447,0.182349,0.145447,-0.0625869,0.40256,0.201636,-0.149194,-0.104541,0.071472,-0.0849939,0.0439446,0.0855318,-0.0359736,-0.0507601,0.0720327,0.113701,-0.0194772,0.0821418,0.0123967,0.00218299,0.159054,0.0115236,0.124188,0.157541,0.112418,-0.0453419,0.121771,0.0915363,0.181403,0.109928,0.0280495,-0.0283167,-0.12025,-0.00384242,0.0483525,-0.187075,-0.0938169,-0.144336,0.00595274,-0.22844,-0.111518,0.114631,0.019104,0.0142136,0.0504855,0.100805,0.251729,0.13104,0.0744644,0.118905,0.0200199,0.0139269,0.230009,0.173005,0.311104,0.014193,0.117113,-0.153572,0.0615171,0.142628,0.0706331,-0.157206,-0.0265928,0.0829212,0.0902623,0.246882,0.159418,-0.0890845,-0.0183854,0.0298217,0.0440972,0.198472,0.00521341,-0.0159359,0.167014,-0.101407,-0.0617328,-0.1596,-0.125416,-0.0924994,-0.221055,-0.294599,-0.39225,-0.0875974,-0.0345128,-0.133418,-0.0378346,-0.16269,-0.0591754,-0.0273167,0.0323979,0.229944,-0.0171336,-0.185982,-0.119675,0.0342564,0.101979,-0.201552,-0.298841,-0.128025,0.0883442,0.0819486,0.180564,0.0727959,0.0944163,-0.149466,-0.189524,-0.329079,-0.342598,-0.258142,-0.159128,-0.0107232,-0.131443,-0.047106,0.011205,0.0422632,0.088878,0.0884821,-0.0175339,0.0250838,0.0111538,0.00731955,-0.117593,0.0249141,0.128415,0.0709008,0.139636,-0.0266417,-0.00899131,-0.00407586,-0.275328,-0.140294,-0.0846199,-0.0954647,-0.528509,-0.0460393,-0.224886,-0.153523,-0.368471,-0.267266,0.263031,0.0526598,-0.0193202,-0.243844,-0.468434,0.0613981,-0.00290201,-0.0449641,0.014008,-0.320853,0.129637,0.0105591,0.177322,0.211955,0.168729,-0.0136275,0.0308933,0.00982999,-0.140119,-0.395786,-0.233487,-0.121082,-0.180006,-0.285794,-0.136193,-0.109516,-0.285112,-0.384225,-0.164852,-0.089658,-0.0105874,-0.0425792,-0.162821,-0.0621595,0.0273037,-0.291449,-0.184774,-0.325616,-0.109362,-0.141327,-0.543544,-0.466805,-0.16102,-0.0545454,-0.203368,0.0288088,-0.0303988,0.00912087,-0.0569809,0.046003,0.118022,0.22774,0.180816,0.00701901,-0.198051,0.0740243,0.0951844,0.272893,0.104374,0.0241782,0.00660346,0.169408,-0.00514864,-0.0348269,0.0951849,-0.128443,0.0580408,-0.0437056,-0.189524,-0.29436,-0.131757,-0.186518,-0.100271,-0.351967,-0.127679,0.140642,0.227526,0.138359,-0.375228,-0.445051,0.115564,0.0556283,0.0153681,-0.205023,-0.291732,-0.057836,-0.255114,-0.399832,-0.506229,-0.507328,-0.191465,-0.442261,-0.4775,-0.606805,-0.248475,-0.0551896,-0.0902619,-0.159981,-0.275661,-0.484277,0.147885,0.0928406,0.135539,0.0202955,-0.107086,-0.042668,0.14861,0.0964354,0.265593,0.0639584,-0.0978566,-0.17154,-0.145041,-0.413872,-0.489018,-0.146589,-0.368795,-0.358796,-0.530979,-0.321223,-0.289863,-0.290958,-0.214176,-0.291053,-0.108744,-0.0500281,-0.27219,0.0183355,0.00216069,-0.13277,0.0430478,0.0528367,0.148668,0.0480486,-0.123966,-0.125936,-0.129482,-0.0502984,-0.402719,-0.365795,-0.210616,-0.240868,-0.116092,-0.491094,-0.351956,-0.166273,-0.21355,-0.0837583,-0.406884,-0.224319,-0.0174219,-0.0987306,-0.0285317,-0.0679551,-0.0508876,0.0223611,0.0135089,0.218823,-0.0106123,-0.067033,-0.192095,-0.0145958,-0.140839,-0.0628446,-0.194193,0.0323435,-0.284567,-0.282667,-0.201696,-0.083643,0.204183,0.161971,0.257308,0.0394579,-0.129219,0.170764,0.0974854,0.209413,-0.0408047,-0.0783652,-0.0490972,0.186907,0.0788931,0.0455079,-0.0221986,-0.272383,-0.310493,-0.247358,-0.206857,-0.348558,-0.480534,-0.763517,-0.649206,-0.536615,-0.489848,-0.107953,0.0459468,-0.157393,-0.360469,-0.306811,0.0746561,0.202607,0.0444858,0.113333,0.00307566,0.0208438,0.13469,-0.00818822,0.152518,-0.0687541,0.128472,0.045229,0.0506385,0.162558,-0.0195955,-0.131724,0.00825861,0.0211163,0.043461,-0.316727,-0.024603,-0.0159261,-0.364258,-0.492057,-0.419718,0.143063,-0.0520686,-0.0692166,-0.223729,-0.163079,0.00791079,-0.0268918,-0.0560782,-0.0770898,-0.0879877,-0.194731,-0.0941705,-0.365321,-0.158271,-0.0389577,-0.747356,-0.528984,-0.32054,-0.154556,-0.104788,0.00730019,-0.398112,-0.0290185,-0.526652,-0.0997266,0.107745,0.0118738,0.0684028,-0.0357082,-0.156041,0.0419484,0.197245,0.0697871,0.174163,-0.0287711,0.0473231,0.158145,0.0480573,0.0771907,0.000472673,0.0487185,0.207017,0.163759,-0.260207,-0.296872,-0.00850083,-0.00365635,-0.0608143,0.0886772,-0.0923029,0.0504986,0.0206301,0.058007,0.00475669,0.0481922,-0.0119336,-0.0105627,-0.0601648,-0.0995765,0.014495,0.0818195,0.131607,0.130857,0.166487,0.077357,0.0648067,-0.00759863,-0.0488757,-0.270632,-0.346278,-0.171659,-0.0325999,-0.248675,-0.348089,-0.420354,0.0810426,0.1162,0.110003,-0.151485,-0.103504,0.0805653,0.106167,0.0329365,-0.0448956,-0.138094,0.0188854,0.0152211,0.195617,0.132641,-0.0322694,0.0409633,0.127141,0.0334929,-0.031841,-0.375069,-0.0904766,-0.00297639,-0.198619,-0.207902,-0.213018,-0.016859,0.0634153,-0.00783039,0.0558311,-0.0937443,0.0621523,-0.00750807,-0.00122473,0.000334982,0.0479821,0.0451715,-0.0101202,0.0427399,-0.148006,-0.358699,-0.00278163,-0.0864271,-0.0632739,-0.435389,-0.554135,-0.087599,-0.0175438,-0.362754,-0.234148,-0.111411,-0.0411305,-0.0365269,0.0841888,0.0334076,-0.0344625,0.0792318,0.0326867,0.226089,0.054186,0.0869278,-0.0714545,0.0509513,-0.0258645,0.00134333,-0.0658087,-0.229178,-0.332617,-0.445347,-0.446122,-0.382714,0.131464,0.177822,-0.0439278,-0.130077,-0.265542,0.172949,0.0942473,0.113007,0.0173106,-0.00951309,0.0927891,0.197929,0.144555,0.087004,-0.0405604,-0.269938,-0.00649665,-0.0185952,0.0434859,0.0580728,-0.164948,0.0458378,-0.076698,0.0364209,0.0835308,0.171747,0.159167,0.00925324,0.0326642,0.0865446,0.311511,0.095367,0.0548067,0.0411794,-0.0451093,-0.291343,-0.342556,-0.217368,-0.0524988,-0.0456028,-0.0195314,0.0180294,-0.314451,-0.477055,-0.228331,-0.0870961,0.0275652,-0.209544,-0.232251,-0.267343,0.0656304,0.13921,0.0619211,0.000740278,-0.0279369,0.0586672,0.173215,-0.0192449,-0.0651129,-0.0336013,-0.323701,-0.242189,-0.291587,-0.0794882,-0.0337513,-0.148016,-0.16301,-0.129109,0.000604671,0.293334,-0.0576985,0.132291,0.0114609,-0.0355812,0.217639,0.0264342,0.044765,-0.136611,0.206409,0.207045,-0.234743,0.101011,0.018509,0.187755,0.0283574,-0.130747,-0.405673,-0.176226,-0.0525714,0.0566164,-0.191155,0.0279786,0.0888433,0.0392262,-0.0556031,0.142589,-0.0532543,0.00792905,-0.0624036,0.195175,0.131188,0.0651103,0.0616198,0.0944641,0.0231113,0.0621149,0.174608,0.179683,-0.024619,-0.136071,-0.328823,0.0374139,-0.114997,-0.293357,-0.20569,-0.0536189,-0.185101,-0.375399,-0.00537085,0.226405,0.0186466,-0.132214,-0.187527,-0.138374,0.144758,0.0613496,-0.129953,-0.103537,0.054523,0.128772,-0.0708659,-0.216488,0.0110788,0.0152739,0.132657,0.0170467,-0.55997,-0.00379963,0.0447174,0.0687583,-0.246317,-0.34135,-0.142403,-0.0135612,-0.119126,-0.341621,-0.341005,-0.0522357,0.0561587,-0.112981,-0.214624,-0.15149,-0.199435,0.0212347,-0.081849,-0.719167,-0.271826,-0.33808,-0.0200746,-0.0181546,-0.407644,-0.325727,-0.080982,0.012337,-0.00309937,-0.222056,-0.149593,-0.150402,0.0538796,-0.0336508,-0.400446,-0.170556,-0.135547,0.0191594,-0.0449386,-0.273689,-0.0568383,-0.141777,-0.00998133,-0.0173361,-0.458123,-0.222233,-0.250138,-0.0261781,0.0134178,-0.41357,-0.289983,-0.172343,0.0521361,0.0491612,0.0437652,-0.0371912,-0.0970283,0.0247294,0.145251,0.137081,-0.0102935,0.267614,-0.0688643,0.149474,0.0673947,-0.0180004,-0.116178,-0.0322372,0.0424867,-0.321077,-0.170136,0.0714388,0.0168771,-0.0677701,-0.0874458,-0.0768974,0.0253578,-0.204068,-0.0757707,-0.290639,-0.269707,0.0139783,-0.0889149,0.20154,-0.0619369,-0.175809,-0.182181,0.0179871,-0.0172169,0.00257689,0.0374919,-0.29196,0.0601189,0.190247,-0.184838,-0.105969,-0.0719818,0.148765,0.0353824,-0.0356719,-0.186117,-0.148141,0.045748,0.0215949,0.23723,0.0466238,0.0602113,-0.0505157,-0.302783,0.221176,0.175464,-0.0819843,-0.0951557,-0.0528578,-0.0135481,0.0801505,-0.00633589,0.0891505,-0.0379925,0.0611576,0.155003,0.0154114,-0.264143,-0.0443535,-0.189826,-0.263514,-0.520773,-0.392032,-0.215096,-0.467927,-0.30145,-0.00569573,0.0138286,-0.0296599,-0.146395,-0.251152,-0.223252,-0.0943549,-0.00291298,0.0796513,-0.0230862,0.00268518,0.0592713,0.103566,-0.0717651,0.121143,0.220954,0.121256,0.0909084,-0.222202,-0.0536957,-0.0556333,0.00531537,-0.00605064,-0.141045,-0.0960533,-0.0267128,-0.172512,-0.170698,0.0651717,0.0210438,0.201858,0.00706678,0.0620574,0.0939803,-0.0190539,0.120753,0.0772042,0.02924,-0.176651,-0.112953,-0.0872503,-0.0594515,-0.0389988,-0.158575,0.0761918,0.0506448,-0.00965349,0.00461974,-0.0946803,-0.0137813,0.0478454,0.0303181,-0.0346494,-0.191656,0.0746072,-0.123847,-0.147578,-0.0639604,0.198854,0.0683558,0.237616,0.0848136,-0.0127525,0.167875,0.275385,0.212081,0.00672388,-0.0696928,-0.428075,-0.246223,-0.177625,-0.106221,-0.0388201,-0.126636,-0.0717402,-0.139928,-0.309577,-0.498062,-0.061541,0.191641,0.120857,0.117819,-0.245639,0.082447,-0.0448152,0.141766,0.134733,0.0943398,0.00293555,0.0778461,0.037069,-0.19721,-0.0224029,-0.7079,-0.102989,0.111503,0.0061204,-0.158144,-0.145572,-0.276959,-0.279937,0.000523004,-0.00601079,-0.257266,-0.255939,-0.0809811,0.0687747,-0.0616045,-0.212249,-0.0647993,-0.127209,0.0167439,-0.0491212,-0.316812,-0.446775,-0.3999,-0.0111135,0.0290574,-0.52816,-0.275635,-0.025487,-0.00169248,0.00906021,-0.259833,-0.226471,-0.169743,-0.117741,0.204908,0.166646,0.156726,0.0887898,0.200355,-0.0432162,0.115218,0.0733559,0.238149,0.0885302,0.0468829,-0.0945137,0.0802535,-0.0483923,0.0731448,0.0437297,-0.14582,-0.0659918,0.123533,-0.01374,-0.00411764,-0.24841,-0.474984,-0.33578,-0.014045,0.00922107,-0.2129,-0.404711,-0.020243,0.0749521,0.157164,-0.408686,-0.403944,-0.241826,0.139561,0.105494,-0.0390331,-0.207235,-0.341644,-0.188849,0.0132146,0.0331946,-0.183465,-0.120623,-0.39738,-0.198495,-0.0686731,-0.189999,-0.198444,0.0231303,0.129357,-0.092278,-0.0409456,0.0288146,0.149126,0.231234,0.122145,0.0153303,0.0171507,0.155102,0.139461,0.366958,-0.0223121,0.0899671,0.0329104,-0.220651,0.179265,0.16549,-0.0817479,-0.0704351,-0.441228,-0.222148,-0.46096,-0.505369,-0.196357,0.000596733,-0.451538,-0.290848,-0.28242,0.169869,0.0922211,-0.537789,-0.408862,-0.378994,-0.242866,0.00976296,-0.141851,-0.115723,-0.466295,-0.409765,-0.00346804,-0.149481,-0.305179,-0.307472,-0.557028,-0.116059,0.0501057,-0.243184,-0.455507,-0.106925,0.0484211,-0.0881641,-0.11119,-0.053297,0.146945,0.233377,-0.306508,-0.53755,-0.123758,0.0873365,0.107247,0.296927,0.0363445,-0.121556,-0.176574,0.0248512,0.153745,0.200479,-0.0151681,-0.130402,-0.21733,-0.317887,-0.555202,-0.357702,-0.0783337,-0.059726,-0.329736,-0.384617,-0.314984,0.113063,-0.0986471,-0.333741,0.00881881,-0.153547,-0.391351,-0.207502,-0.279606,-0.216796,-0.200179,-0.409222,-0.393229,-0.216694,-0.26285,-0.350758,-0.538604,-0.311012,-0.338832,-0.192278,0.107564,0.100856,0.054465,-0.0599654,-0.046158,-0.00831748,0.223253,0.0451526,0.256282,0.205562,-0.011118,-0.0511916,-0.161304,0.113425,-0.0157512,-0.1439,-0.300928,-0.191461,-0.0973672,-0.117892,-0.48112,-0.217174,-0.00982014,-0.284966,-0.340912,-0.0629514,0.145782,-0.0307368,-0.138599,0.0839166,0.0400472,0.21233,0.054337,0.0543454,0.11306,-0.0252174,0.0330238,-0.136379,0.0381311,0.0773001,-0.241624,-0.448871,-0.207524,-0.133735,-0.0534286,-0.268343,-0.275331,-0.0313558,-0.481667,-0.299411,-0.243034,-0.215843,-0.0523629,-0.293191,-0.451339,-0.480824,-0.300216,0.0190049,0.043046,-0.00899362,-0.36409,-0.184405,-0.375327,0.0940642,-0.00489864,-0.0263435,-0.0322337,-0.0438623,-0.262694,-0.186672,-0.255549,-0.175926,-0.0210364,-0.405941,-0.440799,-0.179756,0.0148349,-0.0313811,-0.498811,-0.230005,-0.0158699,-0.029249,0.160975,-0.497567,-0.220179,-0.289392,-0.134684,-0.122976,-0.368004,-0.185491,-0.288269,-0.615099,-0.198022,-0.320502,-0.43985,-0.492546,-0.506452,-0.202101,-0.248615,-0.386338,-0.273622,-0.18192,0.137382,-0.378089,-0.239511,0.00341449,0.15744,0.205956,-0.329393,-0.136112,-0.115014,0.0583398,0.18304,0.183383,0.0803681,-0.164346,-0.269275,-0.215458,0.0556659,-0.0183877,-0.147606,-0.0845747,-0.108792,-0.349917,-0.413079,-0.206813,-0.062484,-0.0483949,-0.450426,-0.246411,0.109421,0.0745876,0.0395989,-0.275268,-0.277269,-0.0998086,0.119108,0.0217095,-0.195333,-0.330075,-0.370284,-0.145814,-0.0487996,-0.335728,-0.427428,-0.367172,-0.254645,-0.0149437,-0.229878,-0.0128048,-0.00959386,0.0475004,0.128157,-0.259347,0.00224823,-0.111368,0.116909,0.120533,0.18465,-0.0567435,-0.102299,-0.0217855,0.0841967,0.239832,0.0434811,-0.160692,-0.282834,-0.196373,0.0495796,-0.0321916,0.0226383,-0.0941966,0.0528563,-0.0783421,-0.401254,-0.132032,0.101948,0.081463,-0.230751,-0.0664252,0.0492478,0.341454,0.103762,-0.112728,-0.210622,-0.132271,0.0721144,0.185985,0.124051,0.0511736,-0.235233,-0.142651,-0.0307106,-0.0476342,-0.125694,-0.130833,-0.302383,-0.292873,-0.259826,-0.231851,-0.0439628,0.0443687,0.257766,-0.220408,-0.0210707,-0.107814,0.0946448,0.228484,-0.0448108,0.0758171,-0.123906,-0.0339713,0.352845,0.294084,-0.0449026,-0.0822436,-0.205631,-0.194739,0.179017,0.00260827,-0.108386,0.0135892,-0.126554,-0.198559,-0.34133,-0.090226,0.190573,0.103037,-0.200939,0.0939644,-0.0946323,0.0501224,0.203937,0.495827,0.0233455,0.179886,-0.131483,-0.0503353,0.263265,0.0324587,0.0559983,-0.212382,-0.43214,-0.0799465,0.0533125,-0.18199,-0.503046,-0.113189,-0.288602,-0.488392,-0.192898,0.0583139,0.100495,-0.488347,-0.241293,-0.117615,0.0898135,0.204982,0.142739,0.0221652,-0.314279,-0.262948,0.0518644,-0.0229301,-0.298111,-0.361423,-0.568007,-0.260626,-0.20474,-0.366375,-0.411276,-0.233867,-0.0198235,-0.562532,-0.320438,-0.0345149,0.00911109,0.0286995,0.112333,0.0512778,-0.0396208,-0.280117,-0.197124,0.0575798,0.16281,0.128472,0.115623,0.0634396,-0.157065,0.00979876,0.0868614,0.170326,0.119176,-0.137012,0.121067,0.103178,0.0907464,-0.248611,-0.189559,-0.327673,-0.249849,-0.262126,-0.0469006,0.0163437,-0.0362495,-0.00959199,0.0696974,0.0595466,-0.0370319,-0.0293587,0.0266359,0.191784,0.10744,-0.0447517,-0.0240005,0.0696368,0.10552,0.0256088,-0.319318,-0.35371,-0.219295,-0.0857403,-0.10415,-0.409639,-0.457578,-0.304563,0.141858,0.0119203,-0.123516,-0.1225,-0.215488,-0.401955,-0.0411869,-0.23768,0.0939506,-0.0582838,0.102645,0.0485325,-0.117939,-0.118069,-0.0511234,0.0876132,0.0553777,-0.11094,0.161596,0.0343264,-0.00897469,-0.384716,-0.368961,0.0562131,0.163365,0.0960849,0.0689304,0.141943,0.0957661,0.130742,-0.0488493,-0.0445139,-0.051993,0.0475134,0.178289,0.163875,0.179112,-0.143248,-0.217512,0.225847,0.217513,0.249841,-0.31812,-0.0206063,-0.257433,-0.0483053,-0.203309,-0.161626,-0.696017,-0.72327,-0.548316,-0.0593176,-0.125228,-0.476375,-0.492167,-0.581736,-0.317446,-0.189402,0.00842481,-0.00535026,-0.0627648,-0.0730983,0.130896,0.244559,0.110376,-0.0028615,0.0805211,-0.0632022,-0.00756625,0.171923,-0.0603784,0.0546425,-0.555124,-0.629459,-0.487718,-0.187388,-0.0201169,-0.589029,-0.521509,-0.147317,0.0145106,0.0254621,-0.0781926,0.0836273,0.0322349,0.0482385,-0.219788,-0.368215,0.0334941,0.0258854,-0.0719371,-0.21337,-0.193886,-0.116582,-0.0399279,-0.0927463,0.0388367,-0.533194,-0.667119,-0.499952,-0.0901498,0.013063,-0.370001,-0.390278,-0.219219,-0.0527238,0.03175,-0.0968574,0.22459,0.159703,0.0540238,-0.129429,-0.10474,0.0952093,0.0168458,0.0509462,-0.175326,-0.0882786,-0.0333704,-0.0817902,-0.0433042,-0.0175279,0.0876624,0.0884431,-0.178888,-0.183246,-0.240199,0.11741,0.0821383,0.246736,0.0645789,0.0094353,-0.289414,-0.271432,-0.0901105,0.0129135,0.119641,-0.41259,-0.0552461,-0.224449,-0.283291,-0.0893494,-0.0203269,0.0613407,0.0498269,-0.000882727,-0.0596084,-0.451414,-0.889497,-0.602532,-0.25392,0.0246688,-0.135141,-0.235587,-0.401034,-0.508728,-0.205921,-0.186871,0.0133909,0.0388417,0.0457227,-0.0453664,-0.151063,0.170635,0.0300883,0.102814,0.00417844,0.0658412,0.23984,0.112467,0.0547824,-0.131304,-0.104927,-0.0155936,-0.0846214,0.138977,-0.0611636,0.110838,0.146644,0.0820425,0.175865,0.0207401,-0.0207523,0.124329,0.0981996,0.111183,0.126531,-0.272171,-0.0772519,-0.0715228,0.00991987,0.132924,-0.449488,-0.610236,-0.471703,-0.339746,-0.155317,-0.575357,-0.714355,-0.199879,0.00949423,-0.0100181,-0.459558,-0.356972,-0.292708,-0.398913,-0.112288,-0.170841,0.20697,0.0246771,0.0301271,0.000534308,-0.00473396,0.0104908,0.105244,0.101347,0.153176,0.0161227,0.138842,0.010216,0.0764185,-0.0489415,0.139485,0.110146,-0.0599044,-0.171588,0.111932,0.12158,0.0504553,0.122832,0.123845,0.153939,-0.0272732,-0.0319567,0.125251,0.284515,0.110883,-0.313063,-0.43254,-0.088079,-0.269336,0.0326361,-0.522594,-0.496116,-0.307399,-0.0609344,-0.00179852,-0.398735,-0.132235,-0.0550968,0.0348224,0.0634978,0.0752126,0.34576,-0.0117901,-0.0533327,0.0354933,-0.0617419,0.159158,0.130612,0.194331,0.0345923,-0.151423,0.0378306,0.122769,0.143759,0.0960972,-0.232739,-0.164795,-0.044658,-0.0232445,-0.218073,-0.10694,-0.250438,-0.143274,-0.0805737,0.19843,0.0598746,0.0117292,0.0383404,0.0662292,0.199765,-0.0558628,-0.0622082,0.152855,0.246056,0.00788967,-0.176267,-0.565961,-0.0829774,0.0554698,-0.126745,-0.425166,-0.607654,-0.522291,-0.295983,-0.0175332,-0.32754,-0.719478,-0.491183,-0.21769,-0.00190358,-0.483868,-0.836622,-0.220346,0.0637243,0.0710985,-0.0886426,0.045268,0.137099,0.136204,0.0417203,-0.0592677,0.0508708,0.0590785,-0.00158618,-0.107346,-0.24629,-0.177335,-0.090203,-0.0374281,0.0240129,-0.207483,-0.434397,-0.422833,-0.209915,-0.0611933,0.0470597,0.152441,0.137308,0.172012,-0.0953457,-0.117448,0.0197664,0.117259,0.163737,0.0381922,-0.192592,-0.0290486,0.018467,0.00534643,0.0275476,-0.0347403,0.118483,-0.0896701,0.0204887,-0.0122044,0.0220572,-0.067912,-0.00377797,-0.167193,-0.651895,0.0894286,-0.0749539,-0.0263749,0.00520945,-0.491667,0.00418738,0.0751996,-0.00794409,0.0442963,-0.16454,-0.0147578,-0.171523,-0.0407759,0.0371057,-0.144546,-0.0348272,-0.0747209,-0.0901542,0.0304325,-0.161026,-0.0945292,-0.210712,-0.129575,-0.0790078,-0.395807,-0.123628,-0.0954516,-0.0614728,-0.145189,-0.266446,-0.0772052,0.085289,-0.0875755,-0.106294,-0.305781,-0.0715796,0.0575958,-0.259446,-0.258808,-0.215154,0.0312852,0.115527,-0.333827,-0.220305,-0.0543607,0.0905034,0.0248468,0.139913,0.204252,-0.17496,0.0978398,0.0525812,-0.0370472,-0.0581314,-0.388129,0.0656199,-0.0553156,0.0744882,0.0756352,-0.0825381,0.0444722,0.0155495,-0.02182,-0.0223851,0.130117,-0.118749,0.0212525,-0.0188663,0.106996,0.0861641,-0.0226326,-0.0025988,0.0357476,-0.11819,-0.409554,0.0706682,-0.0219797,0.00142962,0.0021399,-0.0615359,0.112408,-0.0882428,-0.258038,-0.117866,-0.204115,-0.0865432,-0.199138,-0.444941,-0.568278,-0.583811,-0.0872181,-0.210134,-0.3233,-0.331021,-0.310783,0.0481179,0.0299307,0.090651,-0.0601467,-0.249331,-0.0539344,-0.021143,-0.0965901,0.0875378,0.0998456,0.294062,0.186307,0.0714384,0.134735,0.22492,0.0695759,-0.0908635,-0.0139931,0.283457,0.0906718,-0.0690344,0.108357,0.120385,-0.0277596,0.257115,-0.0436879,-0.110294,0.0234089,-0.343154,-0.529724,0.0415784,-0.0778591,-0.0058804,-0.175457,-0.288842,0.0376504,-0.15217,0.198367,0.118173,-0.188682,0.115413,0.351858,0.179779,0.060592,0.0221855,0.180379,0.101246,0.0142578,0.0861796,-0.0244683,0.0168304,0.0515025,-0.00947274,-0.122234,-0.0548325,0.0761559,0.0452821,-0.0741534,-0.102859,-0.294034,0.0672017,-0.00230786,0.301649,0.313853,0.0164799,0.139966,0.269011,0.017006,0.109965,-0.0486112,0.120002,0.14389,0.165264,-0.0162222,-0.010642,-0.00875689,0.0606867,-0.180524,-0.15315,-0.269604,-0.0141905,-0.0767904,0.00389126,-0.272814,-0.24103,0.0491162,-0.0312981,-0.182318,0.0235349,0.0471898,0.0359906,-0.110548,-0.0787349,0.00288144,0.169529,-0.0132883,0.0272944,-0.00169706,0.0473119,0.0849339,0.149242,0.14339,-0.00117661,0.0515018,-0.372864,-0.119973,0.074524,0.177441,0.17833,-0.378572,0.0863156,0.00327754,-0.0054704,0.0562571,0.125503,0.00324974,0.152548,0.13059,0.0558934,0.252976,0.0949144,-0.142929,0.0144598,0.111433,-0.0189301,-0.00560159,-0.165453,-0.23823,-0.397094,-0.718418,-0.0758484,-0.182537,-0.312548,-0.459616,-0.635669,0.0228385,-0.277531,-0.436088,-0.563587,-0.609465,-0.204852,-0.195354,-0.397327,-0.636327,-0.458068,-0.0448814,-0.0745932,-0.350825,-0.282523,-0.148229,-0.0941782,0.0101552,-0.041491,-0.264986,-0.322076,0.122716,0.138654,0.00348007,0.0170539,-0.25686,0.15051,0.165181,0.0669327,-0.0210521,-0.224446,0.153756,0.0767903,0.0675945,0.11939,-0.140924,0.129475,-0.0300234,0.0650427,0.0548096,-0.0273996,-0.0740708,-0.186919,-0.193292,-0.587141,-0.354797,0.0158347,-0.115277,-0.19979,-0.254733,-0.342489,-0.0333182,-0.215436,0.0100978,-0.331703,-0.223948,-0.00735788,-0.0980049,-0.0884117,-0.168414,0.0177263,-0.0188048,-0.0426564,-0.0525153,-0.0505751,0.00125683,-0.102376,-0.274426,0.0191411,-0.258922,-0.384968,0.054526,-0.135789,0.0475467,-0.0204562,-0.218408,0.0638039,0.0976713,-0.0132733,0.15675,-0.25846,0.0899727,0.0686741,-0.168937,0.052784,-0.124836,0.0312395,0.0834019,-0.102609,-0.0959885,-0.0266374,-0.0418702,-0.0659252,-0.12248,-0.663184,-0.463955,-0.00965193,-0.0944882,-0.248404,-0.386209,-0.475845,-0.0515277,-0.145058,-0.0963945,-0.366973,-0.427962,-0.00964853,-0.097351,-0.0468529,-0.279746,-0.0491366,0.0180601,-0.00929487,-0.0394062,-0.016714,0.0433087,0.0631434,0.0117438,-0.0795113,-0.070637,-0.372518,0.0645376,-0.00881679,0.0501042,-0.0400846,-0.368802,-0.00347016,0.13518,0.0162015,0.134639,0.0465508,0.111768,0.0221273,0.0671552,0.166971,0.0191496,0.14305,0.104301,-0.010171,0.0154975,0.0178137,-0.0362928,0.0452055,0.0161287,-0.124614,-0.570895,0.0774709,0.0439168,0.0381635,0.166076,-0.451207,-0.0123721,0.099357,-0.12128,0.0144341,-0.0522528,0.0482032,0.0575802,-0.0601288,-0.0244999,0.0939193,0.0247472,-0.0476565,-0.0157948,0.0833742,0.0967495,-0.174783,-0.0862901,-0.125433,-0.0383764,-0.122912,-0.0425765,0.126459,0.0710152,0.0279575,0.036795,0.0564999,0.0463793,-0.0600336,0.057006,-0.0722844,0.134219,-0.00621333,0.127973,-0.00403653,-0.364772,-0.0130897,-0.0910706,-0.164353,-0.0113727,-0.361832,-0.175047,-0.227889,-0.250774,-0.13753,0.0418166,0.00400283,0.111734,0.142182,0.0842347,0.157756,0.0671917,-0.0147486,0.101043,0.119436,0.0803208,-0.0837039,-0.0604641,-0.0527999,-0.0385394,-0.318057,-0.248693,-0.211311,-0.20616,-0.334379,-0.339293,-0.0463289,-0.051796,0.0757581,0.0799609,-0.107355,0.0765996,0.121487,0.207434,-0.057199,-0.0381276,0.0839143,0.0237347,-0.179439,-0.0509823,-0.089353,-0.1416,-0.039977,-0.0843935,-0.319846,-0.178621,-0.26144,-0.028314,-0.264528,-0.364562,-0.319916,-0.304403,-0.234479,-0.157148,0.0183824,-0.126478,0.0760536,0.107254,0.043442,0.115166,0.0999799,0.0700429,0.0706342,0.0605014,0.115714,-0.137742,-0.0951903,0.122616,-0.140039,-0.260869,-0.136901,-0.442119,-0.587895,-0.343676,-0.0217509,-0.406055,-0.0298764,0.0247938,0.0828805,-0.0231853,-0.109287,0.018672,0.0161886,0.0389409,-0.165912,-0.234768,0.00975934,0.0585916,-0.0370118,-0.227507,-0.0825967,0.0721436,0.0828344,0.0113656,-0.0699843,-0.259273,0.0907511,0.0152229,0.0519854,0.0657597,-0.298814,-0.0213998,-0.06525,-0.0938345,-0.0573347,0.0543119,0.0280768,-0.0179892,-0.0153686,0.0211981,-0.202482,0.101418,0.0124854,-0.108429,0.0922027,-0.108048,0.125929,0.00601257,-0.052681,-0.0140017,-0.165188,-0.0143017,0.114415,0.12946,-0.117332,-0.282956,-0.00130036,-0.0252413,0.0246173,-0.097085,0.0257115,0.101428,0.0291837,0.0312175,-0.0772819,-0.153116,0.0946776,5.55567e-05,-0.179127,-0.0134761,-0.255199,0.0875006,0.00754439,-0.0651478,0.0426651,-0.236325,0.0333318,0.0600938,0.0338212,-0.194467,-0.205148,-0.149557,0.0555059,0.246529,0.233177,0.0991804,0.105722,0.1858,0.208537,0.250019,-0.149879,-0.0905678,0.0524705,-0.0311084,-0.136435,-0.0932214,-0.394962,-0.224506,-0.129514,-0.498265,-0.207456,-0.524825,-0.299378,-0.179823,-0.178441,-0.536968,-0.00165924,-0.0868822,0.0606746,0.0050077,-0.141987,0.0213095,0.114843,0.0846557,-0.125981,-0.326078,0.146257,0.0895178,-0.0615679,0.0480503,-0.194597,0.0350968,0.138392,0.0302149,-0.153691,-0.259978,-0.0132539,0.0234849,0.0557543,-0.20759,-0.213055,-0.174988,-0.236401,-0.0712386,0.00578954,-0.10729,0.180908,0.0982487,0.0785426,0.215269,0.105966,-0.0259853,0.171199,-0.017067,0.0617515,-0.141083,-0.319176,-0.136623,-0.268981,-0.0357743,-0.339042,-0.476123,-0.415311,-0.487814,-0.401856,-0.34365,-0.120233,-0.106292,-0.104355,-0.0105737,-0.244258,0.065346,0.08457,-0.0392098,0.0674045,-0.053128,0.108785,0.0965305,0.0162891,0.0971754,-0.0469748,0.0318835,-0.00527376,-0.011237,-0.264932,0.0203553,-0.00799809,-0.00135081,0.0450507,0.0245989,-0.143178,-0.148714,-0.0643576,-0.0251918,0.0773742,0.134415,7.64782e-05,0.0917453,0.226741,0.21977,0.143387,0.0645261,-0.00424617,0.0553258,-0.00132108,-0.264897,-0.643877,-0.574167,-0.159233,-0.435063,-0.502018,-0.573841,-0.57537,-0.481646,-0.57426,-0.403861,-0.091423,-0.0913041,-0.122602,-0.0638704,-0.0651352,-0.0418319,0.0766747,0.174006,0.136261,0.15417,0.193298,-0.0219114,0.0293137,0.0321104,-0.0684552,-0.0186604,-0.0359535,-0.0142405,0.121254,-0.0519699,-0.0366206,-0.025745,-0.181028,-0.1282,-0.317721,-0.0107133,-0.00396731,0.0101065,0.0938437,-0.013465,0.0848286,0.16465,0.182745,0.183099,0.140389,-0.030738,0.0154917,0.249932,0.0778922,-0.123437,-0.310827,-0.370166,-0.329911,-0.179135,-0.489838,-0.481153,-0.39746,-0.369312,-0.634274,-0.473806,0.0718547,-0.0330156,-0.0165688,-0.0927199,0.131676,-0.0243935,0.0662896,0.0560197,0.0475516,0.134527,-0.0226891,0.107337,0.133511,-0.10478,0.0611312,0.0154924,-0.0157865,0.0681116,-0.262169,-0.200113,-0.0366941,-0.0147801,0.0375513,-0.17691,-0.305202,-0.0133181,-0.0532299,-0.00547331,0.0720154,0.0645645,0.100053,0.0246415,0.189848,0.154121,0.0100353,0.088275,0.0549754,0.114383,-0.18437,-0.169114,-0.12736,0.0506154,-0.0527743,-0.228278,-0.189118,-0.163968,-0.0115414,-0.258521,-0.304123,-0.43992,-0.358089,-0.0621341,-0.0821624,-0.00644734,-0.111107,0.0267602,-0.0727983,-0.0129945,0.0218513,-0.0762447,0.128639,-0.00625123,-0.297898,-0.0527128,-0.293599,-0.00318323,0.211379,0.0188704,-0.0695064,0.0876898,0.134561,0.158876,0.108868,0.103604,0.112902,-0.0152094,-0.0666749,-0.0429457,0.110179,-0.0682355,-0.0188404,0.0953862,0.0172282,-0.132177,0.236314,0.022854,0.132467,-0.129821,-0.34988,-0.267142,0.0550459,0.0742889,-0.141728,0.174622,-0.070956,0.261039,0.0820004,0.12805,0.0523255,0.0650225,-0.0772821,-0.155996,-0.348177,-0.35823,-0.16284,0.0646483,0.00556163,-0.326607,-0.279402,-0.672802,0.16877,-0.0859507,-0.331149,-0.227555,-0.286615,0.0268548,0.0319953,-0.132987,-0.159149,-0.125733,-0.0845019,-0.257775,-0.107219,0.0671884,0.158137,-0.113577,0.0554087,-0.101488,-0.143078,0.106759,0.0732276,-0.0243901,0.0677738,-0.0214125,-0.185263,0.156601,-0.0561635,-0.0872796,-0.102588,-0.145359,0.00679839,0.0218096,-0.039884,-0.115664,0.0458571,0.292885,0.10258,0.135653,0.202645,0.14549,0.0156227,-0.375982,-0.234823,-0.276979,-0.319302,0.000525829,-0.112173,-0.175155,-0.527858,-0.420709,-0.00499591,0.0740817,-0.114968,-0.435162,-0.447422,-0.0252487,-0.044975,-0.233137,-0.211723,-0.376621,-0.0732069,-0.525601,-0.341378,-0.0481911,-0.0902301,-0.287563,-0.280687,-0.0326926,-0.109073,-0.415657,-0.450579,-0.273684,-0.313893,-0.409535,-0.369095,-0.170548,-0.110294,-0.454142,-0.516099,-0.435063,-0.10448,-0.114307,-0.249584,-0.178137,-0.303153,-0.372358,-0.577409,-0.206892,-0.16845,-0.194549,-0.284886,-0.359758,-0.0969782,-0.0392962,-0.0983316,-0.350068,-0.287185,-0.32953,-0.403607,-0.34891,-0.129126,-0.302356,-0.485992,-0.443594,-0.328744,-0.0419208,-0.146309,-0.133566,-0.107343,-0.302367,-0.309041,-0.320304,-0.251439,-0.174666,-0.255233,0.0222079,0.265243,0.193217,-0.198889,-0.111586,0.119263,0.139999,0.0569254,-0.0960423,-0.251177,0.126397,0.0470422,0.00303148,0.0266614,0.330032,0.0934429,0.0698512,-0.0225529,-0.0158885,0.169671,0.070612,0.0203199,-0.226063,-0.118536,-0.0316415,-0.111902,-0.511492,-0.418866,-0.364838,-0.387467,0.0410489,-0.175708,-0.368587,-0.506171,-0.8458,-0.0140909,-0.0713277,-0.36251,-0.458425,-0.507914,-0.154372,-0.153591,-0.300585,-0.414756,-0.303467,-0.277614,-0.452271,-0.187274,0.0580485,0.00515541,-0.0270652,-0.0395708,-0.0187675,-0.183285,0.150914,0.133892,0.187556,-0.0367249,0.117587,-0.139897,0.286839,-0.0405319,-0.087974,-0.246344,-0.448915,0.0709563,0.165392,-0.101993,0.101022,0.158786,0.212122,-0.0368002,0.0794305,-0.012681,0.342885,-0.45927,-0.409678,-0.420779,-0.0606959,-0.0462179,-0.15749,-0.312958,-0.213883,-0.140792,-0.59243,-0.000595003,0.0459065,-0.287443,-0.0755866,-0.253583,-0.0376128,-0.134906,-0.167307,-0.399847,-0.313376,-0.171817,-0.271476,-0.0814171,0.10051,0.0690277,-0.0955888,0.0669653,0.056886,-0.065941,0.270765,0.150508,0.0908072,0.0695072,-0.0572429,-0.304142,-0.216116,0.237768,0.129097,-0.203435,-0.182262,0.200075,0.19916,-0.0134735,-0.0149701,0.0867192,-0.0856115,0.173456,0.155316,0.000734482,0.000245784,-0.0573665,0.0420751,-0.108146,-0.0884351,0.187729,-0.0835896,-0.0998651,0.105484,0.243682,-0.233622,0.0749496,0.187309,-0.122875,-0.262545,-0.298172,0.1648,-0.0382599,0.208501,0.178795,0.226797,0.170416,0.456861,0.0894598,0.127415,0.063414,0.034624,0.00135264,0.0987163,0.0299794,-0.00632395,0.0546379,0.0753875,-0.0112787,-0.122706,-0.244908,0.187151,0.0386415,-0.242845,-0.430771,-0.233819,-0.0499927,0.155812,-0.0244431,0.0246783,-0.063053,0.123063,0.20075,-0.0817078,0.00350483,0.0532921,-0.0386938,-0.248894,-0.0343152,0.1009,-0.0733047,-0.090382,-0.0159117,-0.194517,-0.143142,-0.189444,-0.0714217,0.168641,-0.0734149,-0.315587,-0.522442,-0.0260861,0.0243499,-0.34179,-0.191758,-0.391226,-0.053935,-0.304116,-0.421082,-0.276104,-0.298673,-0.019766,-0.0160636,0.0173654,-0.13284,0.272815,0.0266721,0.210433,0.0275341,-0.157024,-0.529848,0.0887822,0.152675,0.00964943,-0.0291871,0.0655523,0.0892415,0.098609,0.111349,0.0102387,0.12237,0.00715619,-0.0452913,-0.0846042,0.0474294,0.00972645,-0.198288,-0.0666611,-0.101327,-0.41888,-0.175303,-0.130499,-0.0366728,0.0873061,0.0771363,-0.163045,-0.00940739,0.197119,0.107159,0.0236211,-0.372614,-0.0844598,0.0457041,0.194316,0.0560115,-0.27719,-0.147675,0.0558202,0.0477555,0.0522494,-0.295245,-0.105077,-0.361361,0.0377288,-0.113886,-0.224576,-0.12209,-0.255796,-0.0477251,-0.129127,-0.369817,-0.0201789,-0.227822,0.0173059,-0.0827848,-0.378586,-0.0381753,-0.119243,-0.0708322,-0.362733,-0.514409,-0.04951,-0.236931,-0.03934,-0.22546,-0.101451,-0.285143,0.143775,-0.0525728,-0.365161,-0.401849,-0.207261,-0.113975,0.0644755,-0.0180545,-0.520499,-0.101558,0.0415011,0.126874,-0.0994854,-0.182754,0.00957327,-0.07893,0.114645,0.154431,-0.275029,-0.0919761,0.105005,0.157822,0.153294,-0.126502,-0.0420735,-0.0177609,-0.188675,-0.335199,-0.223786,-0.0493222,-0.0315025,0.0394917,-0.0973342,0.00262026,-0.0430819,-0.0632962,-0.153126,-0.125384,-0.37843,-0.017185,-0.0319999,0.0148159,-0.424663,-0.837107,-0.175057,-0.0309477,0.105488,-0.0198315,-0.330772,0.0796983,0.0780365,0.118781,-0.122908,-0.0242702,0.0703335,0.0499333,0.0941246,-0.0362665,0.0260002,0.0259239,0.0430243,-0.029903,0.060111,0.0387696,0.275224,-0.0270233,0.417238,-0.0730878,-0.201254,0.305912,0.33753,-0.0653152,0.146049,-0.0149308,-0.145697,0.0222724,-0.105355,0.0874607,-0.346067,-0.0696501,0.00623226,-0.0830277,0.0181836,-0.348402,-0.110786,0.213977,0.00741915,0.0100065,0.0270263,0.0408509,0.0127057,0.10298,-0.0665793,0.0288743,-0.046236,0.133685,0.118496,-0.047551,0.0188609,-0.0287334,0.00341026,0.140721,-0.037069,-0.0754208,-0.113511,0.0366537,-0.0135282,-0.126664,-0.157307,-0.014901,0.131723,-0.0072774,0.292172,0.00630234,-0.171842,0.119299,0.124849,0.132035,0.0227887,-0.078526,0.0592707,0.12833,0.00561998,0.000826838,0.0245817,-0.151789,-0.336563,-0.196969,-0.486667,-0.0415574,-0.146407,0.0918696,-0.0831836,-0.297429,-0.0112785,-0.165252,0.108173,0.0809988,-0.147008,-0.0362288,-0.0207743,-0.0465538,0.175952,0.0870696,0.114295,-0.14029,-0.0522144,0.217502,0.0848994,-0.0989954,-0.0533444,-0.0852951,-0.0572839,-0.484228,-0.0872519,-0.0928924,0.0946747,0.172248,-0.155887,-0.0454535,0.0653662,0.230632,0.0464621,-0.0785795,0.23044,0.210075,0.121608,0.0605592,0.208625,0.0225789,-0.0188268,0.187856,0.176635,-0.233757,-0.123304,-0.220947,-0.572532,-0.589447,-0.402996,-0.110356,-0.0686032,-0.360821,-0.537984,-0.699041,-0.0713058,-0.0976395,-0.445907,-0.467773,-0.694684,-0.161941,-0.0499347,-0.0554719,-0.511775,-0.799216,-0.155951,-0.250881,-0.0172508,-0.0840656,-0.0596226,-0.0819106,-0.0461892,-0.0496887,-0.0562406,-0.0477684,-0.258299,0.059781,-0.0947201,0.00997742,0.0454047,0.00792007,0.185571,0.11258,-0.00616869,-0.126662,-0.234193,0.0225193,0.09269,-0.0380104,0.0772887,-0.165054,0.128061,0.00644463,0.0208683,-0.244142,-0.29188,-0.113619,-0.287627,-0.509078,-0.518682,-0.12223,-0.143412,-0.203373,-0.355179,-0.707527,-0.00988274,0.0328576,0.0132003,-0.220441,-0.484019,-0.031615,-0.110537,-0.03486,0.0233812,-0.215607,-0.256342,-0.203817,-0.202846,-0.00856473,0.0412626,-0.00531641,0.0386538,-0.272142,-0.107794,-0.136646,-0.146192,-0.0552295,0.0660546,0.219726,-0.466968,-0.0313113,0.123375,0.0146032,0.148431,-0.0902118,-0.0783419,0.130013,0.143629,-0.167681,-0.0549796,-0.131349,0.0945702,0.101694,0.0792944,-0.0974731,-0.139701,0.010913,-0.416159,-0.359275,-0.468331,-0.171747,-0.0498442,-0.179534,-0.348676,-0.629011,-0.0280571,0.0965903,-0.066872,-0.289302,-0.564616,-0.0203846,-0.0521448,-0.186842,-0.122693,-0.235785,-0.0958559,-0.232163,-0.142596,-0.0612594,-0.010105,-0.0126233,-0.0365657,0.0946906,-0.0994366,-0.310454,0.114815,0.0135629,0.0461318,-0.20121,-0.462864,0.0858339,0.0685545,0.193123,-0.0176155,-0.0547187,0.1637,-0.0969608,0.21119,0.0728426,-0.0152523,0.0235395,0.0410845,0.107859,-0.041608,0.0401579,-0.140396,-0.0628988,0.103359,-0.311713,-0.711108,-0.0528577,0.161461,0.222334,0.128314,-0.5158,0.0589451,-0.00575931,0.0739504,0.00438151,-0.335331,0.0883964,0.0476462,0.111047,0.0871805,-0.131876,-0.0215095,-0.220887,0.181494,0.0590429,-0.0231573,-0.218736,0.108774,-0.00233867,0.0410029,-0.0283767,-0.106771,-0.380679,0.0681881,0.0293126,0.185616,0.239614,0.0840121,-0.376807,-0.107802,0.0150121,0.104773,0.172795,0.0536836,-0.179725,-0.0546667,-0.173753,0.0776182,0.125641,0.132658,-0.0553652,0.0383339,0.0609504,-0.0198215,-0.00669958,-0.056368,-0.334107,0.00884732,0.0274646,0.100099,-0.0354831,-0.104989,-0.404809,-0.308392,-0.116125,0.00143392,0.0228085,-0.0607259,-0.148895,0.0989329,-0.00327762,-0.126693,0.0723766,0.048966,0.0886168,0.0423622,-0.22617,0.283183,0.258279,0.129502,0.015257,0.119117,-0.307599,0.00460194,0.157994,0.158504,0.259744,0.263037,0.0658129,0.0351505,0.186073,0.115354,0.211583,0.178647,0.204734,-0.297202,-0.451401,0.116475,0.0954736,0.0538363,0.102757,-0.132332,0.11048,0.0755624,-0.0276862,-0.188834,-0.613094,-0.132348,0.0136909,0.0929246,0.171837,0.109425,-0.174262,-0.56601,0.0874293,0.213999,0.1443,0.147743,0.12722,-0.0745132,-0.160553,-0.152288,0.077795,0.19995,0.00585226,0.0477176,-0.16375,-0.383926,-0.0911997,0.135272,-0.076951,0.0497252,-0.117974,-0.798105,-0.0415787,0.183923,0.0740672,0.256915,-0.0925307,-0.358233,-0.00859261,-0.163772,0.100126,0.181339,-0.173749,-0.292948,-0.53137,-0.199001,0.0673023,-0.0464523,-0.077513,-0.232655,-0.262078,-0.0723101,-0.141095,-0.137691,-0.155531,-0.247081,-0.563254,-0.252182,-0.0869906,-0.212574,-0.319331,-0.492958,-0.312667,-0.136685,-0.284301,-0.230231,-0.305041,-0.219882,-0.0258744,-0.144092,-0.011034,0.0180037,-0.203242,-0.0480192,-0.242975,-0.141768,0.00806502,0.00988848,-0.13985,-0.0930967,-0.11209,-0.224273,-0.000716278,0.0120503,-0.0283982,0.00466298,-0.32321,-0.215149,-0.0769436,-0.139575,-0.14557,-0.293421,-0.343033,-0.17902,-0.178516,-0.0947418,0.0411667,-0.314637,-0.120431,0.093298,-0.344453,-0.0604804,0.164546,0.265763,0.294831,0.00725904,-0.370066,-0.105734,0.326146,0.0614218,0.19808,0.178349,-0.158035,-0.4765,-0.500547,-0.0500664,0.125847,0.0853986,-0.0554962,0.0829293,-0.332903,-0.155678,0.027378,0.0659731,-0.351413,-0.257141,0.166375,0.101903,-0.0672965,0.140383,-0.342231,-0.649937,0.0470598,0.176813,0.142216,0.219239,-0.0121368,-0.471426,-0.116639,0.0332564,0.131583,0.165994,0.0531677,-0.327499,-0.473014,-0.0244962,0.0874782,0.101874,-0.0915347,-0.108469,0.0376714,0.0254485,-0.0111087,0.0776587,-0.0522593,-0.1522,-0.0452801,-0.0425252,0.169831,0.0374556,-0.329831,-0.71293,-0.454418,-0.00562921,-0.0332515,0.123023,0.0701239,-0.0873575,0.0281716,-0.286914,-0.0771766,0.0816508,0.140869,0.182324,-0.486755,0.0123343,0.0437305,-0.0226081,-0.060463,-0.147394,-0.688775,-0.000688018,0.10042,0.133493,0.262389,0.0485275,-0.969119,-0.101988,0.095859,0.251684,0.136505,0.0665888,-0.275975,-0.229431,-0.191023,0.0416035,0.159371,-0.101926,-0.132664,0.0457092,-0.000445024,0.00952513,0.0627086,0.0919949,-0.137511,-0.0408447,-0.0559829,0.0415119,0.219631,-0.0384297,-0.0531745,-0.330061,-0.262028,-0.3367,-0.222506,-0.127617,0.03061,0.0779861,-0.00985468,-0.0920447,-0.114869,-0.00101163,-0.0163208,0.0434656,-0.110952,-0.0598847,0.0389294,-0.0367543,-0.170944,-0.184141,-0.150371,0.159216,0.020854,0.108956,0.14746,-0.217235,-0.356262,0.0918188,0.0638403,0.066668,0.0853032,0.0158744,0.00552928,-0.163859,-0.159015,-0.0570666,0.0694302,0.15794,0.0845869,0.0476008,-0.031721,0.054441,0.07776,0.0175299,-0.184534,-0.00350054,-0.0141655,-0.0358215,0.0444774,-0.0444933,-0.269768,-0.427022,-0.46776,-0.249788,-0.195241,-0.154374,-0.0324388,0.0706114,0.0703776,-0.0485235,-0.164693,-0.0643447,0.0540397,0.054956,-0.0522445,-0.0142476,-0.135519,-0.0241955,-0.0179991,-0.0314504,-0.00950325,-0.115069,-0.249511,-0.251438,-0.173638,-0.144811,-0.320024,-0.137235,0.0511117,-0.201342,-0.161542,-0.250646,0.0337581,0.0102575,-0.0643834,0.0637339,0.115855,-0.0733316,-0.00423515,-0.256111,-0.0585979,0.0678135,0.137232,0.0574658,0.15952,-0.260081,-0.334489,0.130334,0.157699,0.169961,0.128938,-0.0762397,-0.414642,-0.044563,-0.0472944,0.119436,0.105876,0.0322771,-0.149127,-0.176014,-0.0941321,0.0507496,0.0634813,0.0718947,0.048914,0.0628409,0.0384942,-0.325117,0.0358327,0.152351,0.0990657,0.0709539,0.0725457,0.0579099,0.0934954,0.155877,-0.157591,-0.427668,0.0894046,-0.0224848,0.113818,-0.300301,-0.129211,0.0513043,0.00104606,0.0116269,-0.251714,-0.302092,0.0637458,-0.0906242,0.0909965,-0.0281422,-0.321182,-0.484652,-0.0135362,0.130224,0.0991272,-0.228249,-0.171541,-0.0330229,0.0926749,0.0967804,-0.442284,-0.0025272,0.0390533,0.189745,-0.00207104,-0.634175,-0.121102,0.062052,0.057967,0.0221334,-0.284064,-0.049224,-0.136955,-0.12658,-0.0118036,-0.549477,-0.0414082,0.0549378,0.0148976,-0.234188,-0.447189,0.0134431,-0.112461,-0.140054,-0.273511,-0.50378,-0.154426,-0.261769,-0.103431,-0.353737,-0.696246,-0.13038,-0.225536,-0.000246759,-0.146565,-0.590269,-0.0434225,-0.00550538,-0.110337,-0.244005,-0.287051,-0.132509,0.00982232,0.0618602,0.00700876,0.105898,0.0816731,-0.104656,0.0815757,-0.129247,-0.467302,-0.218155,-0.284281,-0.0141896,-0.325532,-0.660684,-0.29353,-0.204137,0.0157385,-0.0830545,-0.270642,-0.175616,-0.129515,0.0877037,0.105318,-0.0218472,-0.0306133,0.176776,0.00975158,0.00626108,0.115703,0.0494991,0.0813788,0.0337934,-0.0177815,-0.0671753,0.135486,0.0954097,0.0718625,-0.0996113,-0.112122,0.0849012,0.0880506,0.0391273,-0.0472236,-0.253812,-0.0139596,0.233042,-0.0138986,-0.204376,-0.256628,0.185443,0.144663,0.124093,-0.0429259,-0.253895,0.122499,0.0765433,0.0606427,0.146262,-0.121729,0.0499945,0.100982,0.338459,-0.000771275,-0.0593891,0.0283403,0.16982,0.171657,-0.0914824,-0.081692,0.0528409,0.178115,0.156227,-0.000984681,-0.16024,0.152022,0.0925689,0.0719572,-0.0426241,-0.262741,0.0310919,0.156339,0.177088,0.141507,0.0612067,0.0755825,0.0587115,0.0324898,0.167466,-0.0657961,-0.00813936,0.02163,0.230263,-0.0213449,-0.206774,0.0627922,-0.270548,-0.167292,-0.123202,-0.507045,-0.421182,-0.171777,-0.0967701,-0.178641,-0.480358,-0.594992,-0.314376,-0.131704,-0.220733,-0.225799,-0.627977,-0.455463,-0.0178746,0.0032219,-0.190208,-0.19715,-0.401353,-0.029417,0.0435315,0.00813788,-0.104367,0.0809194,0.0577938,0.111643,-0.328918,0.114126,0.121183,0.192647,0.0932107,-0.257389,0.111031,-0.0373833,0.0239597,-0.0463261,-0.324726,0.0992821,0.0765723,0.0697646,-0.0570972,-0.344357,0.175874,0.0708135,0.0367937,-0.049918,-0.564049,0.0525125,-0.130765,-0.0899649,-0.394427,-0.542989,-0.553749,-0.11893,0.0411165,-0.0556402,-0.370773,-0.302692,-0.117441,0.0334667,-0.177914,-0.77896,-0.130424,-0.210661,0.0318084,-0.259522,-0.678714,-0.296097,-0.212806,-0.0235661,-0.046881,-0.285712,-0.141557,0.0563449,0.285019,0.0690988,-0.0670107,0.0700118,0.227495,0.0553691,0.0261497,0.0671777,0.107903,-0.0121011,0.0249309,0.0326882,-0.376072,0.0115666,0.0407239,0.112235,-0.258096,-0.147794,0.207444,-0.0192515,0.155923,-0.229395,-0.347403,0.139989,-0.151736,-0.163866,-0.335959,-0.728474,-0.408628,-0.181113,-0.0723484,-0.185355,-0.610428,-0.644035,-0.214085,-0.0443425,-0.190558,-0.494525,-0.238601,-0.194012,-0.0106495,-0.0989279,-0.439782,-0.148742,-0.144177,-0.233494,-0.0687042,0.0424774,-0.0570382,0.042625,0.10481,-0.201561,-0.629419,0.0785978,0.0915314,0.0923755,0.079935,-0.182416,0.0964336,0.17923,0.143525,0.0907177,-0.400279,0.125101,0.113962,0.234905,0.143711,-0.19138,0.104813,0.0130029,0.107167,-0.172281,-0.137092,0.0308398,-0.0932718,-0.00642652,-0.165658,-0.705224,-0.667214,-0.130076,-0.0435084,-0.111412,-0.446705,-0.673128,-0.162552,0.0132678,-0.116817,-0.498772,-0.166536,-0.107679,-0.0344275,-0.113697,-0.389981,-0.225536,-0.059041,-0.123543,-0.0902207,-0.0302089,0.0298025,0.0114856,0.0927682,-0.0660793,-0.582153,0.141123,-0.0375801,0.13955,-0.0242761,-0.635974,0.118991,0.0474756,0.108483,0.0684032,-0.447863,-0.00564827,0.0872923,0.255641,0.0694219,-0.131268,0.0365085,0.145804,0.0914813,0.0827033,0.0116002,0.0568526,0.00971528,0.161486,0.0482822,-0.710013,-0.00384934,0.0335792,0.118116,0.0881452,-0.696862,0.0518984,0.0970537,0.0967984,0.0260208,-0.475059,0.0670959,0.0207688,0.0883528,-0.115141,-0.347675,0.125367,-0.00803516,0.0230626,-0.0394881,-0.265309,0.0819568,0.0733741,0.146873,0.0654451,-0.0290447,-0.0983026,0.224034,0.290224,-0.0254133,0.0754564,-0.0421973,-0.0461923,0.106192,0.0686672,-0.058644,-0.0176748,-0.446409,-0.146398,-0.136227,-0.117566,-0.0929844,-0.28275,-0.328613,-0.183547,-0.352863,-0.0995,0.0927009,0.0956661,0.0648125,-0.280673,-0.132328,0.107865,-0.0577071,-0.0401999,-0.00414555,0.0880658,-0.0296538,0.0153304,0.00830808,0.0644404,0.00642091,-0.242453,-0.0858027,-0.33654,-0.197796,-0.051364,-0.35358,-0.119003,-0.208398,-0.048815,0.104048,0.0408071,0.124,0.232878,-0.0709698,-0.0902241,0.0954899,0.238957,-0.0348555,-0.16294,-0.0110947,-0.331444,0.207222,-0.189815,-0.194129,-0.0128992,-0.0403321,-0.278211,-0.456726,-0.395517,-0.126184,0.0279787,-0.386294,-0.00528735,-0.0776503,-0.250835,0.0701373,-0.0316036,-0.0707376,-0.240118,-0.120003,0.130187,0.0638154,0.171668,-0.0956019,0.150451,-0.0806382,0.285586,-0.247952,-0.00762363,-0.025728,-0.221975,-0.251994,0.0309414,-0.0385121,-0.0877254,-0.435959,-0.0246972,-0.186614,-0.375331,-0.059704,-0.0274432,0.227438,0.16915,0.0210158,0.208053,-0.114797,0.161331,0.105568,-0.0460541,-0.0195168,-0.183699,-0.183363,-0.257331,-0.601742,-0.196432,-0.0964078,-0.34499,-0.647271,-0.522968,-0.23494,-0.0399591,-0.303184,-0.325271,-0.261546,-0.216704,0.0836207,0.108028,0.145466,0.286484,0.106778,-0.0467214,-0.0195793,-0.445733,0.0646465,0.0423416,-0.224774,-0.399262,-0.537294,-0.0769094,-0.033256,-0.32532,-0.489565,-0.281986,-0.197573,-0.102576,-0.416723,-0.492353,-0.0397685,-0.0963963,-0.0273724,0.00514409,0.107991,-0.00010455,0.186751,0.221462,0.142357,0.0574526,-0.0332966,0.150614,-0.0179624,-0.418426,-0.221012,-0.371973,-0.00696882,-0.048947,-0.428664,-0.351713,-0.367491,-0.0961913,-0.0681112,-0.372481,-0.406859,-0.048022,-0.0830824,-0.000505218,-0.0886331,0.0270049,-0.0671788,0.0534123,0.00969,0.111967,0.107687,0.148932,-0.138997,-0.0480906,-0.183003,-0.0703958,0.0133214,-0.223905,-0.3614,-0.00838278,-0.119659,-0.291968,-0.345093,-0.654161,0.00161079,0.0468376,-0.131573,0.0278114,-0.0477331,0.00349936,0.178026,0.173861,0.0432167,0.0614165,0.0263104,0.24423,-0.0436691,-0.132937,-0.00254014,-0.805213,-0.12381,-0.373391,-0.259264,-0.0311371,-0.431863,-0.322048,-0.323211,-0.580551,-0.0525851,-0.0318591,-0.307613,-0.273116,-0.418508,-0.23701,-0.0181255,-0.0775278,-0.111681,-0.315473,-0.214372,0.114228,0.0911836,0.0159242,0.0837073,0.07199,-0.0175526,0.0302032,0.0313703,-0.0410561,-0.0100767,-0.332926,-0.286326,-0.140081,-0.296059,-0.179992,-0.377667,-0.28454,-0.21387,-0.243483,-0.0237187,0.129903,0.176817,-0.115745,0.127456,0.0258335,0.161634,0.24434,-0.0334844,0.0173293,-0.100827,-0.155838,0.00718811,-0.119253,-0.0161035,-0.0025372,-0.631235,-0.294728,-0.234168,0.0497042,0.0577758,-0.198951,-0.432048,-0.0988759,-0.12109,-0.158621,0.0910916,-0.0951696,-0.146783,-0.144678,-0.198693,0.0648127,-0.116606,-0.0403766,-0.0610055,-0.0675052,0.144632,-0.0215384,-0.0916709,-0.0496807,0.054949,-0.3935,-0.255166,-0.308778,0.0450956,0.127397,-0.0238452,0.0558171,0.163827,0.0480565,0.0548227,-0.0659376,0.0208601,0.0452891,0.0352056,0.0459841,0.130369,0.192873,0.00612229,0.0702047,0.102464,0.0534756,0.100296,-0.0055126,0.0146275,-0.0210374,-0.0951666,-0.293645,-0.214281,-0.185052,-0.0177265,-0.224838,-0.281777,-0.132842,-0.238746,-0.0379628,0.0716893,0.00656056,-0.0980496,-0.111893,-0.0617476,0.0284244,-0.028857,-0.0959861,0.0139483,-0.0599415,0.0148619,-0.0187284,0.00586255,-0.0891298,-0.0138615,-0.232591,-0.493431,-0.324389,-0.0949482,0.0455346,-0.0404341,-0.0131168,-0.0972303,0.0547521,-0.0337235,-0.0581119,0.15539,0.0388517,0.231162,0.287433,0.093339,0.00709718,0.107398,0.0650784,0.0927784,-0.0101157,-0.152001,-0.375622,-0.121458,-0.0367624,-0.190355,-0.411316,-0.418954,-0.133737,-0.0829845,-0.211235,-0.26934,0.0212081,0.0614478,0.00485444,0.0626129,0.174998,0.0446278,0.0500541,-0.08982,0.0847354,0.28926,-0.0160087,-0.00574135,0.0613224,-0.242947,0.239804,0.00188183,-0.201998,-0.209826,-0.24171,-0.683357,-0.415174,-0.388702,-0.210455,0.0175405,-0.0429638,-0.106664,-0.199189,-0.244676,0.0476768,0.132246,-0.0368504,-0.143038,-0.0193364,0.0299335,0.159304,0.0257493,-0.239113,-0.216807,-0.0734364,0.153133,0.10121,0.0387066,-0.622122,0.1059,0.151883,0.157499,0.109376,-0.109881,-0.205563,0.105345,0.247788,0.427247,0.056366,-0.0591196,-0.104931,-0.198056,-0.457734,-0.529072,0.00536719,-0.00868561,-0.361993,-0.51463,-0.314949,-0.0894151,-0.0198683,-0.129281,-0.257882,-0.276663,0.0184692,-0.00551098,0.0975934,-0.284416,-0.205339,-0.308722,-0.356462,-0.0864278,-0.22112,-0.19085,-0.0970411,0.199774,0.140592,-0.457844,-0.219647,0.104135,0.228823,0.146576,0.0298753,-0.417388,-0.0337161,0.238544,0.10236,0.070618,-0.234717,0.0167277,0.14248,0.0396536,0.0638467,0.137559,-0.153642,-0.0563816,0.0741234,0.245237,-0.0221816,-0.0709383,0.000523739,-0.199828,-0.085248,-0.10733,0.0877236,0.156402,0.179117,-0.253105,-0.0346094,-0.107091,0.135718,0.177596,-0.0932924,-0.162422,0.00582505,0.0621621,0.165661,0.0560775,-0.169943,0.0326748,0.0564725,0.127837,0.164448,-0.0772128,-0.0726705,0.154238,0.158496,-0.304305,-0.786098,0.00814258,0.225586,0.117299,-0.108257,-0.507717,-0.271481,0.117814,0.0071423,-0.0560893,0.0484053,-0.550108,-0.0522163,0.0450299,-0.0465092,-0.0449641,-0.553531,-0.271755,-0.00935246,0.0985771,0.218546,0.0693261,0.121786,-0.198129,-0.44657,-0.5681,-0.000960532,0.0230986,-0.121977,-0.701644,-0.227004,-0.142495,-0.179834,-0.170563,-0.384818,-0.448663,-0.415694,-0.49774,-0.0448174,-0.0271654,-0.386645,-0.428706,-0.489502,0.0260321,0.0779115,-0.0667096,0.129415,0.0929596,-0.103425,-0.511894,-0.254667,-0.0178793,0.0170662,-0.0391088,-0.219064,-0.436176,-0.0476643,-0.222848,-0.0153275,0.114847,-0.292434,-0.360702,-0.254577,0.0344839,-0.0061702,-0.424524,-0.573668,-0.378661,0.0900866,0.141515,-0.00650801,-0.134717,0.0796066,0.255282,0.0834069,-0.458082,-0.0969453,0.126496,0.239053,0.11039,-0.115905,-0.115165,-0.00551251,0.114275,0.0970657,0.0774171,-0.22903,-0.101388,0.0141558,0.176409,0.0403682,-0.185666,-0.173392,-0.314904,-0.0176916,0.0507778,-0.0633307,0.115343,0.101923,-0.32937,-0.0569782,0.0584232,0.232314,0.155031,-0.0357975,-0.35206,0.220674,0.109437,0.0837998,0.020491,-0.21362,-0.344969,0.0800934,-0.0162872,0.0961825,-0.101598,-0.393512,-0.202411,0.0714133,0.118164,0.11276,-0.0136303,-0.0220673,-0.624309,-0.379801,-0.242355,-0.0521055,0.104031,0.0832792,-0.591523,-0.547073,-0.0512053,0.0528179,0.171052,-0.0160113,-0.392993,-0.0632127,0.0794296,0.0733154,-0.0206485,-0.184846,-0.0994061,-0.0438372,0.0566728,0.125636,-0.0507841,-0.00950826,0.000402595,-0.319639,-0.308508,-0.107917,0.0529012,0.218007,-0.00352802,-0.218083,-0.220605,-0.0563026,0.0498756,0.0109257,0.0652033,-0.536133,-0.137917,0.128638,0.109135,0.162205,-0.122517,-0.57322,-0.174541,0.155584,0.217578,-0.0784837,-0.071261,-0.224095,-0.643684,-0.519599,-0.388566,-0.059167,-0.00817782,-0.0857414,-0.218126,-0.486968,-0.176792,-0.0006702,0.102862,0.0513582,-0.117644,-0.265825,-0.32866,-0.151783,-0.124439,-0.173632,-0.342149,-0.428396,-0.188539,-0.0631593,-0.00168721,-0.0287624,0.12742,-0.48234,-0.681652,-0.168249,-0.0837787,0.100554,0.00191969,-0.425354,-0.326529,0.0337512,0.0495502,0.112988,-0.0683934,-0.322217,-0.169551,0.0921924,0.13586,0.0912688,-0.183429,-0.447642,-0.209531,-0.00655339,0.221706,0.0330534,-0.0547622,-0.0824414,-0.605375,-0.665681,-0.818408,-0.0655448,0.0536839,-0.162116,-0.428753,-0.729844,-0.123056,0.0375375,0.0660654,-0.100046,-0.251984,-0.237753,-0.155346,-0.483222,-0.16916,-0.244204,-0.353753,-0.598887,-0.486348,-0.209176,-0.0314858,-0.00617432,0.0256163,-0.118782,-0.684382,-0.682758,-0.00132223,-0.132704,-0.158442,-0.620095,-0.611571,-0.142801,-0.310209,-0.192602,-0.287562,-0.479179,-0.375506,-0.654233,-0.191619,-0.14907,-0.302935,-0.743707,-0.697616,-0.162129,-0.0405649,-0.0698558,